764 100
the 0.043473456 0.049143266 -0.013757445 -0.017715741 -0.026797915 0.005135108 -0.037125528 0.043022525 -0.0023144 0.029499877 -0.024198925 -0.029115189 0.02876984 -0.045346785 -0.012879837 0.02171452 -0.047698498 -0.03552382 0.003675364 -0.046094216 -0.0022564903 0.015861008 0.0015119426 0.04922429 0.04117525 -0.029585183 -0.033928357 -0.033860818 -0.010174025 0.016417135 0.014525864 0.032487188 -0.026350701 0.02211466 -0.03254856 0.036636654 -0.020296741 0.009891711 -0.04918697 0.002733685 0.046292994 0.020019483 0.038198713 0.030999068 0.0039895773 -0.021016037 -0.0183959 0.030416992 0.049639586 -0.04857261 -0.0034770854 0.041956913 0.010621678 -0.04061214 0.048072305 0.032055233 0.027129617 -0.020511044 0.011016678 -0.01509627 0.008310653 -0.0017332546 0.040392186 0.017286453 0.0140146725 0.0037296414 0.03272495 0.034648206 -0.048349727 0.03898373 -0.016391374 -0.015166234 0.038812283 0.014117565 0.0071010105 0.044761125 -0.030882036 -0.0057129376 -0.04098172 0.014758434 0.0012218244 -0.021694446 0.00079307705 0.0011899099 -0.0481642 0.023052517 0.006710399 0.024074797 -0.04639074 -0.0137762055 0.0114597455 0.029339004 0.016228545 0.048929933 0.0026027076 -0.02817744 0.0034312718 0.04144304 -0.013340272 0.044015083
she 0.005889941 -0.015319835 0.04920684 0.035194304 -0.025625909 0.029998038 0.00641755 -0.028324677 0.02166846 -0.014642298 -0.045452178 0.012204576 -0.017873537 -0.005488254 0.04108018 -0.0005152598 -0.008443724 0.021842863 0.021302704 -0.012763739 -0.003439378 -0.03372425 -0.043982804 0.045161735 -0.006393768 -0.021892382 -0.021141816 -0.019147158 0.018463735 -0.017015982 0.02739494 0.03289627 0.04388806 -0.035791695 -0.027618397 -0.028443564 0.01649442 -0.028171146 -0.039214563 0.009351682 0.00483514 0.0025873408 -0.015987348 -0.04663619 0.012704883 0.044486884 -0.023994422 -0.014408313 0.009040296 -0.02484621 -0.011873603 0.011560857 0.02667084 0.02461407 -0.015235223 -0.041832447 0.04174609 0.02639475 -0.0070979707 -0.018223487 -0.04332887 -0.02468188 0.02166811 0.025872458 0.02903426 -0.027316188 -0.011187244 0.01928002 0.02102374 0.00794933 -0.010057367 0.04971892 0.041315887 -0.016122602 -0.029939627 -0.042678 0.027170386 0.020148624 -0.033984795 -0.00021303818 0.028364923 0.036560524 -0.029478585 0.046080064 -0.037347864 -0.037116505 -0.04394721 0.01824819 -0.0127455 0.010455061 0.0011078604 0.025603008 0.016085256 -0.0084686875 -0.019796992 -0.049669113 -0.013848089 0.022562478 -0.03350816 -8.138269e-05
to -0.0140562765 -0.0483925 -0.040435184 -0.028604973 0.028761994 -0.0014065392 -0.04126557 -0.034909748 0.0077955723 0.010376714 -0.01951251 0.0076088198 -0.03702749 -0.012505613 -0.048702467 0.03783535 0.016986635 -0.048870932 -0.01716571 0.02895743 0.045843307 0.036646213 -0.012575485 -0.032368816 -0.037270583 0.006307207 0.033780817 0.033449743 -0.035416804 0.0042387247 0.043767754 -0.011120416 -0.0072599277 0.021661665 0.033332173 -0.03141947 -0.033235274 -0.03754747 -0.02556783 -0.045781862 -0.030940164 0.0011281967 -0.0029095635 -0.023351729 -0.04111743 -0.037592303 0.017392222 -0.019053757 -0.009937942 -0.00097315386 0.04421078 -0.007581927 -0.049213447 0.028592352 -0.017319717 0.02026819 0.0056452528 -0.0050268658 -0.04672427 0.02809855 -0.049807765 0.029023293 -0.020259285 0.034088206 -0.024449015 -0.034413088 0.021722142 0.0358102 -0.03784286 -0.022352135 -0.011716593 0.037403237 -0.039658356 0.019324627 0.035501454 0.016996536 -0.035943665 0.024721753 -0.0075386763 0.036052372 0.04447526 -0.030884802 -0.020403935 0.022308972 0.0449644 0.0231408 -0.0313372 -0.043030597 0.0017779358 -0.038393676 -0.010002352 0.03423706 0.024842072 0.018887851 0.021503758 0.0060533397 -0.0041764155 -0.015438415 -0.0057379603 -0.017068136
and -0.009384774 0.0067813993 -0.0023850799 -0.03761039 0.0033862963 0.010887314 -0.012392331 0.033102583 -0.0136803165 0.011323381 0.04777256 0.04965749 -0.012171902 -0.037997413 -0.035582565 0.015150014 0.020558465 -0.036469795 -0.013001513 -0.040155936 -0.04271431 0.02646828 -0.049284983 -0.03444314 0.047200684 -0.00091362 -0.036253225 -0.03264766 -0.041164257 0.039708067 0.048920285 0.04722676 -0.039696217 -0.015007138 0.04232541 0.0038374066 0.04511759 -0.03802116 -0.01129074 0.01687714 0.0100317 0.0049102083 0.00056248903 -0.02267388 0.016375732 0.024910871 0.027418423 -0.048273277 0.048644748 -0.010739781 -0.00026233122 0.033924807 0.025635127 -0.019111156 -0.016038693 -0.047027897 -0.00269394 0.014685679 0.014459442 -0.013531219 -0.0015893802 0.00012458488 -0.045991886 0.0033210516 0.015762713 -0.016287543 0.04624385 0.043715503 -0.0364092 0.013242949 -0.03141334 -0.015818633 -0.030291844 -0.02419554 0.017912004 -0.007652331 -0.0068310276 0.03147422 0.028164748 -0.012008309 -0.00055072457 -0.03067658 0.033687662 -0.03904178 -0.004763376 -0.030306507 -0.016318072 0.030913178 0.023049925 -0.016436078 -0.047262978 -0.0056543127 0.0034247264 -0.0144605525 -0.0049430244 -0.014988087 0.022967193 0.018154133 0.02485032 0.017981078
it 0.03525913 0.045513336 -0.021509027 -0.003568031 0.034055088 -0.03739903 -0.012733422 -0.008862484 0.020389903 -0.0009950995 -0.039302994 0.0005806796 -0.047931936 -0.022431767 -0.025047386 -0.034107804 0.00996431 0.0067983866 0.016817894 -0.0025141835 -0.0038994327 0.04063313 0.030951347 0.0128847845 0.024076376 0.0012563467 0.018495847 -0.008980632 0.028638307 -0.016603876 0.035073508 0.025593232 -0.02513113 -0.014169205 -0.022676384 -0.038944256 0.04890119 0.021729771 0.0077520497 -0.027317787 0.002949752 0.011527896 0.044946734 0.002674006 -0.029846644 0.04867101 -0.031188954 0.02984475 -0.034569155 0.04881492 0.029116701 -0.0038697831 -0.027679289 -0.014669262 -0.016966678 -0.03215264 -0.024496531 0.04533763 -0.0020655617 -0.013802219 0.0014169328 0.040116917 -0.045764577 0.031505454 0.04884627 -0.032153297 0.012198269 0.0134357475 -0.002772916 0.0030442476 -0.044939946 0.005682122 0.0017801151 0.04562259 0.022616852 0.032394323 -0.026861941 -0.03967 0.011629332 -0.010826837 -0.0031071678 0.014003601 -0.03628864 -0.0050079226 0.007711161 0.023970354 -0.008979607 0.034411717 -0.04495425 -0.036803316 0.039376322 -0.019006073 0.046909425 -0.04309399 0.028528992 0.01809651 0.026598405 -0.014810752 0.023471583 -0.018749643
was -0.03312234 0.03152634 -0.014004171 -0.048945058 0.04804829 0.04282279 -0.025051702 0.010051608 -0.0061669573 -0.0033348575 -0.037788797 0.024741922 -0.015739512 0.029093493 -0.032120585 0.0367626 -0.048842084 0.0009761341 -0.01148833 0.028281618 0.025132429 0.02262858 0.027519468 -0.043781865 -0.008817293 0.038697828 -0.036097277 -0.04122908 -0.023801435 0.023246732 -0.038566697 0.009894431 0.017161738 -0.017843582 0.0017213002 -0.019517327 0.006282091 0.03847534 -0.033651136 -0.018331967 0.035508636 -0.04968084 -0.042779006 -0.022148704 0.007777728 0.02072749 0.0029840246 -0.048069812 0.020478833 -0.04826913 -0.0029789805 -0.046306193 0.015407037 0.037561607 -0.012494933 -0.020014537 0.041255426 -0.01450951 -0.009562694 0.04501592 0.009277869 -0.026084697 0.043513183 0.04526085 -0.03770845 0.029799644 -0.047395326 -0.02403909 -0.035351623 -0.023798442 0.018281672 -0.03776603 0.04119349 -0.029592251 -0.017170262 -0.012456991 -0.023391068 -0.030355979 -0.040869225 0.031653885 0.026419867 0.008225501 -0.013938069 -0.0021883622 -0.0076617114 -0.04382757 -0.011711527 0.00423019 0.03678793 0.009281028 -0.017373763 0.01657695 -0.011246454 0.020913687 0.024931584 0.022848893 -0.04991714 -0.027113354 0.0307271 -0.04122026
a -0.013234936 -0.009879552 0.0056555383 -0.019922627 0.012398206 -0.012926064 0.0038703308 0.016199175 -0.040928625 0.014658693 0.024748292 -0.020991314 -0.03558737 0.017734002 -0.0467181 -0.033163965 -0.009342432 0.038002435 -0.022076655 -0.02537793 -0.01108693 -0.023881853 0.03219023 0.0054442286 0.034893606 0.009033121 -0.006622564 -0.0021040216 0.03678299 0.004837882 -0.037274312 -0.03088442 -0.03239703 0.005292617 -0.03648653 -0.029082729 0.025156114 -0.045522463 -0.04582485 -0.044569638 0.0460737 0.010567032 -0.02649423 -0.020497216 -0.01684029 0.010893632 -0.017844178 0.041976046 -0.027035845 0.0010666475 0.049444024 0.012546491 -0.04215523 -0.029560877 -0.038050283 -0.021365775 -0.047885146 -0.023947572 -0.028931653 -0.027048802 -0.010115135 -0.048924115 0.037455093 -0.0039353967 0.025802378 0.015479531 -0.03626629 -0.006294798 -0.0029063448 0.0011941418 -0.038629092 -0.00029988214 -0.021521663 0.0088940635 -0.031271685 0.030319396 -0.047249593 -0.01680236 -0.034174338 -0.015206169 0.021856096 -0.0016991012 0.013489965 0.032208648 -0.03200783 -0.007433951 0.022572804 0.03191817 0.014501762 -8.370727e-05 -0.03185271 -0.018123887 -0.00817547 0.022633258 0.015460122 0.018591154 -0.044297613 0.024893451 0.009264253 0.0044948235
of 0.036214102 -0.045184087 -0.027757203 0.023034181 0.017986964 -0.04289634 -0.023195768 0.012420844 0.038492907 0.011075914 -0.02384509 0.01870307 0.014989983 0.039219383 0.021553908 -0.030080212 -0.04654001 -0.016457964 -0.0069252476 -0.014686704 -0.0059371963 0.023311961 -0.040323935 -0.018436514 -0.014806829 -0.0046915896 -0.007827722 -0.0059480555 0.038833406 0.021027636 0.014996376 0.003277935 0.0057377703 0.039158884 0.012774494 0.014869008 0.040333297 0.0017637387 -0.004413821 0.007706225 0.01877055 0.013680089 0.014056895 0.011675201 -0.044169784 -0.046762466 -0.04282513 0.005927585 -0.049027205 7.6293945e-06 -0.04755473 -0.04231235 -0.041680623 -0.020227397 0.03597908 -0.015806247 -0.044914212 0.04472584 -0.017967034 0.023889933 -0.019909669 0.03826681 -0.032223333 0.017745722 0.011778723 -0.046588957 0.03218708 0.041080426 -0.04077705 -0.012459911 0.047275078 -0.0011099093 0.033813957 0.044205856 0.027144026 -0.011313379 -0.004919123 -0.011987351 0.048684333 -0.00057729334 0.043098044 0.0126669295 0.015216794 0.033294354 -0.022700513 -0.004268743 -0.007363666 -0.011540271 0.025309358 -0.02028345 0.033770178 -0.02675811 0.0319545 0.04214723 0.013108198 0.025904808 0.017025564 -0.028227627 -0.04671178 0.0054340586
’ -0.026913702 -0.03104279 0.048417058 -0.008316994 0.03750268 -0.045433965 -0.04501021 -0.04228103 -0.0019218698 -0.049826253 0.04565573 0.0068864226 -0.017705392 -0.016124152 0.004858304 -0.045035373 -0.0037100688 -0.039515745 0.019770984 -0.045600176 -0.022174383 0.0005573258 0.022288311 0.013149109 0.01141436 -0.012270559 0.039001416 0.04207735 0.035165016 -0.033021856 -0.045298576 -0.039090108 -0.032521296 0.010434937 0.010550104 0.034899104 -0.045386232 -0.045205653 0.034617696 -0.043896187 -0.043095052 -0.03169258 -0.018746354 -0.048980545 0.042519975 0.010938298 0.027420867 0.013672028 0.028480042 -0.03818214 -0.043382443 0.049163315 -0.04886619 0.022628162 0.0025754794 -0.04824997 -0.009031653 -0.028978407 -0.033514038 0.045456517 -0.016227625 -0.0049315915 0.03695852 0.032235954 -0.0045027733 0.027758751 0.029449526 0.022072185 -0.036586594 0.009029269 -0.010228585 -0.031113101 -0.0027669556 -0.010646842 0.047003303 -0.046642017 -0.026597464 -0.025619661 0.046914946 -0.044378877 0.023990277 0.049997535 -0.04374032 0.00409602 0.045664 -0.042557467 -0.046154678 -0.022333955 0.010901153 -0.017352365 0.022421505 0.035887245 -0.02546711 -0.049052205 0.03972033 -0.045383524 0.024936799 0.006889332 0.0017834306 0.012244381
in -0.024655784 -0.035493087 0.0163672 0.0040103085 0.021110442 -0.045100868 -0.046647467 0.030848298 -0.03219614 0.020149495 0.009627186 -0.009293009 -0.013141312 0.033765767 -0.038479708 0.017666232 -0.016130518 0.019697156 0.04941124 -0.009836029 0.017822709 -0.027567053 -0.049619306 -0.032326005 0.04412358 0.010166846 0.039982412 0.021636996 -0.036379468 0.02564815 0.044664774 0.041906107 -0.03183321 -0.04831326 0.030919697 -0.016051482 0.015862409 0.046549115 0.030602481 0.046092402 -0.041754045 -0.0039537176 -0.027354408 0.026279304 0.036009517 0.007318128 -0.022234047 0.024399225 0.0366279 0.020620648 -0.02673806 0.038411986 -0.020849084 0.03038657 -0.016578875 -0.014407825 0.03352498 0.002117373 0.03106251 -0.027505243 -0.006378483 0.043152418 0.0104113445 -0.02784524 -0.04480162 0.041135047 -0.038927056 0.027956989 -0.013178028 0.04913039 -0.01812005 -0.03330197 0.03389181 -0.0063329227 0.012558173 0.036057804 0.024640333 -0.042924788 0.04252136 -0.0463678 0.024896357 0.011621676 0.014299307 0.040590074 -0.0045455582 0.009979643 0.03640527 0.0033349171 0.022023644 -0.016223203 -0.0109145865 0.0022925958 0.048261512 -0.043290794 0.008022357 -0.0035917386 -0.040427327 -0.017951656 0.042643156 0.047031883
alice -0.0078112707 -0.03992487 0.01788577 0.0037069432 0.024567787 -0.008346438 0.045270983 -0.048654735 0.04853977 0.047204662 0.048150685 0.01826508 0.018643174 -0.012869645 -0.007733356 0.026524995 -0.045116104 -0.008510482 -0.04095117 -0.011971485 -0.03661891 0.029531304 0.021872852 0.04679722 0.0023443587 -0.022766817 -0.0020970479 0.009344123 -0.024625529 -0.0004730709 0.048223857 0.022763956 0.02630857 0.032696877 0.026879143 0.01198424 0.015023772 0.03824098 0.019005004 0.03640497 -0.04181949 0.047422025 -0.004029285 0.031190049 -0.0048879012 -0.014888763 -0.01762285 0.019022021 0.013001073 0.0034042485 -0.02954923 -0.023111021 0.006065689 -0.02875526 0.030666184 -0.002197992 -0.026221478 0.008940745 0.006105233 -0.021787275 0.03964928 0.0008667484 -0.015196405 -0.026670719 -0.029693533 -0.005260609 -0.02357514 0.048277464 -0.00891944 -0.02432319 0.0050494447 0.006633222 -0.025071716 -0.002118241 -0.028543675 0.038463738 -0.042744625 0.015056815 0.02036715 0.047903847 -0.025727272 0.03464547 -0.022731412 0.014823977 0.04323219 -0.021656288 -0.00872625 0.030089092 0.0023029074 -0.040898215 0.016181659 -0.048637975 -3.0718744e-05 -0.012792598 -0.030975748 0.002514422 -0.024526848 0.014846411 0.009576131 -0.0030237064
her 0.027264122 0.0019614808 0.033991363 -0.022594882 -0.0062464364 0.00043685362 0.021743406 -0.026886214 0.02300043 0.003941428 0.04843313 0.022749733 0.027964 0.045987215 -0.0035526268 0.0012629405 -0.017469324 -0.03157233 0.0046055317 -0.004897654 -0.021229709 0.039005365 0.03184258 -0.0050400607 0.010949589 -0.026402866 -0.00038325787 -0.022042716 -0.0021240115 -0.027649129 -0.034596287 0.0016670227 -0.019874156 0.011205792 0.032760132 0.041076016 -0.038218237 0.023717571 -0.027392065 -0.045103636 0.032715265 0.04124142 0.011689793 -0.005545497 0.021761272 -0.0026075952 -0.018308092 0.026667144 -0.015336372 0.0046277046 -0.019239414 -0.034424186 0.03568751 0.0015723482 -0.034769405 0.028165389 -0.0144689195 -0.009581387 0.0101191625 -0.044126906 -0.042084374 0.045411397 0.04890955 0.035863046 -0.033716276 -0.04324479 -0.031160569 0.037274156 -0.012824595 0.012523901 -0.04017223 -0.026205493 0.033715513 0.007858016 0.036062572 0.043348495 0.037750866 0.003707625 0.007708825 0.0005240813 0.00034610182 -0.016744126 -0.0030454285 -0.033604562 0.0055728666 0.0124382265 0.00079564005 -0.037697185 -0.021533942 -0.04475112 0.037079666 0.01953509 0.033474002 -0.016117811 -0.027947474 -0.030257596 -0.039160382 0.010764111 -0.0008232817 -0.0130899325
i -0.022670973 -0.033652484 -0.02235799 -0.0077377334 -0.027912378 -0.027364528 -0.006956041 -0.04302902 0.020511236 0.018085722 -0.039284624 -0.024063695 0.041416656 -0.03529372 -0.040832233 -0.042087603 0.01329628 -0.00039436668 0.018724058 0.00063329935 -0.0043123476 0.0057823285 0.03020582 0.01784369 0.048512746 0.025854181 0.020315085 0.045076456 -0.030174328 0.015648935 0.007291306 -0.039787006 0.04527 0.021876287 0.033108 0.046039436 -0.022214806 0.013562981 0.017320815 -0.034582198 0.04584005 0.0010176674 0.03263474 0.039753582 0.02714951 -0.032770596 -0.04992323 -0.032345667 -0.0020311251 -0.0050131194 0.041202907 -0.017935563 -0.0057642087 -0.011879861 0.037426304 0.008867193 0.04487585 0.016171943 -0.024692107 -0.017477192 -0.018277455 0.027917054 0.037470315 -0.03297875 -0.014267802 0.03311732 -0.010539472 -0.014825523 -0.01578965 0.015035246 -0.04941218 0.00021463633 0.0067127943 -0.039409377 -0.038246892 -0.025329078 -0.037865914 0.0010575876 -0.015677024 -0.04968034 6.592274e-05 -0.023685133 -0.043430686 0.01648729 0.018011633 -0.008679472 0.038773503 -0.03441477 0.02295984 -0.044001937 0.0492105 -0.03502927 -0.03646326 0.016964521 0.014989499 0.023848895 0.0076087825 -0.0068044886 0.013857607 0.019540679
that -0.036007166 -0.048684787 -0.033404995 -0.026139379 -0.0044479147 -0.0088953 0.019068446 -0.024912179 0.0037741773 -0.0004990697 -0.014207255 -0.033533588 -0.023537552 -0.013300847 0.0035845041 -0.0015416034 0.03985889 0.04948059 0.0146190785 0.0011781678 0.032150153 0.03313574 0.0133253 -0.02452053 0.01819377 0.03358629 0.014037263 0.0021658055 -0.011004902 0.028547134 0.02934407 0.0028708093 -0.002376236 0.0068422332 0.046983514 -0.007916521 -0.021978319 0.014265206 0.011880301 -0.027880168 -0.03332709 0.020616446 -0.01777663 -0.012086846 -0.042710543 0.003943097 0.031211343 -0.015034199 -0.018220805 0.03293759 -0.027641786 0.033210937 0.03204677 -0.017760396 -0.022459889 -0.048787724 -0.00920235 -0.017621838 -0.044354774 -0.0497362 0.04230484 -0.039079092 0.012272514 0.01909851 -0.045226682 0.043260563 0.048265364 0.019769717 -0.02020445 0.04256923 0.037255097 -0.023543013 -0.0090312585 -0.025616134 0.045063566 -0.020736266 0.0023275241 0.0405468 -0.025409818 0.0431862 -0.032552086 0.034775402 -0.03165698 0.021042194 0.009496439 0.024301205 -0.0012601502 -0.004297029 -0.015388798 0.042438556 -0.049731698 -0.022368336 0.037385892 -0.02939484 -0.028371358 0.016165923 -0.036994256 0.04098482 0.012539092 -0.046119045
down 0.037896525 0.033623252 0.038709376 0.033486877 -0.0019806027 -0.027360095 -0.0123548135 -0.037321378 0.031722967 0.040907692 -0.018298019 0.04805011 -0.024580061 0.014075745 -0.0010588877 -0.04321126 0.0003231652 -0.00025354698 0.044552635 0.03478041 0.018040251 0.0054090843 -0.015152682 -0.02091663 0.017964568 -0.014359511 -0.011500873 0.038315307 0.04309002 0.04364742 0.03535824 0.045685623 0.04213741 -0.04331827 -0.013157476 -0.00085002184 0.0017121211 -0.025025988 0.0051553734 0.010322295 0.024795543 -0.042630114 -0.020797884 0.0092904195 0.013395753 0.04322331 -0.008322656 -0.047792245 0.043887366 -0.010587633 0.013831388 0.043191973 0.045854677 -0.04499879 0.018058706 0.039428677 -0.020065034 0.021795992 -0.0048251525 -0.0023292527 -0.015198253 -0.012669932 0.009271286 0.021185365 -0.024885083 -0.017255448 -0.04299729 -0.006573163 0.02831385 -0.027634991 -0.00085952133 0.048965085 0.043417644 0.046714935 -0.035811115 0.006614972 0.019217517 -0.0055441037 -0.0040592663 -0.0037738904 -0.047782946 0.008211993 -0.016364656 -0.046116065 0.011285175 0.04598974 -0.0020748489 0.046905052 -0.046756554 -0.0036569126 -0.036716867 0.028533902 -0.0015729442 -0.021231866 -0.044259407 0.014956955 -0.02954886 0.00782733 0.04176626 0.046458807
you 0.034334768 -0.034264185 -0.04777285 0.03027356 -0.01692766 -0.03621211 -0.023165977 -0.04780042 0.030311655 0.03286537 -0.029377151 0.021260466 0.04162891 0.024593938 -0.0457003 -0.0076360814 0.030213568 0.005186569 0.04540844 -0.0016849414 -0.028606748 -0.03476777 0.0026594624 0.046304714 0.03798962 0.045416806 0.014887702 -0.009728394 -0.011880599 0.044222582 -0.011162985 -0.010732137 -0.03910301 -0.018135227 -0.041006483 -0.038718782 -0.028460432 0.0036991835 0.04191334 -0.016086925 0.023540188 -0.013389625 0.042575125 -0.028673852 -0.009311605 0.036794316 0.016248237 0.0142390765 -0.012214363 0.034700405 0.04484581 -0.016851783 0.019071106 -0.038007498 0.023566749 0.01097871 -0.033424318 -0.025238527 0.0077010766 0.0027738921 0.027702298 0.0039011464 -0.012824524 0.017648626 -0.026548017 -0.030575847 -0.045661546 -0.008917093 -0.037748147 0.047214974 0.045703422 -0.010414518 0.00912118 0.03183193 0.048659932 -0.038654637 -0.042286254 -0.02338115 0.0046847574 -0.01753192 -0.003256224 0.011782456 -0.010549448 0.007099986 0.011365809 0.021026824 -0.008741401 0.025196422 0.04467768 -0.021993876 0.017971504 -3.8098544e-05 0.033070933 -0.0027889386 -0.04244932 0.04288253 -0.0076938868 -0.026332272 -0.0023569353 0.040922668
for 0.0072750933 -0.00848987 -0.01772841 -0.012705017 0.00035165623 -0.01260959 0.048675288 -0.0012691729 -0.017473519 0.033323634 0.008155346 0.043163385 -0.013810016 0.03085133 0.047510315 0.004095651 0.029516581 0.02219743 -0.01031189 -0.037847232 -0.010657478 0.012127161 0.047592822 -0.026481403 -0.029448867 -0.03054142 -0.0077244267 -0.049565207 -0.048965406 0.020886887 -0.047802936 0.03532621 0.048198868 0.038940083 0.03892212 0.04684904 -0.017171275 0.009340953 0.0037901513 -0.009139203 -0.0066151023 -0.03721956 0.032520045 0.0062843785 -0.04755528 0.023166765 0.023381803 0.026839588 -0.03672693 -0.013044752 -0.03532654 -0.0040087327 -0.030807292 0.010795403 -0.025736893 0.03740369 -0.04639807 -0.024763012 -0.02427671 -0.022540558 -0.024971414 0.0013164505 0.007669471 0.04076997 -0.0003566742 0.011579979 0.023172345 -0.03252709 -0.008713614 0.0033958666 -0.045488346 -0.025108362 -0.020899082 -0.023489583 -0.029593552 0.04269434 -0.031225264 -0.04013742 -0.028002966 -0.0010285005 0.035924625 -0.011674274 -0.04559983 -0.028927255 0.020261612 0.037366424 -0.03202931 0.036876027 0.025686685 0.039786328 0.019458774 0.004271947 0.018494513 0.009115599 -0.016863775 0.043562878 0.030630413 -0.0050021783 -0.049390566 0.048840594
but -0.018569328 0.021661844 -0.020238364 -0.03988384 -0.034313954 0.0063635707 0.020762574 -0.045771863 -0.033000518 0.027687278 0.012172174 -0.012456525 -0.039587058 0.02199382 0.036312733 0.023305845 -0.02440766 0.019524705 0.0008745566 -0.04451492 -0.048194196 0.040236484 -0.03053465 -0.0053247437 0.025186744 -0.016983401 0.014360968 0.00818181 -0.04175476 0.007498335 0.014379088 0.0126057975 0.009449612 0.010226488 -0.0361804 -0.031718075 0.032968823 0.0046664365 -0.006113827 -0.034067262 0.039297286 0.017085936 0.017133463 -0.008047499 -0.001992356 0.025737192 -0.023219312 0.029422794 0.0029022582 -0.008396279 -0.045831393 0.037015747 0.005670786 0.005208254 0.047845792 -0.01279081 -0.0027810447 -0.028580224 0.016195688 0.022296835 0.04061513 -0.04505029 -0.041695822 -0.04674864 0.028596345 0.03684641 0.044259716 0.023505513 0.014341857 0.034692142 -0.017741762 0.046657268 0.0069034584 0.0001895316 0.0070224404 0.048371468 0.041471172 0.030367684 -0.016726136 -0.03517922 0.00012313202 0.039317418 -0.011698879 -0.019312168 0.047918368 0.01467431 0.042728964 0.049304906 0.043375064 0.03792185 -0.011276208 -0.017151285 0.04954735 0.012750376 0.017908145 -0.031002855 0.036064927 0.04185644 0.019515041 0.026107099
very -0.042022597 -0.027077997 0.0014208183 -0.036885668 -0.019096244 0.04293115 0.0019478425 0.011531234 0.013536122 0.037993405 0.044530515 0.016868081 -0.038538538 -0.014162518 -0.016283393 -0.0037167892 -0.0019034371 0.0073234923 -0.032153443 0.01474354 0.01085303 0.04391029 -0.016584776 0.014939319 0.046602312 0.028467204 -0.011331748 -0.0429909 -0.009359002 0.009353258 0.019446228 -0.044998504 -0.04057609 0.044377457 0.04214703 -0.008298717 0.008006752 -0.02607882 0.030460525 -0.018602885 -0.044965267 0.007676769 -0.03719888 -0.041600395 -0.010043502 -0.015567828 0.020028304 -0.031609736 0.026951317 0.00021566078 0.046460245 -0.039990447 -0.03437848 -0.016284693 -0.008093335 0.0044940934 0.0015729889 -0.029874325 0.048959266 -0.0051077493 -0.040045846 0.042920236 -0.029246652 8.5674226e-05 0.02249309 0.041603614 0.022447456 -0.037335835 -0.022490084 -0.00016360357 -0.025984287 0.04143751 0.007791709 -0.020834113 0.015448701 0.030806866 -0.032019306 0.009890772 0.03439522 0.043814432 -0.03632454 -0.0022327416 -0.03836621 0.011476375 0.0037109256 -0.017067611 -0.01234876 0.029301416 0.011600412 0.03473706 0.030893628 -0.022270203 0.048177432 -0.03918432 -0.03665335 -0.011546053 0.049096037 0.033925023 -0.00741918 -0.03411143
on 0.048910987 -0.022772897 -0.04166287 0.044581 -0.025146617 0.03352577 0.018229675 -0.046970572 0.047598947 0.009246815 0.03114697 0.022238266 -0.02185247 -0.0150703415 -0.044102978 -0.010479189 0.013583455 0.019774247 -0.0008601174 -0.018793238 0.009644888 -0.005234897 -0.033314396 -0.0037369132 0.020249214 0.049943376 -0.0035191998 -0.027008355 -0.021345366 -0.004413914 -0.0121916905 -0.005287219 -0.008231867 0.011732101 -0.034579016 -0.025282944 0.021015454 0.04839312 -0.037399244 -0.019490933 -0.02024448 -0.00030247122 0.0011182204 0.046591464 -0.0013958588 0.01677138 0.04108158 0.02878416 -0.0013200417 0.009271085 -0.027844906 -0.047305286 -0.014095675 -0.011320688 -0.021659387 5.0198287e-05 -0.037287068 -0.04145789 0.02550402 0.012810696 -0.0055107474 -0.049087238 0.036220226 0.0364292 -0.033146217 0.037236635 -0.011904765 -0.0029185526 -0.016652893 -0.01964345 0.038154725 -0.010756027 0.014550816 -0.0456779 -0.002816379 -0.03753723 0.008289494 0.04872625 0.0014582053 0.010109723 -0.00079552084 -0.029745186 0.040604617 -0.030715585 -0.03182869 0.008846186 0.0086468235 -0.036853146 0.0416721 -0.0009079799 0.036498193 -0.021306396 0.041543875 -0.031213988 -0.025939023 0.04767194 0.016290154 -0.001569666 -0.047417212 -0.007846225
had 0.016745057 -0.038852215 -0.016081572 0.032837126 0.016658094 -0.012359202 0.03295653 -0.037234865 0.025297191 0.041795816 0.00016565248 -0.008226324 -0.040586244 -0.026139809 0.0031770356 -0.021887636 0.015639853 -0.020066893 0.015562143 -0.046287503 0.011962343 0.006986141 0.04009558 -0.019168688 0.014578473 -0.047204267 0.037875403 0.007302068 -0.040233813 -0.032030366 -0.038176633 -0.046074342 -0.037908792 -0.015663922 0.010467399 -0.027482284 0.012657616 -0.034480356 0.0399873 -0.040034987 0.037254367 0.011220731 0.005032908 -0.04237436 -0.04686302 0.008452296 -0.04527699 0.0037559755 0.035415623 -0.048174944 0.049516704 -0.020833625 -0.012331318 -0.026060736 -0.0034729354 0.034643207 0.049076047 0.0029257052 -0.028847659 -0.02586521 0.046374526 0.017132673 0.027152289 0.04675852 -0.042309858 -0.009238709 -0.009639777 0.02436408 0.020481113 0.036795173 -0.00996127 0.021419037 0.02046467 -0.008450888 0.0031215176 0.014524054 0.012518916 -0.0013726838 -0.031382576 -0.029508675 -0.0045851246 0.029233467 0.049764518 -0.0042899027 0.033115614 0.016740609 0.024464104 0.01923604 -0.047955513 0.0054522157 0.0019581914 0.045672346 0.011253238 -0.032951057 -0.0026230589 0.03018305 -0.048837006 0.022094432 0.04332051 -0.017589975
this -0.048552632 0.045810033 -0.023906017 0.007560659 -0.009540807 0.0011410937 -0.0002524741 0.01362114 0.043704856 0.007807266 0.01793373 0.016850103 -0.013685346 -0.00479139 0.02519853 -0.02162378 0.019558791 -0.032781698 -0.013989247 0.041991685 -0.011652254 0.04153197 -0.040678166 0.023853432 -0.039117694 -0.0112763755 -0.0010091774 -0.03045187 -0.005039621 -0.04984161 -0.024943102 0.008873951 0.006415643 -0.01806581 -0.011699595 -0.045577742 0.035823856 -0.023622274 -0.03580885 0.031313706 -0.02592721 -0.009715594 0.013421092 0.0012750626 -0.014398385 0.010831606 0.024546597 -0.030601228 -0.02019589 0.03457426 -0.036135305 -0.04668615 -0.004866075 -0.03478849 0.02494916 0.018599998 0.004587125 -0.030480398 0.034468506 -0.027155532 0.018773977 0.035808157 0.0032239445 -0.04702964 -0.010585643 -0.01948893 0.029766534 0.044314895 0.009056829 -0.00023899227 -0.04605223 -0.006011568 -0.040165674 -0.03332098 -0.032736003 -0.037259508 0.009116031 -0.008194268 0.031976532 0.012873415 -0.026451815 0.036210943 0.041973364 0.024277274 -0.010668002 -0.04678762 -0.0073672906 0.026279245 0.024443518 -0.033085942 -0.003866624 -0.045962013 -0.0043793097 0.010558069 0.040289234 0.04124843 0.023436714 0.022088233 0.04566635 0.030403916
as 0.0067782886 -0.034688793 -0.02469542 -0.011788927 0.008785926 0.015103746 -0.041671492 -0.049054444 0.0065608993 0.025716174 -0.043272473 0.04020704 0.021886144 0.019710746 0.033824813 -0.032412875 0.035341833 -0.026214851 -0.007578004 0.014280412 -0.04460324 0.046150554 -0.028801775 0.027068857 -0.010090303 0.043325555 0.009914696 -0.011760902 0.019437183 0.00479709 0.049632374 0.0059889182 -0.011195969 -0.026852882 -0.014670659 0.0042764544 0.032588813 -0.034350358 0.041403178 0.047648836 0.018257108 0.009241868 0.036900345 0.005957879 -0.0013073087 0.012223281 -0.015966464 -0.045092907 0.04443613 0.028738309 -0.017626345 -0.013710402 -0.0490265 -0.040833652 0.035158124 -0.0006208196 0.017921273 -0.010013081 -0.042069744 0.01809192 -0.0064053163 0.047990207 0.0046847686 0.020833734 -0.0057457574 -0.021587491 0.029154006 -0.041139543 0.0046234727 0.025134254 0.015313182 -0.024617637 -0.03051442 0.028926317 -0.0059828535 0.04545672 0.033736374 0.038850043 -0.037757598 -0.004527189 0.00105232 0.020563614 0.02881502 0.003579758 -0.040145017 0.013327684 -0.011951007 -0.032952655 0.0011953227 -0.026731743 0.022635628 0.0067495704 0.0048750155 0.035726536 -0.03992355 -0.0008265972 -0.011476137 0.031496886 0.047696162 0.005933188
be -0.021708477 -0.022695554 0.005227484 0.006864406 0.04449642 -0.028236521 -0.009208631 -0.006610252 0.038470242 0.001531791 0.028389085 0.0032964721 0.02672733 0.00094383955 0.00917821 0.016766157 0.014046792 0.04399394 0.003307782 0.030622113 -0.009022139 0.016854193 -0.01718533 0.021970335 0.036512565 0.002228357 -0.012975454 -0.002455987 -0.01784756 0.015873019 0.008553851 -0.013117753 0.038893927 0.010615133 0.038847852 -0.031703282 -0.021894157 -0.0002957359 0.022587303 -0.0009230599 -0.0132475495 0.000936795 0.014671039 0.028588686 0.04157337 -0.04443195 -0.031893052 0.0025717616 -0.014852442 -0.04966226 0.03818779 0.001798369 -0.004878305 0.0024170503 -0.044883218 0.0068653002 0.0115616545 -0.0027747639 0.04626653 -0.03336835 -0.0024450533 0.008509051 0.03863256 0.048019204 0.0016195774 0.028614108 -0.020241046 -0.028303111 -0.016848397 -0.036121465 -0.034776617 -0.018897343 -0.021148218 -0.008713972 0.032638345 -0.04371611 0.010517038 -0.0262236 0.039661955 -0.030410457 -0.022264052 -0.032328084 -0.01025933 -0.0049989596 -0.041854344 0.033701394 -0.02433356 -0.043186735 0.03268719 0.024217691 -0.016736649 -0.016722858 -0.024705172 0.04384781 0.031113815 0.04413065 0.022859167 -0.025177253 -0.020564651 -0.014894806
so -0.02689798 0.021303978 -0.011751998 -0.044561196 0.04269166 -0.016033519 0.029483903 -0.024676705 -0.031189954 -0.024638152 -0.02516985 -0.036567282 0.025246251 0.00028817728 0.043039586 0.008480035 -0.036253214 -0.029244184 -0.012182355 -0.010231029 -0.009384107 -0.014575552 0.02201045 -0.021983838 -0.015165675 0.047728863 -0.003076829 0.018410508 -0.019505704 0.03987788 0.040484075 0.037091974 -0.01335467 -0.01719768 -0.024141848 -0.04452684 0.014333058 -0.04544444 0.016330037 -0.012578689 -0.025388265 0.0418954 0.0055083744 -0.0010232441 -0.029559935 -0.01586505 -0.040450167 0.015767861 0.002024889 -0.042209316 -0.0041417964 0.02153099 0.01859821 -0.022887683 0.030421924 0.02196655 0.042935956 -0.038766228 -0.0018847808 -0.022998346 0.047466006 -0.0028783567 0.04469836 -0.047451474 -0.044041146 0.015939359 -0.0074993856 -0.04629886 -0.03466462 0.012675215 0.021770034 0.04148711 -0.008556105 0.034851875 -0.030318905 -0.018208623 0.037513245 0.03070147 0.04749577 0.018773604 -0.049794853 -0.017375387 -0.004957188 -0.044734266 -0.0353271 -0.023853803 -0.025881017 0.01497424 -0.009108424 -0.02398597 -0.035817303 -0.04775653 -0.025013208 -0.040519 0.017236639 0.013821054 0.0133060925 -0.01412816 0.039632265 -0.02121687
little -0.020359635 -0.0035984889 -0.03904047 -0.015885673 -0.007549286 0.012535181 0.043653015 0.011941396 -0.027247835 0.026187766 0.04584645 -0.027436603 0.037078273 -0.035666525 0.044183973 -0.040354826 0.036909986 -0.017935395 -0.041784786 0.028518263 -0.026535882 -0.00962292 0.0024534687 -0.018970478 0.01202333 -0.032423127 0.04516566 0.04859526 0.0023950562 -0.007718183 -0.00032539293 -0.037777245 0.04756177 -0.0007320866 -0.022520721 -0.034189988 -0.0018199086 0.016013946 -0.029765083 0.04859258 -0.014303494 -0.046390917 0.028255593 -0.023397839 -0.045489967 -0.020764316 -0.015279233 -0.023855163 0.010161281 0.049617473 -0.009920619 0.004259445 -0.015499674 0.009579696 0.04811937 0.027132992 -0.032962754 -0.033917688 0.0137913935 -0.049224235 0.006159067 -0.037495244 0.038238455 0.014060248 0.0035106167 -0.020796264 0.04139309 -0.04872909 0.009078313 -0.04086553 -0.013408493 -0.013841964 -0.009984959 -0.024757301 -0.031703435 -0.010574531 0.032130603 0.03542671 -0.027125705 -0.02715292 -0.02430196 -0.003165029 -0.043482948 -0.003638994 0.03851999 0.04437908 0.013206411 0.035270963 -0.010966562 0.0158155 -0.048122693 -0.015456058 0.045109596 -0.009976756 0.007976115 0.012495257 -0.0048210137 -0.031813756 -0.03796052 -0.01797862
with 0.018430915 0.002230335 0.043644343 0.016681898 -0.0010239966 0.025674235 -0.0116119385 0.017719593 -0.034111463 0.02068248 -0.026886774 -0.006858088 -0.03453679 0.0022156462 0.033759322 -0.015685342 -0.00079275295 -0.025262762 -0.024906231 0.0085100755 -0.046042074 0.033745576 0.024934981 -0.007169556 -0.046848785 -8.472055e-05 -0.013202716 0.010484077 -0.045164384 0.047052536 0.026957285 0.022320542 0.002270542 -0.02442795 0.03721643 0.04699901 -0.01400286 0.019945804 0.007251501 -0.026380623 0.006701909 -0.01073147 -0.0035178438 0.0030024275 -0.001973223 0.011532735 -0.025003685 0.033226702 0.043455873 -0.024042321 0.020725396 0.00983566 -0.001219321 0.03582103 -0.032074474 -0.025328374 -0.04194971 -0.027346266 0.024686608 0.021266747 -0.021249129 0.04499409 0.04240108 -0.0420328 0.016138885 -0.03324114 0.042739775 -0.03044461 -0.0099031925 0.017778996 -0.039529275 0.021311883 -0.007332884 -0.012885906 0.024727236 0.013044957 0.009781491 0.036936257 -0.0013261326 -0.024244428 0.012768295 -0.0021195896 -0.008040547 0.00442506 -0.039611995 0.011696685 0.038538944 0.010724664 -0.03733512 0.00265963 -0.0051965825 -0.0060985684 -0.03567318 -0.041644372 0.0035652034 0.015532207 -0.027997244 0.032242063 0.043960106 0.040342662
way -0.006001711 -0.041017402 -0.009520937 -0.046216894 -0.0043519363 -0.026916457 -0.017584335 -0.040257443 0.02404498 -0.015993584 0.041058708 -0.022071099 -0.042616975 -0.028624916 0.023402248 0.03244588 0.022912491 0.020545494 0.014066342 0.008706413 0.0020818487 -0.000887502 0.040988218 -0.026120234 0.012250222 0.013640668 0.0003177151 -0.024278546 0.01875801 0.0146069415 0.006907545 -0.028309489 -0.010064375 0.016983394 0.042783286 -0.03315232 -0.023474766 -0.02290678 -0.020452643 0.028998856 0.02456287 0.017528284 0.016493168 -0.014568508 -0.0061045773 -0.015593242 0.023971725 0.021178972 -0.03331244 -0.020206941 0.0468459 -0.00712502 0.029919866 -0.024191631 0.008034088 0.008449804 0.0063638203 0.020233784 0.022015404 -0.0018315315 -0.021571934 -0.029819561 -0.022107173 -0.04981344 -0.039616145 -0.042827606 0.040929798 -0.042936027 -0.004471898 0.039916012 0.025641534 0.027469207 0.035614822 -0.038849078 -0.03841964 0.042421702 0.017297272 -0.01281352 0.044158448 -0.0408581 0.048318196 -0.0094129555 0.012978766 0.0024637468 -0.03395953 0.045331504 -0.011248805 0.044651974 -0.045618236 0.038259003 0.020011295 -0.007468771 -0.0020639189 -0.010094155 -0.007821299 0.046076033 0.016357604 0.04017711 -0.039593138 -0.03320526
at 0.01120938 -0.027090097 -0.018295825 0.0013648495 0.011823822 0.025568012 0.013779152 -0.005152762 -0.018565524 0.029009726 -0.040794265 -0.04403409 0.03283303 -0.0011191741 0.03998078 -0.028072476 -0.022784328 0.028576802 0.037396256 0.043090943 -0.012665164 -0.019370807 -0.025263727 -0.015593696 -0.04856062 -0.0043517463 -0.03410088 0.047422696 -0.04572469 -0.043351423 0.034380604 -0.0024527796 -0.008647393 0.02048758 -0.022183215 -0.039861046 -0.027240073 0.018714178 0.014521267 -0.03781719 0.042670462 -0.003001012 0.015788306 -0.013478436 -0.029142952 0.041824374 -0.044272542 -0.048375346 0.036149334 -0.0019065626 -0.03548776 -0.020828975 -0.0043400154 -0.02309437 0.03854313 -0.028406357 -0.02883259 0.012071479 -0.01725645 0.034214582 -0.029410874 0.009037245 -0.019684017 0.018965576 0.02612621 0.029202309 -0.047368493 0.0032534003 -0.038585257 -0.027692033 0.035910357 0.04582269 0.01780552 -0.023395514 0.022772346 0.007982612 -0.006636847 -0.0076234937 -0.034869123 0.04422087 -0.015005756 0.022212472 0.009924054 0.00068924576 0.024488319 -0.02450695 -0.010945894 0.014583532 0.03230102 -0.00016545132 0.038004044 0.032227527 -0.04757842 -0.037041128 0.030391347 0.012473714 -0.034255255 -0.016523968 -0.043550085 -0.03202466
out 0.0013256669 0.004583895 -0.019703269 -0.019403076 -0.04815495 -0.033497773 0.026450243 0.04732767 -0.024218285 -0.011294592 -0.036521066 0.03446864 -0.0131490715 -0.04335494 -0.032252327 -0.035175405 -0.0020498037 0.044266913 -0.04324298 0.04396968 -0.04088924 -0.024312688 0.00934428 0.03568807 0.036960017 0.040327225 0.041060816 0.026237655 0.04446801 -0.04762719 0.005080115 0.04223809 0.004937958 0.044935238 -0.029475797 -0.04044976 0.007297527 -0.029257214 0.009262372 0.042161766 -0.029911006 0.026159871 0.046352033 0.014539603 0.012328707 -0.030656112 -0.035663914 0.009398211 -0.014438175 -0.046133127 -0.04729954 -0.01843667 -0.013393484 -0.045114018 0.03731395 0.03698161 -0.010896109 -0.026373077 0.010792218 -0.007865071 0.035332907 -0.029819643 0.049180303 -0.033657014 -0.00028761476 -0.013096143 0.036580827 -0.005643595 -0.035270177 -0.0474314 -0.023827577 0.007682264 -0.008839797 0.006476987 0.017408404 0.016950455 0.018592346 0.048111383 0.0106212385 0.019036237 0.02361006 0.01654667 -0.04963262 -0.02749269 -0.03271289 -0.03922037 0.0086276755 0.02701335 0.011578966 0.028691757 -0.034145035 -0.04771906 -0.03420075 0.042715 -0.044531133 0.028566983 -0.01408831 -0.00906954 -0.032732416 -0.0146385655
not 0.039568294 -0.044394433 0.044527236 -0.036326885 -0.03743223 -0.033785544 0.03616247 -0.011840988 -0.021295441 -0.0052247755 0.0270308 -0.012409557 -0.035825588 0.0015127435 0.01601782 0.0026912093 -0.041292667 -0.02405504 0.044333342 -0.021746993 0.01568437 -0.0065623634 -0.013619851 0.019852612 0.010370173 -0.029373659 -0.037881576 0.026381824 -0.04608649 0.026388157 -0.036995627 -0.042891182 -0.030422807 0.034261037 -0.0388255 -0.019683873 0.041252803 -0.04476985 -0.012908805 -0.0031806007 -0.017195057 -0.030077243 -0.020658255 0.006121505 -0.0062301755 0.04057065 -0.032723784 -0.00042081997 -0.013688862 -0.0469136 0.039937664 0.011335384 -0.022502458 -0.0006705411 0.0033030622 0.017564405 -0.035369992 0.045009922 0.025392774 0.028761651 0.047887597 -0.027679158 -0.0317276 -0.019731522 -0.033133127 0.026633803 0.028697554 -0.035361003 -0.042188823 -0.0040336624 -0.022983743 -0.0076957457 -0.049189497 -0.0075787194 -0.0058683753 -0.028990317 0.0024219975 -0.009428918 0.018964235 -0.034009874 -0.016160488 -0.012455773 0.01617429 -0.042470932 0.008163549 0.016768936 0.0007922277 -0.036016308 -0.0028817654 -0.045233823 0.02604485 -0.031683613 0.005957138 0.024069156 -0.0190503 -0.0016548522 -0.044383883 0.01786318 0.04193746 0.03586087
or -0.011194743 0.021927048 -0.0442382 0.03190029 -0.020240461 0.046071958 -0.02214613 -0.016552914 -0.0035818592 0.047772918 0.027658377 0.040217843 0.036535982 -0.04720081 -0.012584269 -0.027734423 0.034869622 0.036046673 0.045525912 0.020368148 -0.04296663 -0.006190382 -0.04454526 -0.03710884 -0.033329774 -0.03431894 0.048691418 0.046905253 -0.009921946 -0.0019763336 -0.0077850223 0.004041206 0.046948206 0.02551229 -0.00085321814 0.019430224 0.014937725 0.03335989 -0.0030922294 0.018725608 -0.034653626 -0.004069973 -0.014070582 -0.024466539 0.03291103 0.003286697 0.020942543 -0.008070815 -0.025267173 0.04587991 -0.035031963 -0.03859788 0.049180876 0.03996441 0.023098636 0.028614905 -0.035071038 0.047167923 -0.036947824 -0.0032297857 0.048288774 -0.035450675 -0.044977248 0.016166415 -0.047689628 0.027356531 0.013478909 0.016625192 0.0027821176 -0.011924766 0.018094484 0.017631557 -0.015950404 -0.032407477 -0.040251087 -0.033267368 -0.006046843 0.02760363 -0.00799923 4.4535846e-05 -0.011340857 -0.015464999 -0.027333546 -0.03543005 0.03156848 0.013835933 -0.034211565 0.046011817 -0.040407993 0.02420367 -0.014955699 -0.026960015 0.034722876 0.042499725 0.011295758 0.01932403 -0.01126809 -0.0038362965 0.03628533 0.0020104423
herself 0.043620076 -0.015470136 -0.0017067306 0.01881535 -0.01734946 -0.046059586 0.017625336 -0.0009866133 0.025062386 -0.009464253 0.027008366 0.020994175 -0.030816054 -0.007364176 -0.049162425 0.04811689 -0.04050199 -0.038761605 -0.010531507 -0.017100025 9.797886e-05 0.014735114 0.047437977 -0.039563037 0.008922696 -0.030433202 -0.00021935627 0.039467942 0.016662661 -0.009002734 0.037338827 -0.00067986175 0.0020137206 0.007590018 -0.014825452 0.011237513 -0.04187845 -0.041780114 -0.009770285 -0.026108837 -0.046149086 0.008536696 0.04873607 -0.020886695 -0.0043365583 -0.018979503 -0.04781374 0.039055634 0.021105658 -0.020026518 -0.036632977 -0.047534525 -0.00014661625 -0.03890406 -0.0059320442 0.024820838 -0.00958351 0.01219951 -0.04291469 0.02652048 -0.020050062 0.00013660267 -0.012269724 0.023261618 -0.015687466 0.0013968237 0.037793133 -0.009246636 0.037481036 0.017532278 -0.048164606 -0.023192061 -0.02774601 -0.04841317 -0.008202624 0.026143167 -0.012389578 -0.01712979 -0.027569521 -0.0048553944 -0.0061429963 -0.045156717 -0.007140983 -0.0149615295 0.013620842 -0.022216035 -0.027027179 -0.0059172288 0.04774088 0.0045817606 0.04964478 -0.027522182 -0.003222905 -0.017526962 -0.0037649386 -0.043076515 -0.026171172 -0.0040360317 -0.00437944 -0.0009466298
up 0.046095382 -0.025953269 -0.021435678 -0.01967721 0.036489133 0.036347102 -0.049609363 -0.04260106 -0.028836656 0.015354168 -0.047006276 0.023296382 -0.0028419495 -0.028395487 0.017491017 0.013634298 0.032464277 0.037483346 -0.0012697801 0.00015778467 0.026540209 -0.040751826 -0.034921765 0.02537575 -0.014854193 -0.04413868 0.038278703 -0.0001240857 -0.017201923 -0.0410975 0.0164943 -0.037892938 -9.032339e-05 -0.008129358 0.0323038 0.043919597 0.041072976 -0.04265059 -0.03809873 0.02256019 -0.04993515 0.015368607 -0.0071058385 0.028762762 -0.0030854344 0.02137414 0.024899531 0.0039391145 -0.019548953 0.002449654 0.028011393 0.032997023 0.007970393 -0.02243854 -0.014843844 0.006579794 0.042769205 -0.04304148 -0.0057364106 -0.032630026 -0.0067992583 -0.0119664185 -0.007967699 -0.019671155 0.02906413 0.03655957 0.041727986 0.038903426 0.017958116 0.01593015 -0.010797977 -0.033589624 0.04135343 -0.0202873 0.047347177 0.0101289265 0.013864387 -0.0058045983 -0.0039286986 -0.044492282 0.029011752 -0.026257074 -0.025547659 -0.022996653 -0.03647659 -0.032647632 -0.0012476817 0.04706681 -0.026988685 0.04088309 -0.028909111 -0.02414688 -0.047624197 0.0029610507 -0.011193097 -0.042842653 0.02324612 0.0151950605 0.0015249848 0.029999856
how -0.04857533 0.021992493 0.031915892 -0.008604802 -0.019494558 0.04856496 0.02905849 -0.01795856 0.03474352 -0.022929205 0.0070598945 -0.010795284 -0.038827874 -0.015016578 -0.03137654 -0.001940012 0.010448109 0.02122232 -0.011282884 0.0010068901 0.03686479 0.018769827 -0.010329235 0.042232502 -0.049419653 -0.009547234 -0.012088168 0.03208072 -0.021045674 -0.017171085 0.006069828 -0.008904744 0.036381815 0.042774294 -0.02420844 0.041028608 -0.04972483 0.0147155635 0.029345896 0.037495565 0.014918495 0.029129613 0.014456321 -0.0053006634 0.030089382 -0.016961753 -0.02799095 -0.009880412 0.026775572 0.023013208 -0.026237344 0.032175366 0.011161089 -0.0025038496 -0.027271902 -0.031086994 0.042506065 -0.049108326 0.034306142 0.014113937 -0.011680674 -0.032957338 -0.013450719 0.028196786 0.020106602 0.038179252 -0.032154813 0.03192282 -0.0046199188 -0.04297204 0.0323993 -0.0050820224 0.04654235 -0.036712013 0.008838523 0.040990178 -0.021187652 0.016354386 0.007631194 0.025190387 0.03421518 -0.045668613 0.01207893 0.046609256 0.01235541 0.045209315 0.015895452 0.026341762 0.0064588413 0.0022672415 0.022807922 0.017869283 -0.04052893 -0.038115133 -0.009545673 0.025682453 0.016924154 -0.022416329 -0.0056668147 0.043451037
like -0.0091107 0.043434475 -0.008982729 -0.04882456 0.010161199 -0.031153763 0.040460918 -0.01121993 0.002335824 0.01038922 -0.00052989647 -0.017759122 -0.019081235 0.040492963 0.038388673 -0.0055035576 -0.01542015 0.024030898 0.013685022 -0.039655924 -0.021039188 -0.02599436 0.045883726 0.011658728 -0.035524093 0.0055035353 0.018137481 0.025163915 0.030622352 -0.032000385 0.038256202 0.03550699 -0.019457687 -0.029066373 0.049501274 -0.0013981946 -0.04500848 0.017605472 0.0398182 -0.026851535 -0.03436412 0.016975645 0.0016999952 -0.013376821 0.002030097 0.03574803 0.046223465 -0.0035961755 -0.038291037 0.0064804778 -0.046613004 -0.032696404 0.04229114 0.018375162 0.04107107 -0.048466563 0.033217203 0.028752197 -0.022495497 0.043515395 0.028452847 -0.032866977 -0.022746086 -0.00070957094 0.0021917112 0.042646933 0.02175719 0.04612683 0.008481085 -0.029529287 -0.027059628 0.03380299 -0.011405945 0.006968178 -0.03604152 0.01830567 0.020758878 0.014227081 0.012219489 0.0023481622 -0.035648048 0.02529576 0.039347176 -0.011795711 -0.0315246 0.01079886 0.026052263 0.046024825 0.025482122 -0.0055818446 0.015672412 0.043600384 0.013512764 -0.005732309 0.0024580844 0.037465815 -0.021294653 0.03409848 -0.034202315 0.004946362
one 0.027808737 -0.0027024858 -0.03433831 0.018051747 0.028299276 0.0026330128 -0.01121819 -0.03594687 0.02620392 0.023398373 -0.0058821067 -0.009925555 0.042313945 0.0035302155 -0.041407097 -0.042711284 0.031957243 -0.0071492195 -0.0052249543 -0.023471212 0.01282889 -0.046782326 -0.001867868 -0.034611024 -0.005739808 -0.0098226555 -0.0037877448 -0.015787303 -0.042723145 -0.009501897 0.0053880215 0.016352449 -0.018519796 -0.04462254 0.0042556524 -0.004363917 0.0103638545 -0.040573727 -0.03554382 -0.037018895 -0.0218987 0.006012667 -0.010205768 -0.017916907 0.030077506 0.039864507 -0.034431566 -0.015023209 0.018709686 0.033839356 -0.044721402 0.023810018 0.023352 0.018972207 -0.0032425039 0.010631692 0.041828047 0.013416376 0.015889894 -0.037619065 -0.03586297 -0.0047910586 0.0058919787 0.022959042 0.010085512 -0.017526377 0.03554103 0.035319123 -0.022007108 -0.0028482676 -0.0055270195 -0.012110807 0.016136657 0.03226788 0.041166473 -0.037149716 0.038539056 -0.022128357 0.013085198 -0.026742375 0.035346713 0.007849395 -0.0072326288 -0.048727848 0.034014057 -0.006126322 -0.044519376 0.034633245 -0.038214277 0.04514045 0.00859369 -0.0029026382 -0.009061109 0.027941633 0.042298917 -0.0014167912 -0.033410728 -0.009820651 0.027300585 -0.02671789
no -0.034992956 -0.043204237 -0.0033732876 -0.023942089 0.031737696 0.02259845 -0.0012212507 -0.043965247 -0.042978432 -0.022140944 -0.045506548 -0.001791656 0.03393891 0.0063399896 0.0062573664 0.011824511 0.017548945 0.010698818 -0.005266987 0.013500895 0.03819022 0.04578388 -0.0045609362 -0.01870216 -0.04681437 0.037159 -0.016470633 0.035291564 -0.018243682 -0.026345575 -0.041505706 0.02778108 -0.00090951845 0.0012246259 0.048605647 -0.0494856 -0.013547242 -0.008175779 0.029670123 0.0004328601 -0.026880754 0.036162566 -0.0052066334 -0.024317253 0.034903888 -0.038591385 0.037349295 0.048349824 0.014089499 0.025479924 -0.03227631 -0.0033081174 0.018616889 0.01576439 0.03151912 -0.029603077 -0.0038279071 -0.0046057478 -0.027592529 0.008374572 0.028077748 0.022566948 -0.0037143715 -0.04284978 -0.00430616 -0.0035806298 0.04541209 -0.041044284 -0.03778615 0.03975619 -0.044458892 -0.019865036 0.018017713 0.0032008998 0.039931025 0.048115257 0.031125117 0.032797728 -0.033857703 0.048840288 0.025084939 0.0081814155 -0.020972896 0.021414366 0.027665284 -0.046485126 -0.027250087 -0.041764297 0.0011827946 0.0058946237 -0.042687308 0.0024479255 -0.028257478 -0.009884678 0.0017370209 -0.004900515 0.011061143 -0.014995623 -0.003262736 -0.005387116
rabbit 0.030784015 0.010032915 -0.0061583295 -0.046522487 0.046989586 0.02945825 -0.0034179464 -0.002014339 -0.0006782636 -0.023544466 -0.019882465 -0.037168194 -0.04858358 -0.013559043 0.047148872 0.0065338984 0.0155840255 -0.042773914 0.005134724 0.04568017 0.023184989 -0.04712472 0.0026148334 0.045649495 0.014313426 -0.006797444 -0.018084407 -0.010393143 0.007675208 -0.01953361 0.03679136 0.045587827 -0.039143514 -0.007913947 0.0033744462 0.020628456 -0.027376175 0.034170497 -0.02611816 -0.01673621 0.024387386 -0.016442705 0.03905124 -0.0079417825 0.045371745 0.0061423555 -0.0021504387 -0.00016345829 -0.019943083 0.016550574 0.0103219375 0.014798012 -0.030070437 -0.040114917 0.0053242072 0.003016375 -0.014857374 0.036316562 -0.043467082 0.014194999 0.038872246 -0.030243957 -0.028282536 0.027585652 -0.030055344 0.026635442 -0.04914677 -0.04210224 0.043918464 0.010558225 -0.037180506 0.010455288 0.032904614 0.0035700575 0.047094774 0.002929151 0.036950935 0.010485135 -0.047649752 0.0068872683 0.012427963 0.004425727 -0.043943144 0.040065374 0.0077614076 -0.0053187013 -0.03327264 0.020292033 -0.03213115 -0.0034114718 0.022159886 0.02813549 -0.018265367 0.04542098 0.03712107 0.017047707 0.025059614 -0.039933227 0.027118687 0.009845793
when -0.0089774355 0.037303794 0.02476665 0.04226139 -0.0482257 -0.029528523 -0.036681473 -0.018350624 -0.028371608 0.005790472 0.043239523 0.04624934 -0.020865059 -0.0016168356 0.00090596825 0.037823413 -0.025857437 -0.03684348 0.0077732913 -0.012320269 0.02834228 -0.020633316 0.03677774 0.033591364 -0.03400581 -0.028326368 0.033861008 0.019209195 0.04844517 0.035280976 -0.03496616 -0.029688288 -0.032780305 -0.04889357 0.017324459 0.034551036 -0.019309461 -0.008427896 -0.04914215 0.023776758 -0.01990292 -0.0340093 -0.020874549 -0.028863478 0.030387226 -0.036202706 -0.02150253 0.007781673 -0.017348003 -0.03493321 -0.012667488 -0.044020247 -0.031616405 -0.031356037 -0.049336817 -0.020599937 0.02016816 0.010374378 -0.044635892 -0.037342407 -0.0003849864 -0.03571123 -0.0044655427 0.03111099 -0.0035519227 -0.019957352 0.033606503 -0.0034170859 -0.038890112 -0.008697044 -0.013609003 -0.01798141 -0.04547087 0.0011017099 0.031967532 -0.028316045 -0.02687223 0.011235487 0.02819803 -0.011620246 0.01549362 0.041479263 -0.039967597 0.04837079 0.018904414 0.047661092 0.008546699 0.011263847 0.04895774 -0.0026934259 -0.017285727 0.00013334677 -0.0019503236 0.014280904 -0.04282534 0.045125853 0.037515726 0.038252 -0.045883954 0.032639597
all -0.033184133 -0.04486041 -0.013227712 0.039846633 -0.0026642904 -0.03609345 0.03128684 -0.027021695 0.03950112 -0.022319103 0.042343173 -0.0014757402 0.037176277 -0.015950132 -0.0002187118 -0.02429998 -0.01777903 0.0064271316 0.026985656 -0.017974459 0.0012023821 -0.04628369 0.045695994 -0.048819628 0.028660726 0.01142652 0.04470099 0.0040410757 -0.034816254 0.044844437 -0.027552128 0.008468427 0.025739256 0.0019366518 -0.0102081895 -0.014144231 -0.002856303 0.0049351826 -0.03167423 0.015708629 0.012259949 0.022196364 0.04197702 0.024059225 0.016060855 -0.04093199 0.0022226088 0.045619976 0.01052003 0.045258056 0.023429777 0.023797717 0.027461205 0.0017321594 -0.046168864 -0.016353033 -0.031081295 -0.04917827 -0.0069257617 -0.042891074 0.0024245977 0.008380186 0.041798484 -0.035051204 0.041754376 0.009956934 -0.012852155 0.047456983 -0.013038956 -0.006959688 0.016296972 0.01314478 0.018466298 0.0410141 -0.028735638 -0.021152234 -0.011191357 -0.021170652 0.038386133 -0.025988853 -0.010149084 0.0062544458 -0.023638427 0.037527148 0.024983298 -0.0007548556 -0.0495132 0.005400371 0.04986285 -0.03816135 -0.0076847784 0.033637512 0.04727063 -0.0023128763 0.04125509 0.028068628 0.035571564 0.019797076 0.0022152774 -0.007558726
see 0.01045122 0.009970188 -0.02323146 0.010150898 -0.025594616 0.005733978 -0.004861355 -0.03993739 0.008462787 -0.013866913 -0.03192991 -0.019993795 -0.045784343 -0.024903262 0.0445694 0.029723559 0.01836184 0.028929356 0.016640458 0.0460282 0.026061956 -0.028755272 -0.029354775 0.041876387 -0.047368277 -0.005318381 0.0214479 -0.006661117 -0.04895419 0.03245547 0.03661159 -0.040876698 0.028907362 0.001542937 -0.045701038 0.043096993 0.0036451705 -0.007010542 0.047436643 0.045721103 0.025095705 0.014293086 0.02567697 0.01842444 0.02520993 -0.042015493 0.023916472 -0.034384977 0.010109685 0.01818471 0.013000023 0.047608066 -0.03092364 0.029709268 0.03570435 0.033665348 -0.032507706 0.033070568 -0.016867518 0.035580937 -0.012287401 -0.019097423 0.025550019 -0.039266884 0.04795566 0.02787019 0.046031985 0.021361683 0.019442584 0.039416578 0.022952665 0.018379401 -0.049364496 -0.04133431 0.0009182207 0.0014595389 -0.010165524 0.0018527396 -0.023442138 0.045333754 -0.04403311 -0.048893094 -0.0056837313 -0.014445305 -0.010404933 0.03722408 -0.0007953644 -0.041891288 -0.0038593523 0.03734379 0.012561504 -0.020632887 0.0040155165 -0.048395157 -0.049801182 -0.013977326 0.03208139 0.019327167 0.022017423 -0.021868004
into -0.03873248 -0.012692668 -0.0447508 0.026945975 0.033118155 -0.04078897 0.027814638 -0.04902972 0.019896332 0.038533118 -0.022201002 0.04065499 -0.0053677186 0.0100572705 0.013095502 -0.016404688 -0.029801477 -0.029005706 -0.02006873 0.0019441843 -0.008448649 -0.01154387 -0.019187367 -0.03946823 -0.03946334 0.005708158 -0.04525999 0.012063932 -0.043025948 -0.008925427 -0.0011416301 -0.026194144 -0.038326252 -0.00042518228 0.0024668798 -0.038552593 -0.016453326 0.00459807 -0.020602394 0.047629464 0.049706485 0.049158324 -0.0070347674 0.029586364 0.018052194 -0.024673045 -0.0394922 0.0463789 0.024504866 -0.029531002 -0.019422388 -0.0465052 -0.022576822 0.033920232 -0.023463905 -0.0036436915 -0.0039047487 -0.0061273463 0.009672068 -0.002968289 -0.028886093 -0.04011308 0.04820421 -0.02184062 -0.039515804 -0.033452608 -0.014538515 0.018114556 0.040775824 -0.031879187 -0.03371449 0.0081666 0.015020255 0.015692625 0.023041654 0.038075652 0.0012602434 0.021813009 -0.03602289 -0.0012771972 -0.03202144 -0.019115437 -0.029210234 -0.026366865 0.024230663 0.021939207 0.0067220554 -0.047916926 -0.03158752 0.042061035 -0.027437259 -0.03403779 0.03152449 -0.028391887 0.0006099716 -0.033247877 0.009889353 -0.01056727 -0.015600871 -0.029361606
what -0.017530035 0.030380499 -0.026274323 -0.033042658 -0.03231728 0.027475689 -0.035928868 -0.000112615526 -0.010417331 -0.024131 0.03588051 0.03477129 -0.0029448979 0.035632584 0.008842181 0.042971257 0.043621946 -0.03953936 -0.021866167 -0.022585703 0.0032201782 0.02893528 0.009153079 0.046160076 0.022062827 -0.023204898 -0.043266643 -0.04047277 -0.015398014 0.009984553 -0.04501251 -0.04406471 -0.014978398 -0.018068708 -0.038291074 0.009880841 -0.008740388 -0.048182942 -0.03414525 -0.022784675 0.04034296 0.009890627 -0.045675397 -0.041699886 -0.0032956824 -0.01137935 0.03566127 0.014134232 0.0021133423 0.0047415122 -0.024382103 -0.018060647 0.03576899 -0.047299445 -0.007127188 -0.04626981 0.034561206 -0.01240183 -0.048558522 0.02434272 -0.017065596 -0.011071086 -0.015349567 -0.016839217 0.029574048 -0.007503867 0.018805433 -0.030884445 -0.034051515 -0.028099645 -0.010765456 0.045833413 0.022247922 0.0014981143 0.043084573 0.037458632 0.03471091 -0.01623701 -0.012013793 -0.015810408 0.013219539 -0.024395263 -0.028134584 -0.004346013 -0.036070883 -0.01810614 -0.03839475 -0.001106225 0.021528725 0.03808708 0.042706896 0.04599129 0.005001474 0.049007263 -0.028308189 -0.029241396 0.033772398 0.019199576 0.034000423 0.010695197
there -0.039887022 -0.049290646 -0.0005402453 0.028179232 -0.021431327 0.008492686 0.0018473491 -0.042100586 0.020543683 -0.025556326 0.040102933 0.017089572 0.03184769 -0.041573334 -0.006819345 0.016208265 0.034016814 -0.0066797845 -0.026131094 0.007210754 0.005257167 -0.029188812 0.04696406 -0.024289096 -0.014350258 0.027968135 0.001276195 -0.044927288 -0.03811698 0.042842638 -0.032534994 0.007895004 -0.036050774 0.013619158 0.018554453 -0.033415366 0.014068317 0.038351882 -0.011435222 -0.0023167953 -0.017427504 0.038954604 -0.0402879 0.017881606 -0.01769825 0.042877886 -0.042779554 -0.022041857 0.010453772 -0.009112835 0.00953839 -0.044725884 0.024332393 0.028109323 0.03199507 -0.042030253 0.018616151 -0.041824557 0.0036226884 -0.020007623 0.002278626 -0.027421022 -0.03894906 -0.03303038 -0.02092942 -0.0148437135 0.037719633 -0.023119008 -0.028002584 0.035684858 -0.020327283 -0.00019218773 0.048286308 -0.02527355 -0.00097266585 0.048709024 0.023067664 0.013094079 -0.010454036 0.03898075 0.038564052 -0.018315721 -0.0057713874 -0.015073158 0.045543734 0.005071841 -0.030668128 -0.012963939 -0.044490315 -0.02554716 -0.022425735 0.011581313 -0.031850744 0.00907737 0.011778593 -0.045835435 0.017991815 -0.042154074 -0.011816513 -0.04898504
think -0.010252666 -0.0461892 0.020728473 -0.047655474 0.033749882 -0.03862276 -0.020029927 0.024472687 0.019767892 0.04167113 0.040171076 -0.030061007 0.04688194 -0.007830668 0.037449624 -0.0067547075 -0.036813628 -0.015787542 0.031828646 -0.022842824 0.037768934 0.033707533 -0.029468143 -0.0060698986 0.03995775 -0.0069838986 0.022346351 0.042702463 -0.033049718 -0.029019356 0.01546881 0.0043663867 -0.0020461082 0.04639263 -0.022893919 -0.034461297 -0.030246878 0.012951206 0.03501674 0.032052923 -0.010382377 -0.020347953 0.047329117 0.028490867 0.034265075 -0.0018848889 0.043074157 0.0012781024 0.043418635 0.019723143 -0.025164533 0.017100904 0.024785925 -0.015703224 0.04962505 0.015259076 -0.030119717 0.02304535 0.034636382 0.02590039 0.020184603 0.015404869 -0.012106072 0.03613737 0.0019400492 0.049630854 -0.034245387 0.027948763 -0.033038784 0.013646547 -0.021219457 0.046426896 0.013966624 -0.031104004 0.048741687 -0.044190455 -0.015839804 -0.012449779 0.016491715 -0.008808516 -0.0071936473 0.046394836 0.033460263 0.012175094 -0.0026903637 0.0049142614 0.0055062175 -0.02541852 -0.040782284 -0.04067441 -0.0049627647 0.019827556 -0.011868585 -0.010039769 -0.0437794 0.033162918 -0.025046503 -0.049372435 0.0049323924 0.016040634
me 0.023387898 0.0091841705 0.039531518 0.028075684 0.015944373 -0.0297647 0.0057032704 0.043729577 -0.014197577 -0.019983852 0.03974087 -0.04113535 0.007511474 0.0076423287 0.038330738 -0.049026277 0.0011400208 -0.039410103 -0.018571377 0.020667639 0.021398176 -0.01818782 -0.012146223 0.004655838 0.048117783 0.010985695 -0.014227785 0.016540859 -0.039131414 -0.009020973 0.026567224 0.046201054 -0.022783209 -0.037762046 -0.02256812 0.027869891 0.024855327 -0.001137007 0.03302637 -0.008166492 0.04875434 0.03565525 -0.014159538 -0.04336555 0.031722095 0.00573013 0.021886956 -0.048806407 -0.029817605 0.011162125 0.04896002 -0.0055587403 -0.012770079 -0.010357786 -0.021845972 -0.01099677 -0.042351782 -0.0061108246 -0.014784016 -0.0034893863 0.03445587 -0.017328478 0.034628477 0.03326166 -0.018316604 -0.042688467 0.026959483 -0.033290543 -0.034750808 0.03718884 0.04560062 0.0066919215 0.018167865 -0.03485023 0.018207777 -0.048990082 -0.026979959 0.03557906 -0.03952985 -0.017052092 -0.033701062 -0.014933396 -0.0024455674 -0.017398573 -0.040020026 -0.0071687475 -0.02282591 -0.0031347051 0.035685565 -0.03824892 0.02993523 -0.039284755 -0.01065284 0.040405143 -0.04571526 0.0220696 -0.018086217 0.0454352 0.01456615 0.042225506
if -0.0071055405 -0.030651141 -0.045136034 -0.047027458 0.01557057 -0.0025731213 0.04163829 -0.02920084 -0.008793794 0.037432935 -0.044873502 -0.001685787 0.023073267 0.0140844695 -3.5263598e-05 0.015841987 -0.016755342 -0.029248703 -0.03387537 -0.033222247 0.0020275004 0.033819918 0.0037085898 -0.015323602 0.007027127 0.0064063445 0.0066340193 0.044627298 -0.02919711 -0.012380622 -0.005487513 -0.02188133 0.008185901 9.457022e-05 0.008836664 -0.0049354434 -0.025384773 0.028529678 -0.041331362 -0.014651228 -0.012204159 0.0053277016 0.042898085 -0.042512026 0.0472301 0.032627415 -0.027264535 0.023613486 -0.00061666965 -0.0054867156 0.038269285 -0.015663944 0.013439205 -0.02562145 0.011500478 -0.0044551976 0.039872993 -0.0069403425 -0.0071257837 0.020902012 0.033581827 -0.031363606 -0.015465952 -0.03467393 -0.02056433 -0.044028807 -0.027807845 -0.023082806 -0.043172073 -0.020434344 0.033877585 -0.040538527 0.036649797 -0.041806556 -0.022864139 -0.04126495 -0.025998129 -0.0290694 0.038032178 0.030863885 -0.018638574 0.032098997 -0.03248425 0.0046998747 0.020401884 0.016383383 -0.0377558 0.0032883286 -0.0022682175 -0.039308704 -0.026265109 -0.048858713 0.046947014 0.0332206 0.019321267 -0.04092313 -0.008074749 -0.0298172 -0.033577584 -0.034642495
thought 0.0008294359 -0.00872352 0.0159663 -0.0013537519 -0.029885663 0.037195776 -0.002741836 -0.029596865 0.006983377 0.014057528 0.045944784 0.013872873 -0.0068564303 0.0134722255 0.04290725 -0.041123472 -0.042492688 0.017059002 -0.03783206 -0.04040258 -0.03102752 -0.020793224 -0.040310394 0.04309429 -0.04211632 -0.03787594 0.036966268 -0.046003748 -0.032125846 -0.045785416 0.017973233 -0.027491797 0.0058592074 0.04278854 0.013566639 0.036415946 0.04203744 0.04663975 0.019252133 -0.04853356 0.032795455 0.009393215 0.0077501535 -0.018392574 0.012867454 0.019418959 0.021774817 -0.018522143 0.037013043 -0.037092306 -0.04128591 -0.009565461 -0.04701209 0.02022579 0.016331088 -0.030819405 -0.01710713 0.014044736 -0.010656655 0.0060135834 0.035242405 -0.027510941 -0.034417726 -0.0056259856 -0.023676991 -0.0065709464 0.014683809 0.048777435 -0.03904487 -0.013361406 0.024968985 0.025840048 0.027149271 0.04746064 0.048340846 -0.033338238 0.013997663 0.01981901 -0.0499035 -0.03604702 0.031419244 0.03827789 -0.03534131 0.03703176 -0.03295342 -0.021145642 0.04588962 0.0023034327 0.024880853 -0.018337417 0.038104508 -0.026082838 -0.04400326 -0.032502368 -0.027733624 0.03182194 -0.024709845 -0.013792418 0.038412858 0.028427575
could -0.027510155 -0.017344318 0.028231706 -0.022918964 0.03427342 -0.001781702 -0.026960421 -0.017438281 0.030203309 0.0063784346 0.013705198 0.012625206 -0.03263185 -0.014228415 -0.02390908 -0.0317428 -0.008149862 0.043350328 0.02232137 -0.04076221 -0.027136505 -0.042002738 -0.040099334 0.009495437 -0.03335581 -0.03464811 0.015772488 -0.0052618496 0.044298496 0.043829788 -0.044549763 0.011264183 -0.024128199 -0.0222394 -0.010589611 0.016003203 0.026154589 0.03254279 -0.026014984 0.046269927 -0.03188138 -0.030276418 0.021374714 0.049254466 -0.011415221 0.029652324 0.04399034 0.011195041 0.020169426 0.011341967 -0.012243032 0.0080595985 -0.046505596 0.016272698 -0.027926505 0.01998252 0.022825848 -0.032251477 0.03913069 -0.047893133 0.04661795 -0.01862694 -0.0038550012 0.024554912 0.043026473 0.026815537 -0.044850122 0.01878636 0.004324544 0.032422412 0.025956247 0.010087013 -0.008698605 0.023954164 -0.015989732 -0.035016455 0.026722636 -0.039936066 -0.0066128485 0.026703719 -0.028349876 0.03409845 -0.031264056 -0.029388595 -0.045329273 -0.04493145 0.02009556 -0.034559846 -0.029964566 0.038477335 -0.01956041 0.024635639 0.00080214813 0.002198469 -0.016839493 -0.0013679378 0.04779954 -0.018301584 -0.018926192 0.024635617
time -0.019512033 0.007874168 -0.021097457 0.0020684972 0.031627182 0.03920189 0.014458548 0.028397191 -0.029356945 0.03193592 0.013161425 -0.038720798 0.025498483 0.011533987 -0.0011529326 0.012133848 0.020133924 0.021315169 0.03025787 -0.03044628 -0.0064059123 0.0473977 -0.031147052 -0.004133869 0.042373743 0.046020832 0.03774425 0.041788165 0.01222048 0.012617756 0.0301348 0.03039578 -0.039187707 -0.04726205 0.006279193 -0.0009326823 0.009849083 -0.042204596 -0.029852247 -0.026861608 0.004383862 0.0021930821 -0.00294007 -0.02722839 -0.04651412 0.04331783 -0.0035351627 0.0054559335 0.004943799 -0.031446718 0.0009785295 0.019743908 -0.023784805 -0.04048457 0.0019797683 0.035113778 -0.040959515 -0.0075399987 -0.0011125691 0.046907093 0.04545177 0.021230746 -0.035374306 0.035828147 -0.036162544 -0.04685383 -0.046712913 0.04350635 -0.01168729 -0.048785128 -0.018613137 0.040973436 0.014844883 0.030777548 0.046889592 -0.048976995 -0.026211834 -0.010870673 -0.019012367 0.017454278 0.02188814 0.009106241 0.004579734 -0.006817855 0.039629865 -0.011579156 0.043258097 -0.040429007 0.030435633 -0.007129859 0.039713774 0.0121454485 -0.041009914 0.0055065975 0.0052617677 -0.03642837 -0.009201683 -0.021684695 0.025744166 0.021470439
about 0.017245565 0.016180579 0.021255922 0.0023529045 0.044875752 -0.013200916 0.042286027 -0.024830913 0.032164905 0.048596468 -0.024273086 0.046375822 -0.0008915067 0.0064290278 -0.045291424 0.039378647 0.0012178421 0.02464905 -0.01153915 -0.046161916 -0.0028985627 0.02167641 0.03319783 -0.004372429 0.034127343 0.043688167 -0.000362359 -0.022404075 -0.000523448 -0.048227858 0.043990064 -0.0052389875 -0.0065945983 0.009208083 0.026189793 -0.007874668 -0.032124378 0.013365153 -0.034469746 0.04807141 -0.023595154 0.013331246 -0.015562713 -0.025185848 -0.019183362 0.03125305 -0.04255277 0.023647953 -0.01841215 0.042554487 0.023750853 0.0024214983 -0.032274712 0.008477438 0.041209366 -0.043355227 -0.0007336363 0.0067317598 0.03901683 0.02578279 -0.035856713 -0.012100257 0.032670353 -0.03796657 -0.040353764 -0.03657744 -0.010940183 -0.028341843 0.029631365 -0.03502501 0.0065394416 0.036384556 -0.0454352 0.033265304 -0.042261448 0.004077565 0.020159055 0.02010398 -0.037264384 -0.017451525 0.0107158795 -0.040879022 -0.01814773 -0.04777528 0.012728874 -0.0047100894 0.015354443 0.009234689 -0.03262184 0.017272148 0.03352901 0.005405642 -0.04586176 -0.00070573017 -0.031471036 0.016511153 0.026256207 0.019761417 -0.030955387 0.024805378
went 0.015855398 0.0074704885 -0.029660797 -0.007569123 -0.015101623 0.03637499 0.007773459 0.027225662 -0.0361691 -0.029639566 -0.0012838133 0.034057405 0.0429062 0.033511523 -0.012982905 -0.021329153 -0.02870307 0.018918548 0.043161143 -0.02379234 -0.020248938 -0.01807195 0.024880815 0.02568208 0.023965288 0.049282085 -0.04984745 -0.04598688 -0.046575416 -0.005045809 -0.03821502 0.01240176 0.04159076 0.002396237 0.01584481 -0.005557526 -0.04012258 0.028793667 -0.030593324 -0.023259271 0.010645054 0.018148575 -0.04097104 -0.009401776 0.007818233 -0.012657762 -0.029436398 -0.006583236 -0.029778803 -0.0336134 0.04533453 0.024393689 0.041582454 0.029190157 0.049241867 0.016586486 0.048537385 0.039245833 0.04464091 -0.020954907 -0.04504143 -0.013738047 -0.028912425 -0.036505174 -0.030072046 0.040312972 -0.03809154 -0.028993333 0.019213889 0.039153744 0.024995055 -0.034166656 0.014245737 -0.023645187 0.024033371 -0.023047363 -0.04701046 -0.031335045 0.03871152 -0.016073443 0.026568983 0.01227634 0.032287452 -0.046311807 0.047054876 0.005504608 -0.030473327 -0.0489238 0.0017955191 0.0119154565 0.023044381 -0.016541183 0.032199036 0.016844083 -0.01925298 -0.01953516 0.042294774 -0.004598081 0.022470448 0.01043291
were 0.017001096 -6.0308725e-05 -0.04319899 -0.04688065 -0.025734676 -0.03059175 -0.036524046 -0.026024139 -0.019124627 0.03773899 -0.032346323 -0.04964112 0.01257458 0.02195498 -0.025340809 -0.039523732 -0.005997263 0.010690797 -0.008203961 0.00802692 -0.045519125 0.047844198 -0.021454705 -7.2456896e-05 0.01818845 -0.037883043 0.023323607 0.009429455 -0.025294555 0.015017282 -0.041673828 -0.03865377 -0.04370601 -0.026074111 0.0014257543 -0.039263166 -0.0015622489 0.04771847 -0.039041996 0.007315658 0.017224263 0.01005565 -0.0020170435 0.048698816 0.046696153 -0.01381439 0.044586543 0.009913802 -0.04544252 0.029916856 -0.004652761 0.031109896 0.03412663 0.03654409 0.010739457 -0.043820705 -0.009972941 -0.0107751 -0.048389472 -0.03702917 -0.047516443 -0.031619668 0.022514585 0.040801767 -0.018028665 -0.049436938 -0.029484833 0.016935993 0.029474068 -0.013088632 0.04034182 -0.02875458 0.049505163 0.0027760863 0.0013969317 0.039651323 -0.045128405 0.011751581 0.02726848 0.049709085 0.017125893 -0.006666649 -0.0004488714 -0.04294708 0.002523709 -0.020802319 -0.042972684 -0.02379967 -0.029750217 0.0037909634 0.04764792 0.005568303 -0.045238268 -0.034526408 0.032170463 0.041024957 -0.008030664 -0.045100845 -0.020553375 0.040064994
off 0.015183117 0.025451098 0.029922906 0.0070603713 -0.04471452 -0.04277816 0.00026071072 -0.0020396225 -0.02163812 -0.04407245 -0.040958025 0.0008288026 0.046112668 -0.026374925 0.030694488 0.047534917 0.011255242 0.03581213 0.036435556 -0.03347166 -0.024345076 -0.041115202 -0.011960637 0.002478052 -0.0042699575 0.017175365 -0.027929878 0.010988355 0.0078045726 -0.04161644 -0.019498289 0.04700682 -0.022236038 -0.04384297 0.012941312 0.00047026947 -0.048965015 0.010916542 -0.030834973 -0.041313827 0.032288793 0.021005157 -0.04990188 0.0024765022 -0.015940499 0.040615086 -0.00012452528 -0.034554683 0.023689363 -0.008084249 0.011670362 -0.048026193 -0.025132908 0.040020417 0.027096782 -0.010312963 0.012356281 0.02147578 0.048662696 0.025521684 0.036057655 0.027638111 0.010105241 0.031030033 0.029776577 -0.01660657 -0.009794712 0.015174616 0.027969066 0.035036568 -0.029211676 -0.042654622 -0.006245803 0.0077134855 0.042974953 -0.023184288 -0.027093543 -0.040586293 -0.033068933 0.032091383 0.010372698 0.038828287 0.032360505 -0.025605131 0.042039607 -0.0072582588 -0.035425164 -0.021920085 -0.04578879 -0.025452888 -0.040520467 0.037981 0.028755967 0.018695269 -0.0047023296 -0.046816863 0.030859116 -0.02572838 -0.031767845 -0.023480821
said -0.035212982 0.024107646 0.0076638088 0.02019019 -0.020441104 -0.024060536 0.016349148 -0.0199368 0.033309523 -0.02346704 -0.022606468 -0.048490774 0.023767915 0.012749579 0.01010685 0.027984057 -0.032266036 0.019244578 -0.048839714 0.043755103 0.017682794 -0.02101984 0.0010540262 -0.018955624 -0.043862905 -0.0022091493 -0.032230936 0.033340406 0.031413388 -0.04057745 0.045520317 0.024758998 0.046850506 0.04046506 -0.023004306 -0.025159955 0.018564526 -0.021018267 0.038966168 -0.02526555 0.022379566 -0.034427226 -0.044979252 0.045620646 -0.016059458 -0.0131909475 -0.0059384815 -0.032070935 -0.03235054 0.0071307905 0.028630663 0.04459225 -0.018294714 -0.0379648 0.02356216 -0.01175778 0.038557436 -0.01036923 -0.02576139 -0.04916997 -0.0035889968 -0.04912702 0.025524605 -0.017239321 -0.013813533 -0.0336663 -0.009202827 0.045076516 -0.018900324 0.018483315 0.024496522 -0.044249 -0.037933707 0.032956455 0.03974623 -0.04257175 0.021598581 0.013002519 -0.008220173 0.0043691285 0.02809998 0.04764482 0.033602905 0.02733541 -0.0018167607 -0.04927435 0.028820697 0.037017796 0.015298869 -0.019927895 -0.014572848 -0.02983786 -0.03608992 0.0068194494 0.008819282 -0.0038406253 0.030893195 -0.037404586 0.0052347556 -0.008651722
by -0.034078315 -0.02700274 0.031817187 -0.037249863 -0.009742856 0.0068110824 0.04570068 0.00046557188 -0.006292414 0.016825903 -0.042196702 -0.017265238 -0.03737559 0.041319083 0.013197746 0.0153041 -0.009607445 0.022268068 0.021877851 0.013288531 0.03383981 0.03374659 0.0069782026 0.0023127198 -0.017498244 -0.026548374 -0.006704271 0.0151104 0.023475196 0.021260489 0.023412336 -0.029891014 -0.00416746 -0.022954106 0.034610357 -0.0201478 -0.040028535 0.0093615055 0.008525647 -0.034433078 -0.034876775 -0.0077289566 0.018107448 0.0017621405 -0.010388434 -0.0072347894 -0.030741965 0.0452776 -0.04686717 -0.030163754 0.029824983 0.049335826 0.0051688068 -0.022523403 0.0026327148 -0.016755342 -0.04514122 0.027174521 -0.030151261 0.022144567 -0.038979627 0.0007869378 -0.010633718 -0.029310048 -0.038648833 0.020417962 -0.024820304 -0.005138099 -0.047479667 -0.03761809 0.031157438 0.006438948 0.028706048 -0.019141186 -0.009326089 0.02822448 0.0058201924 -0.036561288 0.036439005 -0.048356127 0.0024039522 -0.022086501 0.043187175 -0.040884256 -0.034682382 -0.034242347 0.041242387 -0.041463755 -0.037583888 -0.005718626 -0.020116879 0.003579367 0.0006947033 -0.023975337 0.047198985 0.018252041 -0.03142432 0.02103037 0.045443382 0.04360303
get 0.013792399 -0.04895798 -0.048644293 0.044369828 -0.047754895 0.00894618 -0.0039912686 -0.006341506 -0.036744546 -0.042139433 -0.013052534 0.0029718503 -0.0056889057 0.0029016733 -0.0014966354 -0.020776404 0.0047222264 -0.026904726 0.044797864 0.017411318 0.0188885 -0.0064818636 -0.041704953 0.015276287 0.0141443275 0.020116676 -0.008131184 0.026824567 0.040414993 -0.046917476 0.007062316 -0.04824349 -0.03891133 -0.012659263 -0.027068509 -0.020442212 0.049299214 -0.030163383 0.039724614 -0.008269917 0.03360069 0.013100218 0.018703315 -0.048017766 -0.0065737255 0.00068382174 0.028001968 0.048149277 -0.042273737 -0.00040135533 -0.049167182 0.014039639 0.0006981008 0.042661656 -0.023288442 0.03438363 -0.014246989 -0.00042444468 -0.046912182 -0.046712782 0.039371792 0.044784997 -0.038885035 0.023939516 -0.027501727 -0.039316226 -0.029526854 -0.02330686 0.031330314 -0.026606942 -0.014912438 0.016292382 -0.04097464 -0.020361269 -0.04158299 -0.0009233467 0.03161395 -0.042109646 0.04319593 -0.033614717 0.015138153 -0.030349946 -0.014804531 0.016684655 -0.009773541 0.04447123 0.0366395 0.035782862 -0.04012406 -0.041647933 0.001514338 0.02459338 0.025701668 0.009826921 -0.026737858 0.043984625 0.02571268 -0.025407506 0.037715208 -0.028437173
do 0.023706343 -0.015336204 0.011813961 0.033053685 -0.031723 0.0103415735 0.010206424 0.02601898 -0.030455923 0.0347634 0.02980024 0.007901203 -0.0030382648 0.024290096 0.0050685294 0.030788768 -0.04183054 0.014300454 -0.03946366 0.020414922 -0.04444276 0.011400174 0.003007114 0.031215835 0.01690742 -0.021036446 -0.019862473 -0.010627519 -0.0007490404 -0.035708047 0.044374574 0.018701162 0.027653161 0.02302042 0.038242307 -0.030055905 0.0044232383 0.044268016 -0.012643348 0.04481441 0.045352306 -0.017111767 -0.014063645 0.034157287 0.003282331 0.02078123 -0.0052104816 0.025642697 -0.00239861 -0.018587898 0.033342782 -0.0021942481 0.041854326 0.042679157 -0.029376233 0.021250796 -0.038119875 0.028235007 0.01568916 0.02339438 0.010657132 0.01903912 0.02709898 0.02540325 -0.0031467788 -0.025739623 0.045221295 0.016234104 0.049264554 0.033115912 0.020429078 0.04409833 -0.0044196844 0.038504068 0.04001249 -0.0044966713 0.020872582 0.036030147 0.032097075 -0.009425759 -0.03909514 -0.004506301 0.007071186 -0.033258356 0.031160895 0.037647236 -0.017453123 -0.0112102255 -0.010130823 0.044995937 0.0039234757 -0.043308616 -0.033524476 0.008880101 -0.02984022 0.028951075 0.00837034 0.031939898 0.03844193 -0.040696897
would 0.009089313 -0.02093935 0.04939762 -0.041436695 0.049907137 0.012867663 -0.049546875 0.028136041 -0.0075764284 -0.048488438 0.011676632 -0.049248375 -0.04253714 0.03533229 -0.046833206 -0.01599921 0.025411438 0.017211486 0.031036083 0.029842999 0.01404858 0.030792665 -0.019604683 -0.014863659 0.014277291 0.049931455 0.0022315755 -0.005901955 -0.019157851 -0.018906487 0.025446143 -0.042423498 0.015028562 -0.012848068 0.015076075 0.033548716 -0.029524613 0.010092117 -0.032180443 -0.0026971586 -0.01891588 -0.034964383 -0.021687925 0.031494822 0.028119992 -0.014909983 0.040070187 -0.0432953 -0.033049107 0.023559783 -0.040372144 0.0045522675 -0.022702027 0.012261428 0.014117744 -0.01774032 -0.039418627 -0.036809407 -0.03210523 0.032457177 -0.029899633 0.027731512 -0.04627278 0.01743367 0.0474761 -0.029326677 0.012830023 0.023811433 0.015061025 0.0124069825 0.007545721 0.001842916 -0.0072995313 0.014376644 0.039644133 0.010486923 -0.0011866465 0.036728013 0.0105909705 0.024120424 -0.046652567 -0.028849458 0.0086753 0.013809193 -0.0097996 -0.018202733 -0.020210266 0.0062027797 -0.003573466 -0.02750249 0.04447062 0.027994696 0.045308564 0.019584086 0.029230658 0.0064850226 -0.023961568 -0.024125421 -0.045999147 -0.023761451
much -0.0053591505 -0.03858919 -0.049453177 -0.035101365 0.029185917 -0.04717995 0.043241706 -0.008633234 -0.037069164 -0.0029827468 -0.029894555 -0.027942015 -0.003393054 -0.0001148358 0.024336781 0.047472242 0.018587735 -0.023066735 -0.048525274 0.014560346 -0.04528513 0.0070673227 0.030195307 0.03983997 0.025030542 0.01255912 -0.03494991 -0.018484853 -0.026534462 -0.024172653 0.034270976 0.00064636394 -0.022057284 0.0024692193 0.0064457282 -0.048677396 0.033023562 -0.0489352 0.0009896643 0.033107843 -0.012945928 -0.049604584 -0.013108991 -0.0033609048 0.0228956 -0.037472747 0.027322043 -0.018506955 -0.002584409 0.040733542 0.0039928555 -0.015985392 -0.049998846 0.01692785 -0.008174658 -0.027949108 -0.036229253 -0.0052608475 0.042428765 -0.035655867 0.04653592 -0.03755032 0.027110588 0.000111199915 0.0017324314 0.00281886 0.032079946 0.030516718 -0.0020377263 0.0011689439 0.02567656 -0.007295288 0.0113796 -0.04407077 -0.0056228265 0.008064974 -0.042100288 0.004123509 -0.012680709 -0.022520948 0.011861492 0.0049283504 -0.00852982 0.03185338 -0.026238084 -0.04760946 -0.02619406 -0.009185493 0.036066685 -0.0061905496 0.030378137 -0.048606243 -0.019969095 0.01860514 0.019338872 0.036687445 -0.027836908 -0.044735875 0.015854824 -0.04021623
feet -0.028392458 -0.003756594 0.011331759 0.03533521 0.028961685 0.0076023564 0.0026580691 0.024099614 0.015139665 -0.018825723 0.007996798 0.037873033 -0.033307746 -0.035987116 0.025912177 0.049355697 0.029147614 -0.025862133 -0.034134567 -0.022969866 0.010221411 -0.013593983 0.020690326 0.045866776 -0.030966891 -0.032388438 0.027221117 0.047617856 0.011713374 0.0053910837 0.03801732 -0.02754779 0.013810586 0.013499413 -0.043476474 -0.020192623 0.0041563287 -0.005334951 -0.0075288415 -0.03676095 0.0127596 0.047596063 0.010819592 -0.0047986135 -0.025720417 0.013712976 0.038166907 -0.048999656 0.019365933 0.003368102 -0.0002814643 0.008812882 -0.016635705 0.03742316 -0.029027497 -0.028623058 -0.042472493 0.0257633 -0.008601762 -0.03900262 -0.0025868788 0.038871977 0.0070881024 -0.0059674866 0.0068417415 0.007982004 0.018530201 0.042142395 -0.044426538 0.017559376 -0.024504865 0.043995414 0.00950117 0.026743319 0.03318918 -0.013851345 -0.017735004 0.048393097 0.04467665 0.013267759 -0.037993204 0.044563446 -0.018147647 -0.013872124 -0.024377942 -0.034318782 0.009561501 0.02441584 -0.03050449 -0.039916776 -0.027486622 0.0076031685 0.028845523 0.006117165 0.040715065 0.014427457 -0.0031872988 -0.01957723 -0.02017051 -0.02211361
through 0.020324614 -0.010296334 -0.008983947 -0.011596978 0.04502156 0.040055048 -0.042148553 -0.025499238 0.022975754 0.0073342547 -0.03017869 0.04646058 -0.0108351335 -0.009540819 -0.047208168 -0.037364222 -0.048476826 0.031316165 -0.044353962 0.016334329 -0.046585478 -0.0043362156 -0.03521986 0.03458028 0.048907686 0.0032124035 0.042175774 0.008324493 0.012955572 0.002594281 0.0428815 -0.001711715 -0.025634278 0.028217722 0.025612343 -0.011170816 -0.030586792 0.009342253 -0.024714066 0.03956897 0.033618394 0.040007565 0.021927822 -0.01841233 -0.013070941 0.007123422 -0.03253726 0.023073103 0.04152775 0.04773022 -0.03682252 -0.013815343 0.03611057 -0.018107094 0.012999844 0.014312539 -0.025838936 0.046786834 0.005857397 -0.0075500123 -0.015554823 0.026278067 -0.0010826588 -0.040727507 0.011862338 0.01099937 -0.035626672 0.039110664 0.04414883 -0.0067706704 0.04094172 0.010367025 -0.041805267 -0.009360135 0.035578083 0.0276593 -0.030467117 0.028989982 0.043368924 -0.04454297 0.03283627 0.003936004 0.011740066 0.023527693 0.02718706 -0.00033140182 -0.037700772 0.0013888851 -0.020778311 0.01735488 -0.03987397 -0.027510656 0.005047906 0.006030392 0.035413336 0.047443595 0.04174373 0.024159934 0.0029379837 -0.04188341
door 0.008422352 0.013412263 0.033987645 0.0040842406 -0.032816365 0.045750234 -0.011291575 0.019072521 0.017096948 -0.020841086 -0.007407952 0.043824855 -0.012468029 0.04652841 0.013127517 -0.009405386 -0.012950003 -0.016411196 0.0150211565 -0.03044728 0.018466856 0.016504887 0.011569928 0.011397243 0.022541013 0.0026501305 -0.04871266 -0.044259645 0.025938127 -0.026271928 -0.045967568 0.015447404 0.046109173 0.025046099 0.030810904 -0.005646944 0.046667885 0.026968036 0.009297419 0.021593105 -0.011746932 0.01221342 -0.026501466 -0.044929292 0.017680738 0.0042903647 -0.046166267 0.015653495 -0.049681913 -0.00871836 -0.033216834 -0.0011902824 -0.005785167 -0.013107847 0.029968861 0.035340283 -0.004871905 -0.038089357 -0.031943753 0.007403802 0.022510577 0.0023701414 -0.046684444 0.021298017 0.04061841 -0.04809251 -0.013702489 0.042418506 -0.038103938 0.019740906 0.046498645 0.029534843 -0.03514477 0.03289601 -0.01932137 -0.044273365 0.048512187 0.019518543 -0.013866555 -0.027149796 0.0021643639 -0.013253521 -0.015324198 0.007727336 0.04987147 -0.014894128 -0.027690208 -0.044644188 -0.019321024 -0.02523228 0.041394364 -0.03165795 0.045925323 -0.025634373 0.03050891 -0.00858774 0.03594767 -0.009067643 0.044215526 0.03577825
alice’s -0.01989615 -0.041403472 -0.040602494 0.016235922 0.02363706 0.0011158213 -0.022413123 0.01782516 -0.035456695 -0.02769847 0.048361484 -0.04600922 -0.023401512 -0.046587516 -0.03434755 -0.03083601 -0.043445386 0.028805051 0.018655088 0.002421461 0.019364644 -0.01728351 0.0029094815 -0.014469933 0.04670925 0.036950815 0.02313644 -0.00904591 0.023672152 -0.01886177 -0.024168123 -0.02316388 -0.041647553 0.021566536 -0.044567894 -0.032309785 0.013810519 -0.024267996 0.002568446 0.007152058 0.013607111 -0.03195622 0.04826886 -0.039826464 0.044554796 0.00920812 -0.049383353 -0.027047014 -0.012371324 0.048394334 -0.031905554 0.014479447 -0.042345475 0.019902315 -0.01272136 0.04165003 0.026249241 -0.03882382 -0.031781793 -0.029585017 0.006600775 -0.009916853 -0.015062548 0.025448922 0.041865002 0.029917825 -0.022733808 -0.026832497 -0.008106161 -0.0033891574 -0.0446177 0.047438595 -0.011799704 0.011451591 0.004253365 0.019276295 -0.040155865 0.006463565 0.01475307 0.01554675 -0.039892137 0.022697795 -0.049462773 -0.021486342 0.012184761 0.0024129637 -0.022869969 -0.013036586 0.043016803 -0.034807373 0.043697547 -0.041398156 -0.043512773 -0.04270952 -0.0074890144 0.033296708 0.046923723 0.04734162 0.03645159 -0.038621686
is -0.028233279 -0.0005201474 -0.015462469 -0.04264238 0.0052003264 -0.013515033 0.013305809 0.030819181 -0.029099239 0.047108892 -0.03396938 -0.036595464 0.008795895 -0.0037274472 0.032823805 -0.002968885 0.017240312 -0.003188409 0.00022339821 -0.03420484 -0.004290186 -0.005292047 0.021350492 0.034049097 -0.0004156232 -0.041779555 -0.010086596 -0.040043663 0.04134475 -0.021690238 0.037171904 0.047028933 0.0075699463 0.024676029 0.034854796 -0.012586556 0.03854238 -0.04988978 -0.016518999 0.0074726455 0.0009326339 -0.024298562 0.007237803 -0.031705 0.029539611 0.014367405 -0.04529835 -0.011453547 -0.029962277 0.016910959 -0.0092330575 0.027452853 0.007578112 0.014376227 0.026554558 -0.025569284 -0.011151075 -0.01659001 0.03431238 -0.037053503 -0.0023659244 -0.03159658 -0.028254224 0.005075097 -0.010936748 0.009935189 0.010880243 0.008440543 0.0043083057 0.03181534 0.04991064 0.015811864 -0.0045470223 0.011329174 -0.045934856 -0.049272418 -0.048971783 -0.043338608 0.005443204 0.045259986 0.030552018 -0.018511415 0.014418591 -0.029146707 -0.0010315403 0.018100712 0.0108868 -0.043018043 0.041771363 -0.04602722 0.00597943 -0.026131177 -0.01607548 -0.0074996836 -0.038050186 0.012851488 0.0034337863 -0.046926726 -0.02221638 0.0069824345
use -0.002746582 0.03405601 -0.037662603 -0.012955379 0.049567048 0.03785086 -0.019030357 -0.017139327 -0.008202471 -0.031104183 0.04853091 -0.004501939 0.048056018 0.03935257 0.04608169 -0.021393586 -0.040733933 -0.033413365 0.040302265 -0.04807452 0.011866249 -0.049025964 0.004582096 0.0030704252 -0.0069616064 0.006482076 0.045490015 -0.015727974 0.04512361 0.026322212 -0.005163204 -0.0485857 0.049039874 -0.032076932 0.03379717 0.024675641 0.035390887 -0.0116551295 -0.026112212 0.027303267 0.03409945 -0.034190346 -0.008700468 -0.028670717 0.022214402 -0.049776245 -0.04888884 -0.012384474 0.02583957 0.013158191 -0.031275705 -0.0011189356 0.009612609 -0.045539558 -0.04719603 -0.01906897 -0.008970715 -0.022279931 0.022040162 0.04440416 -0.00011951849 -0.02672943 0.047472898 0.033338536 0.028160382 0.04629613 -0.043783735 -0.043984532 -0.048851192 0.0113222 -0.028525127 0.037502598 0.03836676 0.008975208 -0.0054343715 0.028698865 -0.03296552 -0.025272656 0.040204678 0.025631014 0.027824905 0.037646297 0.043928113 -0.025601268 0.047674004 -0.03243711 -0.048188675 0.018128302 0.01642299 -0.036599457 -0.036572754 0.03142936 -0.0050526857 -0.016342737 -0.0057284236 -0.024398768 -0.04205061 -0.049234807 0.024581622 0.0032594092
nothing 0.03666887 -0.03564205 0.02481455 -0.002529122 0.046189476 -0.016546737 -0.02543093 -0.014226638 -0.033550836 -0.01415341 -0.017100252 -0.027416587 -0.029328024 -0.049955275 0.007357884 -0.023766829 0.028060485 0.026125517 0.042229164 0.021849606 0.032613505 -0.0038213618 0.04997022 0.045509312 -0.0017404556 -0.0012313612 -0.01987511 0.021041814 -0.013020467 0.025507774 -0.00391382 -0.01818917 -0.022591924 -0.049005996 -0.048610676 -0.03951932 -0.012422822 0.044830967 -0.028377473 -0.005917765 0.01823989 0.049617533 -0.016436733 -0.03351307 0.018955793 -0.00582508 -0.039810907 0.014120173 0.0112837665 0.015902165 -0.023248995 -0.021300673 -0.016499937 -0.03205265 -0.0022789612 0.04958229 0.043394234 0.0015739202 -0.0017942302 -0.012801576 0.04304782 -0.0062045082 -0.004025139 0.040133547 -0.026997805 0.015366863 -0.0027023666 -0.005291261 -0.031377807 0.022023942 -0.012829743 0.03387991 0.02101216 0.019667793 0.038137544 -0.00545628 -0.03118335 0.035746206 -0.003366612 -0.04670134 -0.04338932 -0.032560483 0.00080869347 -0.03605504 0.04553925 -0.043581974 -0.045109082 -0.0054058656 -0.02078849 -0.005990885 0.011696208 0.040771928 -0.021507978 -0.0106272325 -0.0047712103 -0.04589795 0.017614271 -0.002868902 -0.021341205 -0.022200335
say -0.0031609908 -0.03068992 -0.041212775 -0.013541676 -0.018620275 0.029523503 0.03159224 -0.007794928 0.033988345 0.009395074 -0.03430009 0.027493898 0.02356143 -0.043088675 0.030167509 -0.033243433 0.0050449595 0.039210048 0.009339176 0.047229994 -0.047344733 -0.0045027137 0.009314932 0.025931228 0.030231345 0.013250675 -0.033242323 0.02067573 0.00015137345 -0.02849834 -0.0036812425 -0.00090096146 0.017759208 0.026322674 -0.016945802 0.045449283 0.03034756 -0.023712253 -0.019819498 0.03809266 0.004565347 -0.0075642094 0.03620589 -0.027302075 0.01403803 0.03225979 0.020973 0.027038943 -0.019104196 0.0049089305 -0.03267013 -0.033401884 0.037793767 0.047930907 0.015262555 -0.047441937 -0.027840734 -0.039595343 0.019174922 0.024549488 0.037580375 -0.04170569 -0.01640848 0.043289784 0.0067619197 0.043700386 0.04863784 -0.045679867 0.029237535 -0.015286218 -0.0024755113 -0.029102469 0.009305347 -0.034373127 0.025902715 0.016625945 0.034467313 0.00042915344 -0.02763325 0.007100165 0.04397515 0.019352864 -0.027682697 0.028875936 -0.04627892 0.037964594 -0.034286905 -0.03461796 -0.023680998 -0.034149766 -0.005381644 0.03467903 0.00687759 0.020085488 0.0453324 0.04181477 0.0235927 0.042791154 -0.027547503 -0.016084932
found 0.012144029 -0.03422271 -0.030109107 -0.030351281 -0.048209667 0.0054387674 -0.044727232 0.040823746 -0.01801027 -0.01265632 -0.037973344 -0.0069379807 -0.011303436 -0.048047077 -0.037665166 -0.004590489 -0.03890271 0.007005561 -0.049618375 -0.043810595 0.02330551 -0.023550535 0.022447836 0.00024263933 -0.018260371 -0.012324072 0.021926913 0.03974774 -0.0058452375 0.02094603 -0.015786063 0.02934983 -0.022239208 -0.042881835 -0.04818951 0.033155326 -0.008712817 -0.020973956 -0.04275166 -0.0022046566 0.022565234 0.009033583 -0.029069448 -0.029889274 0.0448385 -0.02630043 -0.0112318285 0.00068149716 -0.008618653 0.038778257 0.00073151663 -0.039821625 0.033502627 -0.011217535 -0.00933386 -0.02643974 -0.021923542 0.018364083 -0.03971387 -0.015599929 -0.0015583858 0.048630025 0.036702458 -0.044199478 -0.032690845 -0.040733945 -0.026888585 0.017357957 0.04186226 -0.0010956153 -0.024539744 0.0013219938 -0.030274188 0.034205053 0.04591796 -0.009830881 0.0023820885 -0.021836353 -0.0016128793 0.015214171 -0.00045432895 0.007175494 0.012854908 0.030727092 0.003466975 -0.036460973 -0.013301946 0.022967052 -0.049765695 0.0083121285 0.04951037 -0.0499609 0.002347421 0.036429707 0.0011893511 0.03181806 0.0049829595 0.043830525 -0.028452957 0.01937702
wonder 0.02521405 -0.0028479807 -0.0091915615 -0.022110105 -0.010509886 -0.020006407 -0.016910493 0.03852768 -0.0021035075 -0.035580896 0.00373118 -0.019754624 -0.0049189553 0.017580356 -0.029255284 0.0014939308 -0.012200378 -0.04414717 0.024495032 -0.015780985 -0.048880506 0.028821591 0.00042409822 0.044691395 -0.03887997 -0.04102236 0.012601685 -0.035605967 -0.04751295 0.04479743 -0.016807247 0.04740653 -0.03488214 0.027239513 0.035775494 -0.0031333566 -0.009532858 0.01986121 0.03167672 -0.018630244 0.019698884 -0.017469145 -0.04926752 0.042557966 0.028622951 -0.018869711 0.031161759 -0.04867853 0.04915226 -0.034926713 -0.029728973 0.0012108088 0.011602581 0.021819565 -0.036454987 -0.04731567 -0.03159876 -0.016551912 0.03883413 0.038336422 0.03089578 -0.049120437 -0.046297885 -0.018803393 0.034916412 -0.006178081 -0.022482706 -0.01631242 -0.03869288 0.019225728 -0.016060732 0.03956474 0.036873195 -0.020373954 0.03970089 -0.04004073 0.01713195 -0.032145143 -0.01475649 -0.026318109 -0.010525096 0.03502724 -0.031929947 0.026857767 0.020581637 0.0036430955 -0.019466246 -0.0024324544 0.009338271 -0.024541069 -0.049727 0.0077630505 -0.035984743 0.04209665 -0.04950886 -0.026682591 -0.009217024 -0.040869653 -0.015267171 -0.04760648
they 0.020772409 0.0007594712 0.026305985 0.044019353 0.017921638 0.04709511 0.029160324 0.008898772 -0.010608576 -0.04072238 0.038635198 0.017928232 -0.033559397 0.022468869 0.04248928 -0.01613041 -0.022848118 -0.024258459 -0.017579269 -0.0013145432 0.04933163 0.031874623 0.04769707 -0.028199136 0.004921101 0.041103963 -0.044392038 -0.024894131 -0.021936644 0.007134773 -0.015373528 0.036048878 -0.020097947 0.01472472 0.026617002 0.012663629 -0.022029603 0.029393699 -0.03567468 0.007168282 0.0026247874 0.032760266 0.028938878 -0.00152006 0.02460095 -0.014251925 -0.00092114136 -0.018401109 0.033820692 -0.027321696 -0.04271853 -0.049380578 0.015759204 -0.0147238 0.038179006 0.020522598 0.049792375 0.002724588 0.0027374513 -0.037339307 0.02057651 -0.015077926 -0.005673241 0.01656897 -0.009203386 0.027336929 -0.008122552 -0.026435018 0.032594148 0.0195061 0.028156828 0.017695751 0.032636013 0.038569 0.0071908943 -0.009014867 0.046083156 0.038141277 -0.027245903 -0.021428991 -0.043512512 0.028640661 -0.0025545955 -0.009242691 -0.034457028 0.031085942 -0.009856485 -0.0147145875 0.016602103 -0.0139014125 0.048196588 0.04996277 0.040817652 -0.046093084 0.0009780303 0.049664322 -0.018125832 0.0149505995 -0.011887409 0.025574002
which -0.012637697 0.030495416 -0.04600462 0.005855214 -0.025307858 0.035148565 0.0024809018 -0.044882286 -0.028838445 0.029637601 -0.018389344 0.017752815 0.005993344 0.031248126 -0.046037164 -0.011851322 -0.004866611 -0.011361755 0.007537484 -0.033638753 -0.026692022 0.006416369 -0.000808239 -0.018179514 -0.016443409 0.0074800625 0.04124422 0.016657162 -0.048682775 0.0474188 0.003848873 0.022652593 -0.0035336502 -9.200722e-05 0.033681754 -0.030481791 -0.0067851655 -0.04076885 -0.041811455 -0.04570335 -0.0018941648 0.041635755 0.039241437 -0.006403219 -0.0153622255 0.028336499 0.034922052 -0.048950553 0.035383914 0.035050813 0.011227213 -0.003311623 0.023131933 0.012178086 0.020249117 0.040081035 0.036978748 -0.037636794 -0.0077684745 -0.029331315 0.0064404123 0.048548404 -0.04146278 -0.0067558065 0.03327519 0.005946148 0.024297822 -0.045571554 -0.008906711 -0.03754598 0.030627813 0.03665855 0.040006135 0.010840904 0.030577276 -0.0031372681 -0.02819748 0.027598705 0.011245262 -0.025472855 -0.0038705952 0.008126043 -0.0068081394 0.021926884 -0.031411603 -0.022168541 0.015768375 0.031855512 0.03016274 0.02021977 -0.0029735677 0.049127843 -0.02239648 -0.034958147 -0.039257944 0.04377203 -0.03588883 0.00938078 -0.044693064 0.010720063
key -0.004382767 -0.021583796 0.007556487 -0.012406696 0.02633873 -0.0038961396 -0.034769714 0.01852553 -0.040194225 0.011341702 0.034966614 0.0052356124 0.04291028 -0.0044901 0.020810653 -0.04720528 -0.014035214 -0.009957146 0.035136197 0.009208381 -0.009972762 0.031895805 -0.03630371 0.026340272 -0.020166768 0.024522271 -0.034602463 -0.014015533 0.033543218 -0.0017790422 0.0036406144 0.041020695 0.038256314 0.009501435 0.044835273 -0.040171385 -0.037664305 -0.028802097 -0.044020247 0.042000834 -0.00853641 0.024564039 0.034665678 0.043519568 -0.029338038 0.022715535 -0.045205917 -0.011289168 -0.0012113824 0.048324715 0.01967663 0.047393765 0.046003554 0.010227896 -0.015901469 0.022981 0.047506634 0.008147694 0.017184708 0.001193773 0.0026228204 -0.0062765367 -0.013917923 0.018609013 0.029358316 0.007260658 -0.0084045045 -0.029664313 0.039974835 -0.018576957 -0.021954644 -0.046781387 0.028641228 0.016351823 -0.01347518 0.02279165 -0.004493404 0.023025457 0.041745488 -0.017635666 0.023360576 0.028810393 0.01797204 0.027480472 -0.013712514 0.016173925 0.044811357 -0.0067383647 0.039974306 -0.009488702 -0.04058827 0.035868 -0.013163041 -0.048465647 0.00096223503 0.037393164 0.047135998 -0.026787555 -0.037449263 -0.040812265
‘and -0.03312807 0.043774072 -0.029757226 0.047559503 0.04648981 -0.031721972 0.010429621 0.04185449 0.027480606 0.038080882 0.009761669 0.049540486 -0.02877903 0.021156732 -0.0485497 -0.017788015 -0.0066982284 0.035820488 -0.034004867 -0.023437953 -0.033601366 -0.013789274 0.00038337708 0.029397417 0.047156308 0.027193103 -0.0039320476 -0.005773317 -0.032975495 -0.018018652 0.033619467 0.0023566596 0.016721416 -0.023218751 -0.019638872 -0.042001247 -0.041877903 -0.037977565 -0.015631057 0.044814195 0.009822737 0.039789055 0.016593147 0.0093766935 -0.032169305 0.045026187 0.0018226281 0.041898537 0.014776219 0.04867399 0.036511984 0.0022994988 0.00024461746 0.02839506 -0.026960064 0.048451785 -0.008795917 0.039640535 0.010874391 0.026527826 -0.0030429587 0.042529177 0.04602206 0.04473045 0.03061441 0.03956319 -0.016507208 -0.008931518 0.018019583 -0.0054279566 -0.018632889 -0.008268822 -0.019737804 0.007637359 -0.00025155395 0.024096023 0.043494333 0.020931516 -0.026177777 0.033644963 0.008264385 -0.0071047544 -0.019534314 0.017670881 0.006712366 0.032277826 0.007193446 -0.047914635 0.015545871 0.0362324 0.024286602 -0.031296864 -0.035419535 0.0010928996 -0.0007724874 -0.04305307 0.038577143 -0.04098686 0.048723493 0.04805137
shall -0.023520088 -0.025679315 -0.003272783 0.0057140477 0.04742447 0.040205073 -0.048248556 -0.044448625 0.018086877 0.046713445 -0.011585701 0.03039502 0.025168803 0.0092323795 0.0316318 0.04053482 0.029093493 -0.024079705 -0.026037408 0.014183905 0.015582386 -0.0025946498 0.029308941 0.001664687 -0.027773106 -0.04010992 -0.022425866 -0.017052807 -0.011016749 -0.049147107 -0.043962847 -0.008739054 0.048893776 0.03991026 0.029896464 -0.047117043 -0.031012882 0.000145711 -0.034999 0.0065339208 -0.030090082 0.0060486197 0.009991549 -0.021604478 -0.019571174 -0.0046059117 -0.028061677 -0.043017626 0.03552859 0.027758505 0.02001715 -0.021847976 0.042927157 -0.00039818138 -0.0036444888 0.0037284866 -0.0063962713 0.038425338 0.009938218 0.034849655 0.005328238 0.020536948 -0.00873201 -0.022362316 -0.009719312 0.04509722 0.039217982 -0.01376462 -0.025206601 0.038934257 -0.034616448 -0.040264893 0.005635977 -0.016884051 0.047255132 -0.028122878 -0.030265523 0.03864124 -0.028613675 0.0024256706 0.043397 -0.008209504 -0.008755375 -0.0392346 0.033775512 0.037883844 0.0040989034 0.016315568 0.0039203875 0.008790255 -0.032211877 0.049956623 -0.023685802 -0.026856517 0.02059244 -0.008067798 -0.040838145 0.018442046 0.04288831 -0.036133755
then 0.0487671 0.022167731 -0.027499402 0.039244067 -0.0018033981 0.011724662 -0.033406377 0.0395373 0.03849132 -0.04814781 0.0097376 0.03407717 -0.014598738 0.03922559 0.023915235 -0.0071640126 0.0234623 -0.033407785 0.00011968613 -0.01838877 -0.0022922046 -0.016018115 0.026368055 -0.043603994 0.011934448 0.04256424 0.0050534382 0.015602935 0.020622972 -0.027124513 -0.028414441 0.048028532 0.04298458 -0.03183782 0.028744351 0.014278602 0.04451039 -0.046320487 0.026975308 0.034422647 0.03544079 -0.02896148 0.029712249 -0.0035773888 -0.033710793 -0.04000796 -0.03585901 -0.01746855 0.036373843 -0.003744375 0.046634424 0.038834516 0.017572764 0.04942124 -0.020163406 -0.0497075 0.027096618 -0.03995806 -0.0057929642 -0.029946983 0.021852467 0.04052298 -0.016285159 -0.0008167848 0.0050952546 -0.021880805 0.012179207 0.02003033 0.02765559 0.021880541 -0.032384776 0.049616646 0.042351875 0.049014363 -0.0053333864 -0.032259025 -0.0070415363 -0.0225479 0.021237802 0.022328172 -0.04511098 0.03076787 0.019661281 0.027462732 -0.025947047 0.0061179027 0.016040158 0.03680153 -0.031956755 0.019855294 -0.04929271 -0.010972571 -0.026278926 0.03029592 0.02594838 -0.007933032 0.0068613403 -0.0050625093 -0.048015144 0.0078080185
either -0.0060123205 0.019037452 -0.035867237 -0.017597377 0.011307776 0.022996578 -0.047219444 -0.023080086 -0.0057433955 -0.024665296 -0.022037352 0.0036100037 0.025720265 -0.035893954 0.038206544 -0.012259137 -0.012255598 -0.042156614 -0.014754128 0.018425737 -0.01944877 -0.009136297 0.012262117 -0.027221704 0.02022257 -0.011161566 0.009940542 0.015445475 -0.046333443 0.026444864 -0.016986717 0.026116978 -0.032130316 -0.029040862 0.029707301 0.04751009 0.039809767 0.035824563 -0.043233015 0.0036505237 0.037304666 0.039893005 0.000346981 0.04284359 0.01918595 0.007537078 -0.018276263 -0.031555846 -0.0013359301 0.0110171065 -0.028348232 -0.017191194 0.040181544 -0.014663447 0.01544011 -0.032484435 0.0391112 -0.0069246404 0.0013131984 0.038830947 0.015430335 -0.003299974 0.02949984 -0.008436643 0.010457657 -0.024021149 0.00887252 0.014695849 -0.013692774 0.049010765 -0.01579522 0.006498553 -0.0041610003 -0.023599232 -0.023179566 -0.001300253 0.015533213 0.004715599 -0.046527684 0.025930155 -0.0131537095 0.017267358 -0.033201657 -0.0082497 0.016784858 -0.010174252 -0.02974012 -0.01518029 0.041957166 0.045511875 -0.048340656 0.027962808 0.034788612 0.024280142 0.049382795 -0.016953517 0.045270327 0.025537979 -0.033386484 -0.0122708455
moment 0.045287136 -0.041330446 0.03681768 -0.041915618 -0.0009954087 -0.0024147853 0.018432584 -0.040418543 0.03302219 0.027375985 0.044971634 -0.00833701 0.045384917 0.027658228 -0.005114712 -0.036277354 0.03160162 0.0026254877 0.020074401 -0.03957782 -0.03486105 0.030372191 -0.018594742 0.045106795 -0.04851476 0.008078206 -0.029373718 -0.047099542 -0.015189491 0.022904325 -0.017890144 -0.037957788 -0.020210862 0.023637746 0.04905535 -0.0015673414 -0.011518408 0.034450445 -0.0070253722 0.036937807 0.01499268 -0.02207061 0.0011222959 -0.028579151 -0.028921783 -0.00033600256 0.039514456 -0.044648636 -0.008388221 -0.017014574 -0.026526392 0.0034485236 -0.027432276 0.018427406 -0.03875692 0.018166568 0.042104427 -0.009582866 0.045616712 0.03718349 -0.028871525 0.02580959 0.011797238 0.049914945 0.024398398 -0.04947231 -0.039484084 0.03586792 0.04822314 0.023778114 0.00057261065 0.014552761 0.02217989 -0.008881114 0.010019075 -0.019086028 0.011546481 -0.035321344 -0.0111862905 0.0053787455 0.020118486 0.0057204366 -0.036347557 -0.016293608 0.047250163 0.028966818 0.028141286 0.006761551 0.0029379502 -0.017177701 -0.035600208 -0.0007992871 -0.04083847 0.037288632 0.01838826 -0.043512166 0.022951256 0.01859421 0.025759887 -0.02492398
going 0.0073772445 -0.037029028 0.016195882 0.014462475 0.00018643215 -0.03895911 -0.01717434 0.04743216 -0.0018853657 0.037260797 -0.006812226 0.028109696 -0.007480871 -0.020857561 0.012041748 -0.010295987 -0.043189585 -0.042915024 0.028452802 -0.036825024 -0.037644695 -0.025727868 -0.043529857 -0.03268677 0.010968935 0.012057483 0.0343874 -0.02766769 0.03722742 -0.03675301 0.030887056 -0.024100268 0.005424548 -0.044633675 -0.047374118 0.021508824 0.047784936 0.0065167546 0.036157195 -0.04745319 -0.021472609 0.04297154 -0.036811747 0.018170718 -0.04583775 0.03455505 0.02275611 -0.036836587 0.048565116 0.011341084 -0.004009582 -0.045257904 -0.035176955 0.015784312 -0.017914392 0.019257877 0.0059578195 -0.0007778406 0.004603006 0.012684178 -0.032787517 0.016311023 0.034460533 0.013903502 -0.034593653 -0.022241939 0.045379493 0.009574734 -0.030391192 -0.035546623 0.033140626 -0.0022533648 0.017956343 -0.043322265 -0.04287237 -0.003163755 0.022113156 -0.044155072 0.0033569336 -0.0064528473 -0.005490184 0.011993289 -0.016950715 -0.038055886 0.016545903 -0.026641667 -0.010177206 0.021618161 0.023976091 0.012191258 0.03375787 -0.025486553 -0.040127885 -0.0065804943 0.0011443384 -0.04157983 -0.046670485 -0.016770028 0.023154508 0.033555064
