764 100
the 0.34846133 -4.450096 1.2683424 -4.538155 3.8026617 3.1449056 -2.01751 4.494061 6.2469077 -5.4890056 -2.8537326 6.9199033 2.215156 2.759816 0.9173818 -10.340036 0.55282044 2.39467 2.704626 -0.90612805 5.8505917 3.8386776 0.8275925 -4.5740848 -4.8871083 -1.9233844 -3.0500522 -3.2711353 -0.5024912 -3.818808 -1.7445292 2.185295 -0.5256897 -3.4098608 8.529138 -4.9825697 -2.21116 5.951458 8.725667 -5.1024337 6.8120837 -3.76487 4.684105 5.597634 -3.0858412 1.8588781 -1.4151856 -2.9039056 0.33408892 0.23047854 4.7149982 1.6214486 -4.526885 2.4844654 -1.0877193 -7.6359863 3.023508 -0.84308004 1.2401949 -4.1202145 5.645299 -2.255111 -2.861243 8.39369 -4.590089 -0.08410088 4.5672507 -0.6800698 0.8755684 2.8294084 0.82035506 2.0739033 -1.5503213 -1.2355442 2.3814313 -0.7349645 6.2234826 1.910567 -2.1001198 -7.5564976 -1.3886889 2.1203375 3.297166 1.3870993 1.0141789 4.332587 2.0663073 2.3953235 -0.07367466 0.567233 4.1628666 -3.0880373 0.20536707 4.3688374 -6.4664063 -1.4539258 9.082673 -0.9988913 -2.6114397 -1.2978768
she 2.2285225 -1.8703394 1.1438617 3.675321 2.5931163 1.7535866 -0.22924857 -0.8720348 4.9319863 -1.2396259 2.722263 2.573497 3.319416 3.3118436 0.89468074 -0.67690766 -2.5224295 0.4219548 1.4865632 1.9056758 -3.2622707 0.8927694 -1.5961784 -1.1355476 -1.4297649 3.1159465 -2.3744552 -1.3490114 -0.47035384 -1.6857607 1.834044 -3.3200536 3.267778 -2.5565155 -1.3899608 -0.51679224 -0.1370378 -0.042285576 2.6573527 6.321152 3.3257282 1.0045539 -4.024734 3.9728444 -1.7190837 0.20380536 -0.73696303 -0.14134423 -1.3029841 1.5524664 -1.4626803 -0.8307212 -0.09998148 -0.59018904 -2.4479854 0.036039907 1.2765166 -2.8069623 1.5374101 2.283899 -3.9926496 2.7216246 -2.7060657 1.7225546 2.5245235 -3.3508554 1.8953577 -0.7193275 3.2886515 -0.44260654 -1.739467 2.2149556 0.98660445 4.640506 -0.5535444 -0.09425167 -5.6229734 -0.35421607 1.5756978 -3.3640482 -0.32957688 -3.2262998 -3.4394052 -4.0507174 -3.5348017 2.0321481 -1.9358644 1.8577642 1.5451987 -1.5515077 -1.869767 -4.448509 0.47448376 -4.504343 0.33941752 3.3796856 2.7379558 2.7888467 -1.7409939 -3.9967897
to 1.5195421 0.86581683 2.108124 -2.96851 -0.6197019 -1.5960768 -1.263954 -3.6846108 -2.84179 -1.1966114 2.700536 6.402313 -2.801406 2.087393 -2.455894 0.5724043 -4.374101 0.34832227 -1.6568284 -2.1240084 -3.8746784 1.6332026 6.7377295 -1.564202 -0.36699718 -2.7483268 0.50042534 -2.00665 0.8904647 2.6883392 -2.8502698 1.910562 2.3525186 1.1602862 -1.023142 1.5500448 -0.50693095 -0.122118056 -3.4434626 -1.1094849 -3.786249 2.5276911 -1.161325 2.2686992 -2.4080374 5.6509585 0.059901267 -5.299053 -0.16562441 1.0556537 1.9219921 0.92727077 3.2291825 1.2788593 1.7383703 -3.1042101 0.27241567 -1.4069071 2.941551 -4.666536 -6.856901 -1.1584888 -2.306213 -5.593017 1.2292383 0.25530356 -1.3736966 3.6036863 2.1637866 -1.6462878 0.5476936 -1.9400227 3.0089111 -1.3638992 -3.027139 -1.4709269 1.2207248 -1.2385579 1.9243841 3.2180102 -2.9697094 -1.1758933 2.8853598 1.0668464 -0.062270004 -2.1452737 1.9369198 -0.59412324 5.6894984 2.770831 -1.5913945 4.0293484 3.8702142 -1.4257857 2.3508685 -5.526181 -0.49234068 -2.4923913 2.2017865 -4.742227
and 2.764352 3.3243136 -5.000995 0.6019363 4.017158 0.03850167 -1.2980993 0.19304663 -1.7581251 -2.4350078 -2.109607 -0.32778814 2.129769 -4.0079074 -2.0987554 0.25777626 2.166462 -1.8778008 -1.7578404 5.690836 -6.110696 3.1304774 2.4575458 1.8739187 0.16101696 1.2431425 0.5038989 -2.9317586 -5.1686563 -2.352754 -3.5007176 -0.69777524 0.71915406 4.4465837 -3.314078 -0.6369316 -2.052616 -0.22219151 2.122369 -1.9366205 3.7305725 -0.77169573 2.3856804 0.2181898 3.187878 -0.47960836 -5.087726 2.1975784 -0.59727174 -0.37475258 -2.5271802 3.2810352 -0.7470523 -4.015297 -3.3223276 -3.0517654 2.0389428 -3.8065321 -3.871013 -3.620509 -1.1906244 0.16975471 0.7153905 -3.948811 6.9878764 2.46456 2.8436708 1.7640948 -2.8265877 4.1161947 -1.9844246 2.5706742 -2.3973472 1.4892136 1.35719 -3.8181667 -7.6662383 -0.9560141 0.6822736 -2.0055513 6.557244 -0.22384632 0.46421805 1.9903619 0.9204571 -3.060171 0.72992617 -0.75821155 0.44233227 0.7003664 4.7017817 -0.81501454 -1.6357037 3.4670098 -0.7453644 1.2865816 -0.7544018 -1.5381142 -1.408523 -3.1921492
it -1.806467 1.4505903 -1.5912727 -0.009510777 -2.6556566 -3.2657316 4.019456 -0.5802842 1.158327 0.62495846 2.9757414 1.9536688 -3.5679564 0.4117191 1.5460917 -1.522087 0.31832847 -2.9592307 6.5997977 -4.9906025 0.84370774 0.21138155 -0.9434487 1.1047324 -2.0949259 2.9332566 -4.8473883 0.8386731 -0.6951392 -4.6351914 -1.33621 2.6036437 -4.2611933 -3.7603643 2.8823745 -4.732656 -0.27812827 -0.7893658 0.54040444 -3.7594082 3.221979 -0.108369514 -1.1388432 3.3552034 -4.397093 -0.6228096 0.7023089 2.1853268 0.118975714 2.1278849 -3.567414 0.7558453 3.527237 -1.3243046 2.1218464 0.32164586 -4.8153286 1.518388 -3.3440917 0.28296903 -1.0764923 1.8840231 -3.2289143 1.0617914 1.4328208 -0.99704295 -0.2307342 -0.17306437 -1.8378972 -2.4139843 0.65339655 1.3585572 3.209803 1.7163615 3.2877574 2.0844107 -3.6753685 2.3987002 0.52869004 1.6507236 -1.6223989 2.7468944 4.29559 -2.189236 -2.005233 0.56400114 2.146664 2.2401419 0.35703325 2.7089276 -0.8371046 -1.3117294 -1.168725 -4.0461864 -0.19566584 1.3021681 4.26065 1.2687458 0.2847071 -2.6188803
was 7.70524 -6.0258517 -0.71402615 2.702598 1.3465015 6.3740525 -0.093647726 4.969321 3.1801302 11.005605 4.014615 -1.9233705 -0.6475928 0.95446736 -1.343921 -4.7760243 -0.24685565 -5.886172 -2.0378132 4.6919885 2.4545932 0.66379845 7.402789 5.100477 1.4316609 1.1481695 -1.3468761 -6.3642654 -0.3447727 18.513058 -0.6027862 4.8020625 -3.1216621 2.468134 -2.7408593 -5.2706532 -0.63766086 22.865099 -1.3745854 -0.50443995 -3.1748064 1.4880826 9.1277685 -6.686497 5.128916 -7.461801 -6.0181947 -5.7902718 -1.0676731 0.67961586 1.8447049 -2.312816 8.23545 -5.7255983 2.7361789 -1.1288799 0.46355033 -2.7076995 1.0908695 -2.269668 4.0334325 -1.8684951 0.08857337 -3.3089242 -0.04977928 -0.059103068 3.3188734 -0.39805126 2.0650065 -1.2402697 0.60770667 -3.7871585 0.98560643 3.5430176 -1.8900833 1.5956825 0.36134952 -0.97063005 -0.9214177 -7.773482 -1.0659165 -0.1498267 0.94887656 -0.7427704 1.7152942 -16.82955 2.3308115 5.133833 -3.38021 -7.086997 -2.1780705 2.719683 -3.791151 0.060673498 5.6566596 -2.4063215 5.291132 4.3594317 1.0839524 4.0652065
a 6.357942 1.7327298 1.5845327 5.9783216 -0.84755164 -3.9304698 2.0551958 -3.6048641 0.55670154 -30.006653 -3.011287 -1.7009084 -2.0836194 2.388148 -3.4219618 0.2586726 0.84723693 7.646998 2.5932674 -1.1497461 4.14385 -1.8901442 5.734739 3.9628918 3.929794 -1.3252685 -2.7960422 -1.9871585 -3.494163 27.362568 0.6433708 -0.17479485 -3.162066 0.3394297 -0.5666446 -0.75428253 -2.4371405 8.068182 0.20127702 0.8902468 -0.7474447 -0.9351182 1.2854394 -2.5499647 -2.3776238 -2.712131 -0.66739887 -2.9322896 -5.436762 6.725084 0.5312721 -1.0058712 -4.215041 -0.1421354 3.632629 1.1430051 1.174766 -7.1495814 -1.5678816 -2.546805 -4.0717316 -1.6959312 3.6134615 5.30513 -0.95486444 -2.5540771 1.0776495 0.51862645 -2.4499557 -2.0877342 2.8972735 -2.7652888 1.3923627 2.1333299 -0.6303736 -3.0548804 2.4435246 3.45844 1.4513379 5.412607 0.13858247 -1.3104603 0.7902614 0.5772293 -0.6269151 -1.0646329 -2.2970104 -1.6702263 -2.1057713 -3.4555273 -3.4098754 4.4614506 -5.1322923 -6.58656 13.11596 4.9290457 -0.09433235 -4.4237857 -0.41646373 3.791531
of 2.1188436 -1.8100941 0.17969006 -0.6794751 -2.4923491 1.329877 0.89371693 8.767341 10.931742 -3.3200512 -5.4614744 -3.3603144 2.17371 6.7215858 4.9087543 -6.3865123 -8.102579 4.322882 -3.6570141 -0.96589065 3.8033555 1.1102122 0.058506034 -4.0630183 6.0799346 5.212252 -3.9051418 -5.4251857 -1.8698419 2.8184884 -4.711421 5.848839 -1.6757146 -5.5853367 10.161691 -5.03007 3.829917 4.1061435 3.5532134 0.5968357 0.05527934 -4.085525 1.5925839 2.1392627 -3.6121514 -5.9958057 2.1026495 -6.252586 1.8842407 2.0151715 0.60038793 3.8439312 -4.319088 -3.7381415 1.2229198 -0.87185806 6.6724105 -1.4421165 2.710263 -0.42168766 -0.3256629 4.4402413 0.15487704 12.6654415 -2.245687 -3.8655393 1.933101 -4.6699843 7.7365828 -0.64910257 -0.5695842 -1.4616171 4.162392 4.064905 5.4046865 1.8617342 0.1588813 4.0591173 -1.3589414 -7.3237257 -2.6131027 1.0379996 -0.73468584 5.109204 -1.8926296 1.4156191 5.6031227 11.999459 1.2100419 -10.007804 6.977988 2.8422732 6.042625 15.19293 -0.9172932 -2.207666 3.850536 -1.4950726 2.2625444 4.6396594
’ -2.259429 1.4876558 -3.942675 1.2887183 1.4129434 1.7709874 -2.9853656 4.3306465 1.0133386 3.9162993 -4.387576 -3.3782072 1.392711 -0.2109051 -0.6369534 -1.9868604 0.5669234 -1.4432137 2.151404 -1.801262 -0.28676078 0.6330571 1.7882833 -1.783947 1.6171968 0.5743551 -2.394617 -1.6413444 1.512176 0.29159644 0.37884328 -3.8386288 1.2556145 0.4803157 -1.8769814 2.0562055 2.5679176 3.8205464 0.55308205 4.1265965 -0.78387475 -1.3650326 2.5294194 -3.108624 0.14434834 4.5741916 0.04433748 -0.6686667 3.2604625 0.13670404 0.76682055 -1.2874936 0.43920562 -0.09213768 -3.9768794 1.4696226 1.0817624 -0.07011634 2.8376746 -1.7512884 0.7160012 1.1649039 0.6219009 1.0316911 0.74646646 -0.39834532 -2.5219197 2.8682053 1.745256 2.6108522 -3.0285642 2.638695 0.8819107 -1.4610901 -1.1110653 -1.8434466 0.626895 -1.3501972 -3.138568 -2.243614 1.0710644 2.2582471 2.2969742 -2.4992993 -1.2712227 -3.6724787 -2.2717888 -0.034377534 2.4197254 0.576686 -0.5043233 1.2027022 3.8261063 -0.06782341 0.8001129 0.03497791 3.160549 3.017198 1.72815 2.8441348
in 4.193801 -3.869598 2.0380077 2.0195441 -6.1557884 -1.7637755 -1.3200054 1.1401958 -0.45209572 -23.487686 3.0047343 -1.8491567 -0.43633288 -0.43206483 -1.9784168 3.7935908 -4.9208064 0.72835475 1.4702954 2.4820743 1.1719184 -0.63326204 5.46294 3.7667718 -0.94326276 -1.9973596 -3.7299402 -3.0026262 -3.6016827 26.215456 -0.69462204 -4.1210575 2.1652143 -2.073824 -3.8222516 -2.5655246 4.9725285 8.481229 -2.1954355 0.14682458 0.058979604 1.7203406 2.9906807 -0.09337789 -0.99618584 -2.2360952 -1.4394666 0.6160097 -9.698352 1.2306432 1.2890447 -5.6212926 -2.152621 -0.5842654 -4.4300823 -0.3733212 2.740148 -2.0745006 1.9245957 0.09004539 -4.4207716 -2.4656317 -1.1938903 3.410251 -1.3205858 1.0621104 -4.427349 -1.8618044 0.4656233 1.9303603 -0.35193345 0.85648185 2.5126548 0.50857866 -2.3451698 0.8318979 0.95012105 -0.81645095 -1.8478634 0.7490687 -0.32772923 1.9888363 -0.6155802 3.8799732 1.5018969 3.9129 1.4712411 6.3481417 -0.27151018 -1.8622879 -2.690745 1.232257 2.5257072 0.5242825 7.661111 0.25382823 3.1167116 0.14485162 -3.295246 1.9554887
alice 1.9807657 2.087054 -3.0879188 1.1232597 -0.18526205 0.92973095 5.1767244 -2.0651007 -0.41875726 1.4670696 -2.0542955 -0.8558453 3.7149193 0.67300886 1.8736445 0.88471264 3.2262797 -4.1073895 -0.66689205 -0.7733486 -2.3040814 1.4477032 2.3656726 -0.1788438 -4.7536645 2.634817 0.49410948 -1.4612229 0.902173 -0.19689256 -0.31466538 -3.4449527 3.1324406 -2.2547085 2.9234827 0.65279937 -2.9948125 -0.005954924 0.26000932 0.56349516 -1.1224023 -0.22193849 0.95986307 3.6242037 1.7824228 1.341104 1.7931179 1.9468478 -3.9582002 -0.71292365 -1.9470513 -1.5939305 1.5333182 0.4741119 -2.0418267 -1.4713744 1.7551732 -2.1770344 -1.1173475 2.7990963 -2.834135 -0.51472783 -1.0499274 1.7164855 1.0858165 -1.4287271 1.1245158 1.2573761 0.3946252 0.10234888 -3.4303088 1.0402997 -2.8994086 1.360069 1.7038618 -0.7760143 1.8655714 4.5681267 1.5499107 -2.7043216 0.7611619 0.2195139 -1.0973184 3.208229 -1.50577 1.6197063 -1.8406773 3.1201358 2.4891288 2.375164 -2.3880472 -0.4349915 0.4205995 -4.5854063 1.7634516 0.31369856 1.3752692 0.53129417 0.6180349 1.8438522
her -0.26715395 -1.136643 0.2897194 -2.5755262 -1.1944141 -0.226928 0.30933085 0.6410098 -2.9143214 -0.5382056 -1.0989249 1.2246963 0.13047051 4.307929 -5.2774363 -3.017385 -3.2492306 0.98011374 4.3503437 -0.8597897 -2.1400495 -0.5979966 3.7503538 -0.9945952 -3.6687527 4.354288 1.2653507 3.1193306 -1.4902662 2.590755 4.649995 4.929632 1.2229779 -4.5224657 -2.2073946 -4.020335 0.5303484 -2.778008 -1.9277396 1.5788956 -0.41988924 -1.6136245 1.8526993 -1.2797527 2.8786201 -1.822349 -1.242219 -0.5832372 -0.4437582 2.0597558 1.0797651 2.3543737 1.6429721 -1.0755395 -2.1332529 -2.1500466 -1.6222124 -2.4227424 -0.028045276 5.28294 3.5952106 0.70537084 2.6289103 -1.8460344 1.0956895 1.4294839 0.48028708 -3.0715666 1.826745 2.9343565 2.5073037 1.566222 -4.44684 -0.633047 3.6882062 0.70715755 -0.12109975 0.39484224 -0.07350348 -3.8699288 2.1104598 0.7903591 -1.8583858 -2.46277 2.2014585 2.6605842 1.7253907 4.5752163 -2.3671372 -1.1431898 0.8063777 -0.6129276 3.7124753 -1.2193905 1.2952297 -1.9723994 -2.2472427 0.3059294 0.007549673 0.7538604
i -1.7257057 -2.1273222 -0.7660306 2.2176697 2.9500322 -0.40235576 -2.4458823 2.6359458 0.18073758 -1.1475798 0.22772983 -2.318985 -2.9298172 -4.165948 -3.2969353 2.8781538 -4.629017 -0.48595056 1.877308 -2.0396645 2.890706 1.2580775 4.5958233 -0.008597515 1.6358287 -2.4160604 -2.3754978 -3.7871943 -0.8284039 -0.8089006 1.907604 2.754015 -3.960835 -1.4865181 -0.6379205 -3.4780395 2.7110393 2.3620603 3.0722444 2.1039245 -2.8606653 -1.048295 -1.6555927 -0.587934 2.280033 3.0391355 -2.140064 -0.88394123 -2.5024936 -3.302934 0.9248999 -1.8197807 2.6883981 -0.21160442 -0.8371804 -1.616352 4.033667 -1.7752093 -3.1094007 -2.9565349 -3.2555497 -0.2615435 -0.17245974 1.0847417 -1.3002161 -5.156986 -2.9544446 -1.2876058 -2.50269 -1.9057504 3.2829592 0.5571847 0.6521161 0.5132507 2.007985 0.59904516 0.22631896 -3.4218404 3.1877756 2.4751573 -1.2427726 1.6026334 0.68596476 -1.9974576 -1.1251571 2.0103292 0.47879037 -0.74001473 0.004014103 2.313871 -3.3435056 0.22241361 -2.4345112 1.6631614 -0.6434906 -3.5913856 -1.4051312 1.0441586 -1.0710268 -0.62970847
that -1.6356379 0.04724294 0.6506291 -2.5099664 0.19423835 -3.646302 2.4532745 3.3729346 -1.853366 -0.2898523 -2.0517545 1.0013788 2.8132238 -1.2576898 1.979904 -0.54274845 -0.6181198 1.2172024 1.8741931 -2.2688372 3.5747783 1.525601 0.47376937 0.9391737 -2.9702466 -0.6907672 1.6484613 -1.5272453 2.5339704 0.61961406 2.6616275 1.0363506 0.13391982 2.7948332 1.6855395 1.1971296 -0.92557913 3.8709385 -2.189873 4.031909 2.474928 1.2267991 -3.8604336 1.068931 -1.0985992 -3.46968 -2.5984068 1.1853207 -0.5139573 -0.82354826 -0.4819862 2.546495 0.8149935 0.464137 -1.585482 0.2976617 1.6603748 -1.8871808 0.48583642 -1.9174559 -2.5171132 -3.0612097 -1.2929876 0.6005854 -0.32028893 -2.843962 -0.8163913 2.7882652 0.72021574 -0.3117819 -1.0677116 -1.0379846 1.7745337 1.071142 0.019984784 -3.9656367 -1.2990637 0.48950762 -1.7200941 -1.3395212 -0.055086985 0.88822544 0.684057 0.5699996 0.8715021 0.76899546 -0.7233745 -0.26869443 4.4402966 1.271366 -0.95663977 0.9481727 -1.8157866 -3.3907351 0.9538965 -0.4559093 3.4904313 -0.21731713 1.9091678 2.3324313
down 2.7864702 -0.47836417 -0.95407784 -2.7694068 -1.4625182 -0.5855933 2.2599316 -0.5017973 3.342919 -0.4033086 0.4531762 0.15249719 -2.2047217 -0.32001385 3.6971896 -4.794972 -0.8651146 1.0572594 -1.1748937 -0.62194866 0.6191964 3.4286618 -0.48653615 -1.1716319 0.76064414 -0.2174631 -0.72451514 -1.6409117 -1.4487506 2.4451165 -0.90768594 0.6589048 1.4162124 -4.979791 -2.373508 -4.208704 -3.1407754 1.245924 0.105744846 0.7961797 3.4298978 -0.34062567 -1.5115823 -3.2455816 0.53176934 1.5768012 -2.9269283 -1.9185663 -1.0927263 -2.1162374 0.43635157 0.25520247 -3.5612996 -0.03369217 0.21788321 0.70692235 0.55452234 -0.44541025 -0.54069346 0.23553795 -1.695906 2.326145 3.619992 0.1915677 -1.6227545 -4.407344 3.0138793 1.7827525 0.22706577 1.9436076 -2.291799 3.8174736 -1.8056384 1.8905401 2.9265902 -1.1725492 -1.945973 0.84359866 -2.4604974 -0.42496186 -3.599854 1.8453606 -1.8617669 0.5476825 0.28707153 -0.9566787 3.565653 -1.0263435 2.0715978 2.3043234 -0.030110618 -0.088205636 2.7922888 4.2120934 -0.8278924 1.7218512 -1.4662287 0.72777236 -1.418512 -1.9053696
you 0.28812596 1.3700823 0.96228844 0.20420392 -1.5563352 2.6151972 2.9137251 -2.2062309 0.9435943 -1.7644578 -1.967339 0.4644829 -3.1551006 2.5984504 -0.223898 -1.8112535 2.908566 0.005814877 -2.6188529 -3.1504104 1.4740546 0.1906378 -0.3816137 -1.5583061 -4.746379 2.413133 -0.95342326 -2.9827738 -0.07736991 -4.381003 3.5574157 2.4930768 -4.5952797 -0.025329636 -1.5151029 -1.9540854 1.9136939 0.727841 -3.3703685 1.05649 -0.20536298 -1.1752442 -0.3136527 1.3660576 -1.5372195 2.0115058 0.7738389 3.3486605 -2.2775764 -2.3403544 0.7667968 -1.5266476 2.1397052 -0.28469712 -1.441322 1.0868852 -0.84404814 -4.620432 0.7410077 -2.4533212 -0.22948666 -1.8375582 -0.062924154 -1.1604974 -1.2044444 -2.4973333 0.051255666 0.7365385 -1.2868216 -2.3449347 3.0371125 1.069333 2.3795586 -1.9781476 -1.5839278 0.6115088 -4.0755353 1.8161489 1.8224077 -1.7529265 1.2464477 3.5643625 2.4465368 -0.4830634 -2.6268337 0.585951 -0.34611872 -0.85792154 3.8078256 -1.3497354 -1.4784224 0.8779942 0.91274303 0.15821137 0.52860487 -1.8950365 3.3284554 1.8658714 -0.112451695 -1.6325946
for -2.693111 2.6117113 -1.5673915 -1.9291178 -0.112920776 -2.4596324 2.874308 3.5549335 -2.5853987 -1.8550549 -0.39684305 -0.54041064 -0.20603137 -0.75170404 -0.014080129 1.2672744 0.087561436 2.4591188 0.86738396 -2.6434302 1.9642538 -2.6495883 0.42607984 3.4640782 -1.3163066 1.4709624 0.103085585 -1.1273712 -0.35380742 2.171006 1.8495111 -1.0934896 0.9078496 -0.1779458 -2.1923993 1.6494049 2.6535535 -0.58466184 -3.1511443 1.7928287 -3.6295993 -0.47575766 0.32687232 1.4952868 -0.5625364 2.208313 -2.0367706 -0.86339957 2.0711033 0.12150017 -3.5701478 -4.6815367 -3.3921742 -1.5984465 2.7770264 -2.2563505 0.9516239 1.5738418 -1.4288812 -0.2193902 -2.0317128 1.1203445 0.6889285 0.9373583 -0.12632203 1.2109698 -2.8965387 2.9801133 -0.10709283 -3.1872466 -2.2575052 2.5020008 -0.42024687 -0.20569101 -0.18092711 -0.27833724 -0.6597639 -2.3488264 2.0106938 0.03034621 -0.22894007 3.9875643 3.0394824 1.825957 4.101506 -3.2585423 -0.5271676 -1.6297808 -0.18061022 1.5339302 2.8060083 2.8818476 -1.3557956 -0.057414375 -1.0202622 0.16495813 0.13042505 0.8266934 0.75978935 0.63664347
but -2.2860246 2.2455559 -1.7316116 1.270345 1.020273 -1.4603815 1.3422877 2.0657387 -1.0462117 2.9760034 1.0558621 -0.6468107 3.490948 0.8371095 -0.71356195 -3.0253856 -0.22016527 5.7706 -2.862395 2.654156 1.170121 -2.6498604 0.9365229 1.9260601 -1.5345012 -0.33484465 0.8953516 -0.59768885 -1.1833025 -1.7455405 -1.1078115 -4.098817 -1.7874845 0.45942444 0.7029147 1.9205291 0.27894095 -2.3165283 -1.4134173 -0.19739912 3.315209 -2.1719258 -0.18163198 2.9400547 1.0328735 0.2946777 -2.1068707 0.06768997 -0.8183747 0.3826434 0.19389448 -1.04395 -1.2885479 0.48689628 -0.02633721 -0.7912669 0.18579887 1.4087684 1.3835919 -0.14655602 -1.902984 0.21721262 -1.0296079 0.10552512 -3.2158551 0.9001651 -2.0583324 -2.5070815 -0.14258735 -0.061821636 -4.6105375 2.5605547 0.7576594 3.407425 0.23272766 -2.0681973 -3.2167206 4.993752 0.8381216 -0.840986 -0.37710282 2.557267 1.4890748 1.3366362 -0.8263832 2.7674882 -1.2652762 -4.0003166 -0.72459245 1.561548 -1.117681 2.451891 -2.1310039 -1.5687968 -2.0063531 0.6776021 1.9197979 -4.0771627 -3.2271476 -0.8364799
very 2.3266592 -0.24074744 2.7651546 1.9833809 -1.3418146 -0.95174426 -0.8942661 -1.9965434 -1.0261865 -0.81847036 -4.37489 -0.5799726 2.7149427 1.4706045 -0.49545476 3.369869 0.070505515 1.2994046 4.688219 -2.6120515 3.2048268 -0.8009445 2.3218322 0.11864374 -5.552684 -0.52801555 -3.6866765 0.65052366 1.5396813 -2.123157 2.4599836 -3.0295131 2.7006047 0.33724603 0.27001563 1.521143 1.1536276 2.4872851 3.3091128 -2.2043996 2.5626676 2.0809531 -0.48297724 -0.97214544 1.0342572 -1.7517755 0.061776266 -0.7988253 0.1255366 -2.923114 -3.5441055 0.24381094 0.5075836 -1.2330332 2.623453 0.21231401 -3.6990228 -0.260122 1.0535359 0.69680953 -0.575729 -0.50752 -1.3766363 -1.0106268 -3.1595626 -0.2750242 -2.2703753 -3.69293 -2.0360518 1.801183 -0.6445879 -0.19935209 2.151841 2.9236507 -2.9571137 1.2307113 -0.31840116 0.33008248 -2.2309985 2.44269 3.5455177 -2.9952793 -3.5886745 1.1495374 0.18499212 -2.8439372 3.2438593 -2.8546317 2.5076022 -0.6469326 1.2839613 1.0503485 3.0126593 1.8152927 1.1727984 4.089136 -0.035868455 -1.8341764 -0.16041434 0.020613221
on -0.5719608 0.6574999 -0.51008755 -1.524911 -1.1682146 -0.2776534 -2.32196 -0.4361667 3.0723436 0.54748243 2.473384 -0.9214202 4.2232075 -0.051853463 -2.7725616 -1.6145715 0.122831784 0.14015447 -1.1309592 1.3415556 3.0027628 0.60630226 0.9716505 0.5964122 -3.079017 -1.4115293 -0.05290409 -1.0978681 -0.5800981 -1.7762588 -1.541948 -2.6304104 3.2780294 -0.512702 -1.4252443 -0.8192648 0.9377159 -1.0662942 2.4551036 -0.45538867 -1.86301 -1.0675075 0.6336914 1.9546638 2.2018492 -2.3240008 1.6809303 -3.120479 0.32798153 -2.7955852 1.6603262 4.115853 0.98096246 0.10043404 -0.15110992 0.26818728 2.0825377 -2.5227046 4.3458066 1.0777055 -1.8493274 1.4849463 1.332147 0.123341225 2.7398174 0.45776856 0.1508201 1.695543 -1.6249044 3.5804553 -0.8373583 -3.7031114 1.7480005 0.050251845 3.4192855 2.0602775 -0.7896004 2.337533 -3.4016988 -0.10536867 -1.182952 1.3384085 -1.4614073 -0.26601267 1.1290934 1.8743596 1.9993513 -2.8211353 0.69538146 -2.9571433 3.2506998 2.8207076 0.4094707 -1.1537197 -0.14560607 -0.42101538 -0.624202 2.0416498 0.8995087 1.5074359
had 2.8820648 -3.6149514 1.1806635 0.007626485 -3.6482277 -2.2104611 -1.7057909 1.280933 1.9205283 -1.2859712 0.15595178 0.9640092 -2.93704 1.0222049 1.5804614 -6.2285075 2.5561879 -2.1956704 3.7113593 1.0856191 -4.0020356 -2.653251 0.84449875 0.21742196 -1.0740242 -0.82658714 -0.64675623 2.2288966 -2.1589923 3.1093361 2.7289104 -0.16584457 0.9951128 3.6274698 0.65554434 1.2092912 -0.39970583 0.4870833 0.38944772 -1.8102341 -5.0466647 2.0805511 0.101513125 1.8869183 -3.4400735 -2.7120063 2.7595046 -1.5210966 2.6023967 -2.8390822 1.8893998 -1.7523615 0.030716924 0.88082206 -1.8449415 -0.46613634 1.7781124 -0.5208275 -2.0116973 -0.21054736 -0.6176423 3.0831876 -3.620116 0.14153917 1.3342259 -3.248302 -0.91236365 1.992607 1.9327197 -2.0243802 1.6174784 1.6104938 0.5589293 -1.9406791 -5.1945295 -1.6133666 2.4372044 -0.43129113 1.7298514 -0.9820043 -0.89830166 -1.4531058 3.2784934 -0.644409 -1.2370504 -1.0060008 -0.25445777 -0.852968 -1.0720584 -3.4104314 1.5526628 -0.31013808 0.7218124 0.08924798 -0.73874676 0.13330883 -0.8552153 -0.3480112 0.17062095 -1.1021239
this -0.09254752 1.2928897 1.266411 0.57537353 4.4256544 -2.3668158 -1.3127141 -0.72996795 -0.8849599 2.7813318 -1.1084665 -0.7928398 -0.38229302 0.22515349 1.7789154 -0.5809743 1.522508 1.5422016 3.2711375 0.54674417 2.3369722 2.5838332 -1.0376348 -2.216502 2.7283735 2.5436249 -1.6890981 0.45773086 -1.2608175 -2.7921288 4.8298054 -0.60942286 -0.6563054 -0.3233514 -0.64202744 1.1672635 1.5864153 -0.097936474 -1.9377998 -2.608917 -0.32160142 3.9707146 2.3206203 1.8074213 1.7380549 -0.014036799 0.70123607 -1.3477404 -2.673309 -2.370263 0.41671312 -0.06374971 -0.061636116 4.23257 -0.062557645 -0.27684876 0.57692826 -0.30246684 0.5269373 -0.04973539 0.7502223 2.022239 -0.23143281 -1.5532625 0.51961327 2.402552 2.8618844 -1.7758693 -0.8045672 -1.2353128 2.4763253 0.6455685 2.5593543 -0.79543656 -2.8678482 -3.5222626 -0.6043634 0.22779885 -2.169546 0.41484421 -0.9500241 0.55637455 -0.28283298 -3.5046751 0.83460975 -0.77003556 -1.0624951 -2.4835248 -2.8034248 2.9611175 -0.092076436 1.1109408 3.5623171 0.0567591 0.7033271 -1.0004379 1.0830014 2.2217395 2.541942 -0.27972075
as -2.1101792 -1.4611479 -0.68433946 -3.925336 3.3645394 2.7418253 2.71446 -0.9585509 0.69462043 -2.3863018 2.696466 0.41337442 1.0092046 1.3464882 -2.0410986 1.8323128 0.9971724 -1.6655201 2.8000484 0.27197158 -2.5694215 1.5776348 1.4323868 -3.9099061 2.8673062 -2.0002165 -3.084939 -0.2002443 0.83703816 -0.013475724 0.10573947 -0.773345 0.55471706 3.1045156 -2.3050022 -0.4150895 2.787437 0.46263483 -1.4804039 2.0319018 1.3397299 -0.14798856 -0.71437657 -1.608922 0.9619263 -0.3893164 -1.3284144 -2.4060822 -2.9287922 -2.468326 2.30555 0.6858685 1.7863679 -0.867239 1.2105625 -3.2746613 -3.3865912 -0.29007652 0.6930103 -0.864064 -1.5255947 -0.4936032 -0.06306235 -0.20465747 2.0527148 -0.41179135 -0.4812672 -1.2898889 0.0369326 1.4687061 -3.627766 0.48478553 -1.7416948 -1.7463177 0.73560405 1.8106909 -3.0129585 -0.04262984 -1.999286 -1.2746397 0.39827996 0.97564846 -2.4110403 0.6634577 -0.60344857 -2.7187128 -1.8189108 -4.569225 1.3407191 -0.16611697 -1.1874459 1.9268929 0.022547986 -2.6233633 -2.2771015 -2.5827723 -2.829136 -0.22248629 0.15439202 -1.6293153
be 0.06072304 1.7268518 1.8106879 0.8196963 -0.7683835 -0.8113274 -0.1351111 1.6047674 -0.6975358 -6.7143784 0.94983697 -0.28409797 -0.16212016 -1.9233751 0.42918232 0.81995153 2.8138835 -1.6299144 0.255183 -1.5489473 0.35980698 -2.1593516 4.254308 2.53968 0.17061141 -0.67380697 -0.5385651 -0.16389187 0.29495618 -0.88545567 -0.95938855 2.8815498 1.8870412 -1.6461692 -1.8240166 -3.855369 0.18186961 -0.013557021 -2.1329222 0.944309 1.4071072 -0.6628582 2.5629618 -1.9605727 -0.2721436 0.8441751 3.5378678 -1.5201522 0.58422273 1.7022426 1.0854506 -1.5365641 1.2425606 4.3405447 2.4755518 -1.1300535 1.1879803 3.2414637 0.43085006 0.30277625 -1.3531203 2.7549686 1.4664007 -0.32591593 -0.78354585 -0.61026716 -2.1644275 1.9993178 -0.6846113 -0.94033337 -1.617589 1.6191822 -4.29531 0.78647316 1.8799192 -4.058335 -2.7468076 2.255848 2.2839162 0.9559869 2.3706071 4.2777357 1.6674114 -0.35457963 -2.5481408 2.9038184 -4.3794947 1.7691958 1.3880593 1.863743 -1.080002 -1.5724276 -0.047409944 -0.73639673 -0.47188216 -0.6551761 -2.3408666 -2.8076956 3.4426806 0.4174076
so 0.44332072 2.6550055 -1.1030704 -0.24933912 -0.74889743 2.0332708 0.5498755 1.6436011 -1.3491485 0.052928362 0.7564512 0.67139447 1.183176 2.5955095 -1.1499219 -0.6468477 -0.40167844 -0.95543796 1.9105073 -4.0398607 0.8698937 0.22726184 -1.3541062 -2.2441313 -0.31547922 -0.40211385 2.8069518 -1.4745079 1.7722425 -0.7726606 2.7402136 1.9535488 0.21049494 -2.9443314 -1.5054768 2.101018 0.5622487 1.2029591 -0.63059914 0.6962446 -3.34404 1.0560163 -2.575231 -2.036578 0.8520961 0.4599405 -2.809845 -3.0030727 -0.68064034 0.7459282 1.1327525 1.9407886 -0.6466461 3.206106 -1.9917192 2.610412 -0.6239291 -2.9972868 -1.2336795 1.1979579 -2.732219 -2.457807 -0.060192976 -0.37486693 1.5330808 -1.7326467 -0.4487641 0.5523068 -1.7402359 0.3244136 -2.3279455 -1.2966161 2.9969504 1.8295492 -1.862778 -2.3944342 -1.0541378 -1.5213909 -2.9988585 -1.194262 -3.1346743 -1.1419249 1.8346009 1.869183 2.4813519 -0.9694031 -2.5850372 -0.42902577 1.9069415 -0.726643 0.51225954 4.0607 0.25044844 -2.1588905 0.8422255 0.26702112 1.8564099 -0.6094968 0.13067351 -0.44767398
little -3.7193022 -2.3152878 -0.22751625 -2.3070593 4.5421066 -1.1248221 -1.2751801 1.1568134 0.8451355 2.0617568 -1.0908098 -1.7115973 2.717932 -4.0085588 0.21073754 0.66851413 -1.2764324 -3.8533862 0.36737254 1.6829494 0.89874905 1.9648163 -0.7490905 -2.6538675 0.6895872 -0.1856926 2.28485 -0.27806297 0.47803536 -1.4322778 -0.08479203 1.153215 -1.7342035 -1.8494103 -2.2106311 2.0567963 -0.17654671 -3.6347518 -2.093839 -0.6940502 -0.44136575 5.025445 2.006944 -0.6577384 1.1856568 1.3662691 -1.3471485 2.180044 -0.20654209 1.5539373 -1.233127 1.8801858 -1.3903283 -1.1962211 -1.7736022 2.626301 1.6194354 0.61549824 -1.1277584 1.3571699 2.095389 -0.079144984 0.38061967 3.1355684 -1.1317756 3.4564564 2.8575144 2.2611482 -2.0531325 1.9768993 -0.113440625 -1.0041617 -1.5428077 -1.4218656 1.4683334 0.4510068 0.09430455 -0.70030624 1.5601707 -0.20371434 -0.9203088 0.3264985 0.68662363 0.92783606 -0.6011074 -1.7190616 -0.16350546 -0.51879305 3.1708128 0.62960976 -1.339822 -1.5628765 0.2346128 -1.8015088 -1.347455 0.004497001 1.7755402 1.7026142 1.9985338 -4.7108564
with 0.63200855 -2.736427 -2.1740198 -1.3909079 2.6360338 0.6931019 4.02881 -3.3871799 -0.37752992 -1.1191653 1.3889031 0.67184764 0.3504282 -0.97118443 0.17120379 1.6721637 1.1803781 0.75823283 -0.48555267 1.359357 -2.0953279 0.040253516 0.31971827 1.21705 0.6750118 -0.63681495 2.374743 0.12272293 0.54480916 -0.3793702 1.1001072 -2.8090308 -0.75727123 -0.27520713 -1.9321424 0.3164115 0.023235163 -0.8919841 -0.9179253 -0.7570687 -0.47066033 -1.6592379 -0.1027742 -1.6450516 0.09675902 0.28334224 3.2396429 -3.7403407 0.8327231 0.796982 1.6926819 -0.48939252 0.4724161 -1.2088966 4.1312203 1.4777515 2.1047196 -2.9340436 2.8551238 -1.3000835 1.1912192 -2.1660748 -2.1180665 -3.4721878 -0.106469296 -1.1134199 -0.72729903 0.42695436 -2.4637 1.5837072 -1.2781055 -1.1610303 0.8676691 3.7908988 5.087894 0.9491901 1.6372834 2.5051174 -0.65637463 -2.5004406 -0.5559547 -0.90829456 -4.1844196 0.97661316 0.7010633 -2.115082 0.77736336 1.9726685 -0.6262498 -0.5088301 0.46433064 0.4131636 3.2489367 0.78259975 3.7107642 -1.6230575 -0.30979383 1.1028198 -2.630278 1.5270106
way -1.4195104 3.2589016 -0.81134695 3.2087348 0.8217255 -2.441794 3.7534928 -1.1495992 1.6185037 -0.8198175 1.2736561 -1.634028 1.7313194 1.10268 -0.4668882 1.4944148 -0.8777851 1.1709567 -0.28543335 -2.8929038 2.8688807 -1.769332 -1.2542428 -1.4236702 0.17203501 -2.2754247 -1.1052582 -2.7840612 -2.0437388 -2.0726435 -0.8740736 -2.3730743 2.338657 -1.1698115 -1.75175 -2.011507 -0.7527324 0.92529327 -0.99122554 -0.6625312 0.85834104 1.1657755 -0.9727963 1.1256953 0.15012819 0.8470212 -1.2884766 -1.4139658 -0.08427963 -0.051300764 -0.8738928 3.0666366 1.0937486 -1.831262 -0.45635176 -0.5619344 -1.356674 2.2885337 2.880411 3.5827181 0.0053658807 2.4252465 2.6450255 -1.3130081 1.3902993 2.1746414 1.5796593 -0.86228985 0.3117403 2.0819974 0.9378633 5.1764445 1.3961616 1.1086593 1.8119097 -0.6658069 0.25110042 0.55782443 -3.0579782 1.6411754 1.1160325 2.3236 -0.33064628 1.9668876 0.014560113 -0.4737558 3.0692742 -3.160631 0.45080736 2.0677333 2.6335533 -0.6589948 1.8318492 -2.3658066 1.499896 -1.6560787 1.1812456 -2.8811104 0.5921037 2.6703675
at 0.44170362 1.6780636 -3.9738553 2.5143983 2.5853581 -3.3640409 3.0213964 1.2633878 5.078155 2.0877233 2.0594752 -0.8713166 -0.9656251 1.2329129 2.1959257 0.65704376 -0.35924062 -2.901924 1.6679354 0.64474106 0.5532234 1.7223818 0.18515038 1.2633388 0.30971935 -1.158997 -0.7110458 -2.6499743 -0.4571589 2.2183597 -0.05575802 -3.39472 -0.38082504 2.3357031 -1.0062081 -1.0816687 1.4528861 -0.18237175 0.61861956 -0.9564315 -2.3381214 -0.050732706 0.03484216 -0.5205723 1.069462 1.0725918 0.1127257 0.28737852 2.3069363 -0.104371876 -0.91288716 -0.19435422 2.7711325 -2.0565453 2.959637 -0.04605182 1.3021891 1.7884634 0.42990693 -0.61613905 -1.2105749 1.3335323 0.3671261 -5.210698 -0.5306056 -1.9377251 -1.2915471 0.040166557 1.3132671 -2.0881588 -0.96477824 -4.376989 1.0462192 1.8192542 0.16210337 0.37854183 -1.9441346 -0.91435057 0.11104407 -2.3142643 -1.3736924 0.10351542 2.729331 0.753131 1.2721258 0.8540321 0.5070979 -2.1169155 1.0535495 2.8107643 -1.9044973 -1.9330542 1.0319972 1.2973337 -1.7893351 0.29793477 1.5045487 0.8672454 -0.45097288 -0.31452882
out -1.6599556 -0.3125338 -0.010863382 -0.7819327 -1.514668 0.4331074 -0.84296834 -0.44392666 -0.30332193 4.4431467 1.4423691 0.08306316 1.9021611 0.33272964 -2.6034114 1.4004753 1.2560134 0.50007915 -1.0469977 1.7146147 0.849062 2.0847378 1.0583506 0.87964576 0.29048362 -1.8228809 -0.8216627 0.074372634 -0.5799038 2.4231956 0.08301255 -3.4210765 -0.77446157 -2.6246033 0.278706 0.9564345 -1.5238526 0.25555214 -0.8498806 4.64907 -2.419646 3.0608134 -0.92725337 2.724864 1.8402958 1.7445697 -1.7961695 -0.8178997 1.6206565 -1.5010014 3.6873145 0.83919567 -1.6043512 2.8096144 1.4438769 -2.3368204 -0.63646686 -2.4614346 5.400551 0.73693126 1.428531 -0.64074934 1.2357749 -0.37443474 0.5513857 1.2142476 -0.90511 2.7763944 -0.53462845 -6.08207 -2.8975255 -5.4270606 1.0143427 -2.7979693 -1.5961242 -1.6378336 0.48251837 -3.8553689 1.4882121 2.7132206 2.346598 1.5394511 0.34643486 0.57567775 0.08540608 -0.08940458 0.9921369 -0.5586929 2.158494 -0.26713052 0.47454032 -0.05838564 1.6009508 1.2956278 0.8236662 0.10272662 2.0195227 0.119422816 -1.4682666 0.47538698
not 7.115553 -5.189264 4.560666 2.1211514 3.7045734 1.6029644 6.0625243 8.8117695 4.1504245 12.253671 -1.8435746 -2.4121146 -0.49548113 3.2196994 -6.3037395 -3.7759907 3.3787637 -4.7375116 -1.0335709 1.2353978 1.6659207 -4.6896524 1.3350385 0.32101986 -1.2079939 -5.667063 -1.3589813 -7.06214 0.08293352 21.41104 -3.7593486 9.923145 -5.73674 -2.0918467 -3.7176347 -1.0400324 1.8416951 23.804787 1.509434 3.5445087 -3.6189213 3.067042 7.9386353 -7.348306 4.46438 -0.80739844 -1.80158 -0.4098271 -2.3649487 1.6608467 2.0105102 -7.480279 6.030894 -0.47752047 -2.0250657 1.2948866 -0.72382706 -3.3878162 1.57056 -1.5332369 -1.7189555 -2.970345 -2.0249405 -0.58196676 5.6454997 0.9579447 1.373596 -4.5814962 0.34028774 1.8670342 -8.283706 -1.1029737 -6.2896504 2.8110523 -1.404356 5.4754033 -1.1908293 2.2100697 -1.6229224 -7.838375 -0.9201265 -3.3507085 1.7213926 0.081790306 7.2101965 -17.478487 -1.5234345 4.007045 -1.0236557 -4.3973837 -0.66786253 -1.1055232 -2.9942849 -1.0344806 3.881008 -2.9414206 6.5516853 -0.69671655 0.66369295 3.019102
or 0.94442505 -0.36539003 -1.9590633 0.3752478 -0.07507843 -0.28039584 0.36427134 1.4050908 -0.15764533 1.1108321 -3.0990448 -2.0283751 -0.73129267 0.984146 3.811268 -0.052416746 0.022658776 -0.06327847 -1.0935133 3.0565088 -0.84654766 -0.40716758 -0.7990234 4.358398 0.40210974 0.25407308 -0.18309815 0.3067941 -2.7055829 -1.2217449 -2.781278 0.7029609 -2.407033 0.027521092 1.4542019 2.7028573 1.4877136 -4.380359 -1.58503 1.7987401 0.11405766 0.43471134 3.921446 0.19577222 0.6389509 -3.3170197 1.2690986 -1.8261132 -3.396336 -1.1043363 1.011168 3.2731643 -0.886854 -0.24850231 0.21608536 -0.2909696 -1.1235605 -1.4066157 -2.4968724 -1.4747763 -0.46682712 1.8455055 -0.5934091 -1.353366 0.838895 3.0427866 -0.26697746 -1.6211214 -0.31440863 -2.7691255 0.20191965 3.3852422 0.45319545 1.5685191 -0.964183 -1.4065328 0.9517781 2.4194372 -0.6697923 -0.5789736 1.7612286 -1.7868769 2.6153743 -2.5058632 3.008973 0.2989464 -1.6661024 2.6168017 1.3947908 1.5354693 3.4570303 2.057166 -0.17087783 -2.8259313 -1.8689139 -0.6737656 -1.3538463 1.191027 -0.6615575 1.9236984
herself -0.6730654 -2.2005053 2.8971193 -2.1868095 -2.1590173 0.773142 -1.2781965 0.08652333 2.1157203 -0.95761764 0.39173502 -0.2328653 0.055652756 0.8604688 -1.9078445 1.7171166 -0.17539844 0.92997307 1.3692155 -1.3103491 -0.8597072 0.55729306 -1.3135691 -2.4491415 -1.2103485 0.6939554 -2.4697874 -2.5576026 -0.1841912 2.3860168 1.5016167 2.074892 -0.004982405 2.0271125 -1.4940528 1.153544 -2.43568 -0.28994897 -0.5259221 -1.1619848 0.36256734 -1.9088774 0.101691805 -0.4152975 -2.9171143 0.617268 -2.556052 1.93211 0.47634336 -1.5475842 -1.3832473 0.5679297 0.7995181 1.201535 1.7862419 0.77728856 1.3029563 -0.9859381 -4.333663 1.084079 -1.2980738 -0.74981964 -0.18275373 2.039976 -0.3790368 2.4487052 -0.63092536 1.342124 -0.107035175 3.3776598 1.6337694 1.1103507 -0.103934035 -1.73386 2.3910294 -3.1465406 -2.6335948 -0.52870715 -2.2651658 1.7532799 -0.7934746 2.6855423 0.044224557 1.1189487 0.8726239 -3.3282726 2.330337 1.0986086 0.7172283 -2.3691187 4.2925863 1.6651161 3.0502255 0.477078 1.3727674 0.24476998 0.9684675 0.44250473 -0.12808059 -0.38591155
up -0.55650145 2.0611837 -1.9145924 1.4608713 0.32532653 -1.0296211 0.95022625 1.6153942 -0.8653729 2.5780914 0.34013218 -1.2747626 1.4727955 0.7164466 -0.5136567 -2.163496 0.67409074 -2.4765027 1.6236122 2.0590003 -0.88705385 -1.5339968 1.6610374 0.6855516 -0.89888734 -0.9132163 0.12302554 -0.13865224 0.7608458 0.34841374 0.13734065 -0.25047883 0.738291 -1.8400847 -2.8402557 -2.222056 -1.9277297 1.224905 -0.25734824 -1.4100697 0.41366702 1.9792538 2.466917 -2.5890448 1.2809495 -0.97135663 -0.9175035 -1.4544784 1.06015 -0.13330062 -1.4078797 -0.60459715 -2.0057087 -0.17875008 0.18430543 -0.30103785 0.77148205 2.48733 1.5408715 0.5737287 -0.5594935 1.0737933 2.6838324 -1.2844359 -1.7908144 0.47159457 0.72413605 1.5604565 -0.7104912 -0.88498604 -1.157685 -1.4177057 -1.9353658 -0.28611276 -1.723258 -0.9337426 0.32382193 -0.0593338 0.9501102 -0.36890775 -1.5077537 -0.9515569 2.8547928 -1.7523031 3.4574327 -0.1149122 1.4368259 1.2102094 -1.011702 2.598181 0.2660608 0.27997518 0.3613033 -0.0964488 0.5338222 -0.82949245 0.80562466 1.7722923 0.4140175 1.4708036
how -1.0100728 -1.7969949 -0.93286735 2.0142167 -1.5119734 -0.9062815 0.8338448 -1.5388039 3.7108054 -1.5033782 -4.1619196 0.8646817 -0.8094191 1.0084475 -1.3369294 1.609339 -2.2139554 -0.5490369 -0.9458906 3.3367107 -0.82231283 2.1421547 0.68369424 2.8194056 1.6241603 0.59292734 -2.2442472 0.15909475 -2.2450335 -0.08616079 -2.0068884 1.3788309 0.16695988 -2.2955544 -0.57381314 -1.0288246 2.031896 0.3043248 1.1869794 1.831583 2.2081609 0.7427394 0.8177765 -3.211495 1.090522 -0.29657105 1.6036122 0.40069753 1.1962386 1.1176537 1.3464521 -1.1528546 2.0541961 2.9646993 -0.44588354 1.3947994 -0.9262899 0.34762263 0.57744116 -0.07585142 -1.0140523 0.25663123 4.0712476 -1.349794 -2.2339113 -1.7593453 -0.13176201 0.34348765 -1.5539109 1.7570236 0.81399935 -1.7126609 -2.1007752 -2.212464 0.15597111 -2.5473661 -0.58107585 -2.144408 -0.4780057 -2.7823567 -2.0704181 0.72265863 0.507143 -0.30058643 -4.77579 2.6367722 1.1930969 3.372851 2.2868083 -0.43923718 -1.1913679 0.7894362 0.37674594 -1.1297228 -0.5251875 0.0020420516 0.52961016 -0.49531206 -1.7488813 -0.8255997
like -1.4799577 -1.6851008 -0.26232988 -0.39156666 1.512031 0.6973836 -1.9471476 -0.34714344 1.2610075 -2.592972 1.4791625 -0.5907234 2.4833984 -0.62603974 -3.956717 -1.39064 0.41772154 1.7742993 -1.6326057 2.7718875 1.3327101 -2.2616856 1.9258198 -1.6593287 -0.25689328 -0.93366975 -0.5228153 -0.24789488 0.69034153 -2.9646301 0.46164966 0.36347148 -0.30644158 0.09930963 2.9839263 1.2495501 -1.1591927 0.41561097 -2.4269402 -1.7837425 -0.17177664 0.3740061 -0.08119545 -1.330221 0.32652602 -2.9250848 -1.3347073 0.08279884 -1.1388927 -2.94521 -1.2397745 -0.9137449 0.8512281 0.20120922 2.0949402 -0.2739764 0.16896664 0.2137469 -1.5409507 -0.86851996 -0.80051565 1.0530107 1.3865811 1.0353001 0.51878136 0.84417784 0.1599845 3.291357 0.7147005 -2.4167075 0.7983945 -0.5275839 0.17682052 1.2712454 4.1614203 0.12666929 -1.2829802 2.659689 1.7150484 0.34870315 -0.41677797 1.4602082 4.3105636 -0.9472433 -0.39462918 -0.9152791 -2.5570893 -1.5194603 -0.28675058 -1.073668 -0.23789963 0.841871 2.6300468 -0.22536296 0.9984669 -1.2911812 -0.64970917 -1.4850138 1.8964651 0.5174
one 1.2386947 -0.5939161 -2.2690077 0.68997955 -0.523149 -1.8323965 0.47226784 0.448476 0.980807 3.821813 -0.54885375 -0.21768303 3.259483 -1.4641793 1.6976818 -1.3791491 1.3794799 -1.577195 -0.45165563 0.089378715 0.4278807 0.736827 0.22904667 -1.4232591 0.35360178 -2.3955348 0.18143225 -1.6098571 0.88374543 -0.5216264 1.3856792 -1.096062 3.0188797 -0.10874402 0.646039 0.22569247 -0.66652596 1.1512793 0.7610955 0.7545135 -1.4040235 -0.39149967 1.8017892 0.9302662 2.3354547 0.3606102 3.6133478 -0.11383676 1.9751866 -2.1911716 -0.19533725 1.5927832 -0.94099325 1.4024434 2.4972174 0.3937367 0.2794939 2.8377266 -0.34604907 0.1925574 -1.1808368 2.7991207 0.28215146 -1.7535765 3.705429 1.707484 3.4071126 2.6374457 -0.4963141 0.9075934 -0.93216294 3.1523435 0.9575932 -0.031399984 0.98473305 -1.3758489 1.1250169 -1.1218352 -0.21394965 0.5660139 1.9956663 0.57096213 1.8823915 0.012992728 1.3474555 -1.2974077 -0.5129827 0.3049444 0.20328598 0.9733204 -2.4175868 -3.483787 -1.4233667 1.7247732 -1.0376321 2.560099 0.73500806 -1.7959905 -1.0283489 -3.0718873
no 1.6491238 -2.3860688 1.4462116 2.0239954 1.7876078 -2.0055573 1.847365 -4.0520506 -1.6632866 0.60274255 1.4363903 -0.59013844 -0.6719525 3.022276 1.6243999 -0.9258292 -2.5429697 0.04828278 1.6008519 0.10907774 -0.27161452 -1.7633984 -3.4990373 3.3341503 -1.4341019 -0.60221165 -4.2319546 -3.1502948 1.8602257 0.5971089 -0.6561602 -0.5326397 -0.045890473 -0.9241467 -0.4584819 -0.8393599 -0.009265676 -0.8976057 -0.14382237 0.11835638 0.5754655 1.0910839 -0.17701285 -2.7575395 -0.10877688 -0.31110296 -0.33160672 -0.3229627 -2.1356175 0.56779075 -1.9354851 -2.2384386 -0.48974472 2.3706203 -2.4702208 1.4583011 0.44582808 0.085694894 2.5478225 2.0546563 0.8447643 -2.5617929 -1.8654599 0.27594304 1.5980934 -1.151442 -1.2165755 -1.4140878 3.7322013 -0.65500015 -1.0499485 -1.5965476 -3.727935 -1.8659549 0.95632166 -1.5070088 2.210436 -1.5477277 -1.4727743 0.7160781 1.4972847 -1.102848 2.7194886 -0.09652554 0.1406976 -2.6057239 2.6358309 1.1045786 0.28101757 -1.1634196 0.9854609 1.659801 -1.0064651 -2.8996103 -0.3610575 -0.506532 -0.6104783 0.17802231 0.5564493 0.8535435
rabbit 3.6293101 -1.2318416 -1.7022266 1.3722986 -0.081520125 1.8493977 1.661725 -0.68152034 1.7622674 0.046245307 1.4382975 0.16917597 1.3339288 -1.5061064 -0.7535578 -0.22393528 -0.05445984 -1.0817611 0.5529242 1.834889 -3.117914 0.81245893 0.135251 -3.0326786 -1.2096535 1.3309443 0.21822605 -0.46127197 1.9308386 4.0173817 -1.6679677 3.730182 -1.409248 1.0394248 -0.4667236 1.532737 -0.6018305 -2.1248941 1.1127961 1.3902888 -1.0572752 -0.5087508 -1.0415463 1.4774327 0.6707373 0.49002323 0.78288704 -2.1675222 -0.34623015 -0.28886285 -2.9453495 -2.2833843 -0.19122688 1.617739 1.1011851 1.2955426 0.5041586 3.2742717 0.43155083 -1.0685765 -4.012487 -1.6592085 2.0240672 -1.6488147 1.7953507 2.194373 -0.377752 0.84788686 0.99655473 0.97217226 1.2260753 2.673658 0.3327164 0.32647562 4.2555013 2.520666 -0.38298765 0.6749787 0.6718092 -1.1144674 -1.1488521 1.9254085 0.8674913 0.3806479 -3.1669145 1.9815602 0.52852786 -0.84500355 -1.2997981 2.125647 -1.6173397 -3.2550802 0.4333089 0.27628553 0.30697373 0.4214869 3.828221 2.3338943 -1.5232258 -0.56939095
when -2.842086 -0.45466235 -2.6877012 0.8508898 -0.67063105 -0.1186524 1.7435869 0.88185096 0.26477638 3.1243706 -0.6087907 -1.990128 -1.4284962 2.0431118 0.9545618 -3.9844162 -2.3945801 0.67084104 1.6405972 1.1080197 -0.6113638 -0.65298814 -0.8826387 1.7489749 -1.3059137 -0.25068787 0.61252016 0.13013875 -0.8733617 0.8373061 -0.5668562 -3.9155607 0.1769655 1.0210135 1.2781451 1.2857033 -2.6297457 1.3311265 0.38594612 -0.6175168 1.5169274 -0.33141834 0.48910612 -1.4257349 0.58126855 -1.0274374 -1.5387067 -1.8493271 1.3332818 0.79743433 1.8213844 -0.6773224 -0.7243402 -1.2190573 -2.0517154 -1.8627738 -1.1349564 -4.636681 -1.0674093 1.6388941 -0.5853516 -1.0689965 -3.1505835 1.0318779 -3.8436468 -0.78480905 -0.73619 2.8996508 0.5789784 -0.41994023 -0.4805225 0.73495924 1.1658932 -1.195621 -0.30116025 -1.7597119 0.4999663 0.035277538 0.8406384 -2.7304306 -1.3034254 0.7890909 1.1138823 0.48613957 -1.6285195 -1.244137 1.3076842 -0.88625956 0.09742524 1.056448 1.8149654 0.5197886 0.9318256 -0.3868439 0.08921022 1.6328179 1.8789738 0.55561846 1.4430904 3.8963575
all 2.3003826 0.44004893 0.21114837 -4.6401844 1.124845 -1.976319 2.3884554 3.2692678 -2.3971646 -1.0638821 -0.9497785 2.5883389 -1.1713996 0.12315465 1.1204246 -1.629012 -1.1407143 1.0059745 -0.97966236 0.032786615 -0.19190092 2.9380999 -0.8186049 -1.5339228 -0.14266229 0.5436137 1.336558 -1.343062 1.0093772 -0.41175768 -0.49320188 -0.2639647 2.200283 -0.16977228 1.660108 1.0693837 2.7942297 -3.568796 -1.4579356 -0.22366981 2.9515615 3.3921177 -0.5928032 -0.2983906 0.7147218 -0.46268758 -0.30826315 0.20497905 -1.0907854 1.117418 -4.401626 1.0764899 -0.07353351 -0.74969286 -3.798512 -0.54885393 0.21492822 1.4605185 -1.1450692 2.07758 -2.532844 -0.66025877 1.4292551 -1.2379701 -0.3146474 -0.1287612 1.2986188 -0.44840592 0.38672757 -1.5100688 -2.733871 1.606682 0.6891847 2.601635 1.4586754 -0.9535652 0.6460956 -0.4769146 -2.892213 -0.4670645 0.6663555 -0.19589165 1.0010006 -0.18133894 0.48642457 0.6397849 -2.341613 1.2202591 1.3928499 0.11846219 -0.9886411 3.481265 0.44441196 1.8676646 -3.8166509 -2.1642954 3.5403702 1.3236759 -2.5154984 0.12616424
see -1.4365275 0.04811027 0.2761353 -0.544155 0.5357501 0.115099326 -0.59439224 -0.07958606 -0.2162588 -1.314802 3.0293527 0.16967216 0.22059467 0.68584 -1.8764998 -0.19768962 1.1322068 -0.26977736 3.4974523 -0.91767204 1.7725724 -1.0285789 -0.7279421 1.7330542 3.4790814 1.0515636 -1.1417938 -0.9274667 1.0277312 0.1257057 1.2871664 -1.7986504 1.3812392 -1.1211977 -0.64964163 -2.627565 -0.86835754 1.8237773 1.4299926 1.5555676 1.108323 -1.1428986 0.86051786 1.4735842 -2.861261 -0.5448511 1.1759995 -0.83609664 1.1191195 -1.1332837 0.104748964 -1.4537253 0.27863255 2.434463 -3.1663072 -2.7582424 0.039753504 -1.8768301 2.1027935 -2.1363623 -0.32244584 1.9097886 -0.57898575 0.5612976 0.512356 2.8728173 -2.6739492 -2.6507986 -1.2335514 -0.67996323 0.44122922 -0.1955677 0.1024918 1.9357991 0.9940514 -3.7604892 -1.0517933 -0.61413854 0.20121326 0.6061295 1.8348808 2.7304935 -0.058548693 1.4204475 0.26389644 -0.70434576 1.2748857 -2.8556223 2.8876243 1.8356684 -2.110007 -0.7564765 -2.308799 -2.1516292 -0.02862622 0.10900054 0.8387742 -1.690793 -0.57684004 1.3540775
into 0.73484445 -1.3503457 1.4632707 -2.8542044 0.26068816 -0.07632174 -2.327719 -2.8611677 -2.4406624 -1.4880112 1.4288391 1.5996151 5.0112514 -0.47724497 0.2909943 1.8504385 -0.071945794 -0.8994834 -1.4769452 -1.5044625 -0.5986883 -3.601667 0.24954148 -0.68432903 -0.33065197 -1.9632846 1.2209543 -1.0541414 0.41509616 0.50905836 -2.290747 -1.7755543 0.42754412 -0.527936 -0.86417055 0.11545656 0.10997645 -1.9657654 -0.6255574 1.7780375 1.5891953 1.4288703 0.24311918 -1.9950906 3.015845 2.441062 -1.1250614 1.3328217 0.8844172 -1.3632252 1.678115 0.9846178 0.06546268 -2.680323 -1.8750776 -1.5809643 -1.769356 -3.3827446 -0.05990986 0.12244308 -1.1465838 1.1212434 2.154705 -1.6603982 0.022072162 0.25302044 1.5313972 1.245595 1.4570115 -3.9887874 1.1118454 -1.4432315 -0.2462641 2.8457227 -1.2851927 1.2134652 0.71095425 -1.0894356 -0.9801587 0.34699318 0.89416194 2.9233243 1.1000448 2.6627762 -2.4361362 1.0843185 0.14397733 -0.56809896 0.22285084 -0.6656548 4.0831933 1.7480694 -0.5324851 1.1847503 1.3099653 -0.18677458 2.3876145 0.39189342 0.42169368 -1.1124201
what 0.5959381 -1.1212201 -1.7611159 0.62073874 0.7809429 -3.0440192 -0.9218457 0.9142152 1.2580146 0.6092103 0.87094176 -0.7516932 -1.672056 -2.5729623 -1.0680013 1.6824342 -1.8515443 -0.3639672 -4.4337354 1.6441528 0.14476539 0.51442766 4.4951253 -1.5453176 0.8079859 2.0760796 -0.79677707 -2.0592735 1.1979986 -1.4271432 1.9951292 -1.7196534 -0.4174197 -1.6895752 1.4173784 0.86640084 2.9392536 -2.1928275 0.9376199 2.827094 0.19211824 -2.5322978 -1.5377002 -0.3080233 0.4448115 0.1621873 2.0746927 -1.8969749 -2.497081 -2.4383981 0.24470337 -0.40885058 1.199272 1.5162117 0.27673426 0.019819463 0.40364957 0.38813874 0.5172845 -1.1620814 -2.3575053 -0.7366206 -0.020329835 0.8807209 1.3475983 1.9534755 -0.021176312 -0.5243363 0.7555497 -1.3741854 -1.0378232 1.0233364 -1.3003249 -0.2981198 1.4827471 -1.6712036 0.8662784 1.7269007 0.8327216 -2.639943 1.1591008 -0.16526006 -0.12029547 0.7669409 -0.90095264 -1.6934085 -0.5576913 1.3607423 -1.3722249 -1.5842572 -1.7319983 1.3036121 -1.2201867 -1.1822975 -2.5611174 -0.3631765 -0.55135536 0.06346603 0.09183874 -0.6847565
there 0.053498074 -3.5259626 -1.2634746 -1.3323079 -0.35936916 0.077431634 0.96738815 3.1409662 -0.091457695 2.726099 -0.67202306 0.4711919 0.35888836 -2.8826835 -1.18196 0.25438583 -0.21290393 -2.2617962 1.0355833 -1.769734 -1.758656 2.2752721 -1.8098675 -0.55516684 -2.9023507 1.3776388 0.37188306 -0.65631855 -0.5482792 -1.4783992 2.3654056 -0.34427634 -0.44328144 1.2486036 0.20889525 1.1535556 1.9124724 2.0590916 0.78713477 2.2369852 0.22748648 1.0279949 -1.376845 1.414239 0.8268188 -1.2280416 1.1803919 1.4327804 -1.8054388 1.6425065 0.6444415 -0.07264805 0.80194753 -0.23202324 0.50385785 1.8061117 1.0218995 0.33830595 -0.8516103 0.024535295 -2.5457923 1.3896005 -0.2856089 -2.7965233 0.33364102 -1.3684869 -0.24140525 0.15518671 2.573522 0.23584065 -3.0471227 -0.08801388 1.2017817 1.1692897 3.0556924 -2.8781872 0.25482428 -0.32058752 -0.5274047 2.926696 0.7480751 -0.29050684 -1.6146008 3.0195856 -1.344445 0.34676528 -0.25374898 0.42474058 2.9245203 1.9175903 -3.827017 -0.944444 0.19606368 1.2751784 1.9989465 -1.5657302 0.52062744 1.4992042 -0.64674234 1.2746624
think -2.7418425 -0.73620707 0.96292543 -0.0072344737 0.7304726 1.9090956 0.49986959 1.0103649 1.6051383 -0.85320336 0.5047134 0.42908272 0.095028855 0.6086893 0.9301485 -1.4643248 1.2358215 -0.5776393 -3.2614272 -1.3378057 -1.125273 -0.8824507 -1.1551056 -1.6427002 -1.1558808 -1.5066775 0.8430468 -0.96000236 -1.9309275 2.1013076 2.8756704 -0.8677301 2.8060815 -2.0233963 1.7381082 -0.23957294 -1.3473969 2.2659092 -0.95926934 -0.2799128 -1.1715149 -1.1079128 2.349204 0.8960771 -0.95201796 -2.7087243 0.053241942 0.21959941 -1.2391479 -1.6533104 0.10867967 0.17962903 0.8930033 1.0575297 0.514208 -1.71463 -0.17693119 -0.3211823 -0.91178703 0.3482518 -0.5768621 1.4943653 0.080281325 0.028768338 -2.5673106 0.26647487 -0.4441162 -0.90574104 -0.30192506 -1.0105083 0.08827395 3.7756953 0.047197662 0.605143 0.46473604 -4.6694183 0.90773726 1.0859424 0.9848256 -0.4740283 2.5016866 3.8113205 0.39339176 1.1314093 1.59606 -2.1968808 -2.2946284 -2.9327977 3.5419064 1.8589833 -1.1639942 -0.84702665 -1.194922 -0.13640663 0.94333565 1.3677268 -1.0353591 -2.9744077 -4.5816693 0.7780169
me 0.38642165 0.6357698 1.0357327 -1.1653447 2.8131332 0.7275027 -2.096913 -0.58986306 -1.1049001 0.68733466 -3.2472527 -1.984323 -1.2536559 0.7642848 0.22100933 3.0166469 1.005277 -2.4085116 0.5704958 0.38281983 0.23746844 -0.03668303 1.3702239 1.515223 -0.9945209 3.310972 0.46323666 1.6317315 -0.77400714 0.025121095 0.2426949 5.2330627 0.25290003 1.094499 1.4056473 -2.0019548 -0.8534938 0.8637923 0.26825815 -1.2492379 -3.7052708 -0.71368796 2.119473 -0.7457629 3.02668 -1.2855695 -2.612159 2.6752284 -0.094868004 -0.31996945 -1.5421605 -1.3479503 1.2367285 2.7235475 -0.40205246 -2.5655723 0.6396138 -0.5703341 2.0898502 -1.9828522 -1.2508237 0.2738198 0.34052837 -2.3862197 0.1165067 -0.7660758 0.7446664 0.010508817 -2.2663562 -2.7591603 -2.237761 -0.38750204 3.4842167 -0.9876086 -0.9280778 1.9493487 -1.2941273 0.88573974 -1.0807326 1.263633 0.81690496 0.91289186 0.25920424 -3.8382864 -3.50247 -1.4269216 -0.18904896 2.1822464 -0.005746456 -1.2497703 -0.25023627 -0.79405606 -0.08709854 -1.6147121 -1.1670656 1.0895855 0.99188215 2.8836365 -3.3828564 2.9890223
if -3.4356656 -0.11689977 0.85294724 -1.0610985 -1.8658429 -3.559239 -2.8158069 -0.2105147 0.34784257 -0.056660526 0.03791458 1.5546767 -0.5086385 1.5228354 0.85654646 -2.4649513 0.95367646 -1.6886963 1.2950958 0.2463168 -0.70903033 2.7175372 1.5847027 -1.1357282 1.2574664 -0.17116718 -3.4266918 -0.05130147 -0.81222695 -0.11368451 2.8386538 1.6976908 0.93931365 -0.67430085 1.1110955 -0.3516494 0.31612882 -2.097879 1.43435 1.0397007 -2.077457 -1.7043878 1.906532 0.29183885 -1.6715044 -0.94694996 0.7211541 -3.2565525 -1.2268478 -0.8779582 -0.37275773 -0.031896632 0.03634091 0.49583924 -1.4215733 2.6908345 -2.022275 -3.162832 1.038067 -1.4763558 -1.6938508 -1.6928492 0.005028923 2.8783197 -0.623653 -2.358843 1.2272484 -1.7909627 -1.6971135 -0.8595954 -0.74262327 2.3548305 -0.1815553 0.0378998 -1.2750946 -2.3332427 0.58025223 0.89628 1.0379084 -3.1727781 0.86603856 0.90474296 -0.17483136 0.028562387 1.8645266 0.26523763 0.5670985 -0.51854664 -0.24078524 -1.7432724 -0.037757475 -0.29711863 -2.0248907 -2.9162405 -1.587126 -0.6653401 -0.48871738 1.1448073 2.0772557 -0.21432447
thought -1.0277717 -1.2791431 -0.37723038 1.6926945 1.0817589 2.9410844 -1.7639058 2.3456087 -2.3720305 0.52648103 0.20173362 0.60710794 -0.1024499 0.19814886 1.4629743 -2.7702947 0.23809463 -1.6503482 -2.2061167 -0.75598216 -3.810481 -1.4137145 -0.09290493 -2.9662976 0.21446884 2.1458619 -0.16042657 1.099392 -0.23959723 -1.7250643 0.13909332 0.24892424 -0.40943176 -0.058000375 -0.30384436 -0.32377797 -1.836684 -2.0796974 0.24071169 1.3677795 -1.7556136 -3.204083 -0.54088223 1.0118557 0.65927666 -0.6242888 -0.6620639 -2.124722 -0.30646116 1.0758154 -0.33829078 -1.766362 0.1319062 -0.046679724 -1.950472 0.70895517 1.460969 1.0039047 0.03407375 2.1854095 -0.68506753 1.0073261 -2.0092402 -0.5018978 -2.0640435 2.255083 1.850566 0.35952902 -0.3090565 -1.3686854 0.070273474 4.0595345 -0.65033513 1.947576 0.20675634 -1.3912945 1.3502016 2.5537841 -0.9325847 -1.5650395 2.1633298 0.8356677 0.9498639 0.6705607 -1.0231059 0.566657 -0.83976364 -1.758952 -2.3658392 -0.65575194 0.9885635 0.293752 -1.0541074 -0.23564065 -0.70749545 -2.7563798 1.2950194 -0.11705894 0.5352518 -0.18898863
could 0.98810536 0.39975613 -1.7140306 1.0213028 0.3579361 -2.408253 3.0370302 1.4256375 2.8778422 0.19969986 1.6475524 -2.574916 -0.5489605 1.1012449 2.6932054 -1.2020422 1.6243652 -0.5721603 0.8421846 -1.602923 2.800111 1.6496516 2.502054 -0.24496686 -0.37764132 -1.1363715 -0.30520007 2.04435 0.51603776 -0.28040558 -0.87685674 1.7105708 1.5463758 -0.14987722 1.0022577 2.1626344 0.10507744 -0.32631758 0.93629795 1.4842825 -2.2343214 -0.81814915 -1.166762 1.2967589 -0.75308996 0.41914254 -2.6908097 0.56571656 0.17000407 -2.139437 -0.6984988 0.41725907 0.7512848 -1.565233 -1.875975 -1.986158 -0.47717163 -1.7032856 1.1046135 -0.9514967 -2.397391 -2.12221 2.343548 -1.0687805 -1.020149 1.2295284 -2.3201292 0.14455536 -0.02744992 -2.6451075 -0.9040618 0.28603932 -0.44749555 -2.2521174 -0.95575756 -0.670141 0.7663156 -2.0767133 -0.0150342975 -1.3781261 -2.8452811 1.4042557 0.29071927 -1.0569196 -0.8845227 -1.8730625 -0.8426074 -1.8742008 1.3119547 -2.6175194 -0.65756184 -0.64347655 1.8552824 0.076596454 -2.446592 -3.131883 -1.8375841 1.5921555 1.6284665 2.850217
time -1.9977701 1.0296403 -1.4064107 -0.26604956 -1.914986 0.31537232 2.2307289 0.5373459 -1.4786735 0.2272181 1.8523734 -1.9275287 -1.1305312 0.6049073 -0.31731564 0.100164615 2.6978498 -2.0585103 -0.4278582 -1.1644403 -2.5102642 0.23208463 -0.042586226 0.24193172 -1.3950899 2.7628763 -2.3086917 -0.5988453 -0.44656956 0.8297207 -1.3270656 2.0052054 2.8605735 0.47635862 2.0071614 -0.73474896 -1.746036 -1.5503587 -1.3871416 -1.7794069 -0.0709789 0.54078126 0.6684945 -0.27213532 -0.27278864 -1.774794 -3.483398 2.3577592 -0.38675758 -1.6256725 -0.51674956 0.34225142 -0.21218622 -0.6641976 1.3824017 -3.9133656 -0.070353165 0.22639848 0.40340763 1.4747759 -1.6817994 -1.7909117 -0.29561573 0.9203143 2.18077 2.5914764 0.40061447 1.6875101 -2.446205 -2.4909785 -1.9483829 1.4899194 -0.7844835 -2.8604817 -1.0412492 -0.34162855 0.7423619 -4.058996 -1.6795571 0.5031089 1.613553 -1.2766705 -0.97676486 -1.0150533 0.3838012 1.0094134 1.4657364 -1.0181797 -1.1818056 -1.9942123 1.3553598 -2.1589038 2.2174191 0.05023006 2.1375856 -0.24336831 -1.4118484 -0.18878469 -0.9118518 -0.59748626
about 2.912091 2.646029 -0.81972843 -3.7538083 -1.8498685 -1.8478218 -2.7111669 0.44921023 -2.3067617 -2.3588219 2.1536565 -0.7182167 1.9798832 1.934856 -0.07427553 2.6679027 1.1483902 -2.8663054 0.8277646 2.90489 1.2108604 0.19826613 1.1559124 0.7355733 1.4053123 -1.1546832 -1.0708221 0.8116373 0.005102099 -0.9985412 -2.3794186 -1.5252941 -0.2083122 1.0643517 -1.2870235 0.566536 0.94919026 -0.24536578 -0.7304575 2.6243863 1.4067618 -0.013618456 0.035636898 1.0831527 2.4204702 1.4561479 3.4023993 -0.7834942 2.0884783 -0.7524568 1.7924062 -0.32275635 -0.87273663 0.8816879 -1.2607306 0.52949506 1.4465714 -2.7012432 -1.514328 1.6853067 2.070613 -1.2093372 -0.07709707 -0.53511214 1.7254415 -1.3782631 -0.07660508 -0.51785916 -1.7983022 1.5311056 -2.6888757 0.3708149 0.09703544 0.5039035 -1.4897695 0.4067174 3.133856 -0.20527253 -1.4133049 0.64303756 -1.2943296 -1.2529396 -3.059618 1.5889595 0.38571003 -1.7431812 2.5707748 -1.9505324 -2.7352135 -2.0080068 -0.7299417 -1.2012515 -0.026302015 -2.3163323 0.50582844 0.14731756 3.5192761 -1.7556957 -2.559315 -2.0879264
went -1.1338489 -0.37671557 2.0251224 0.5217635 0.23847564 -0.36042097 0.4982327 1.2311405 -0.6111969 2.3451512 -1.3609729 1.7382815 -1.0392668 -1.2381762 2.0318367 -2.369651 3.7971313 1.3911164 2.2791672 -1.2126464 -1.7594258 0.05507114 0.22986057 -0.8130353 -1.8885834 -1.6282957 -1.9506928 1.4325501 1.0302117 0.85071176 0.52280897 2.261794 1.7630799 -2.0318677 0.46161473 -2.0371327 -2.874005 3.7938058 0.22587936 -0.8673173 -0.8750839 -0.855386 1.6380794 -2.3112307 -0.53285736 0.18843874 -0.9197424 -3.171311 1.243421 2.872457 1.0944247 1.2874492 0.19468904 1.242071 2.7944913 -0.91545355 -1.1480155 -3.1973376 -1.4331751 -1.859824 -0.5174952 -0.61063325 0.9950348 -0.83899534 -1.1653142 1.1428803 -0.6801523 3.558769 0.20827338 -0.21978916 3.1007514 1.2834339 -0.17195101 -2.0637386 -0.2151047 -3.5875716 -0.8702466 -0.08241141 -0.5813189 1.1771647 -0.47708076 1.0784879 -1.0054642 -0.38905144 3.0894125 2.2457597 0.60427517 -0.32449746 1.4045881 1.7891921 -2.5102074 -0.08010289 1.2144626 -0.85547394 -0.06424761 1.4246215 0.02346113 -0.75361145 0.6858983 -0.39838007
were 1.154723 -2.712167 -0.8990238 -0.8729386 0.75239676 0.11062941 2.8647766 -1.1573849 2.7251537 -0.4642463 -1.4017489 -0.92543215 -0.6721472 -1.8271438 0.7363812 0.8458699 1.0630969 2.5254657 2.074314 -1.5924255 -0.28217357 1.9076821 0.03130075 0.5215012 0.54931504 1.1785523 0.015940206 1.4270446 0.5943562 2.5618029 -2.092583 2.3370123 1.3660738 2.1713202 -1.9798867 -0.40345192 2.283989 1.3846369 0.92189294 -1.305321 -0.9018878 -2.7171216 1.8171473 -0.6657572 -1.8799387 -1.4240913 -1.0587275 0.8131724 -0.6728439 -0.10240701 0.20881136 0.94645566 2.3394125 0.28435698 -0.82556593 1.4544073 1.1960064 -0.050736003 0.22945182 1.0501359 -0.47877195 2.455814 0.665095 -1.4977834 0.6193966 -2.3647573 1.2524124 3.3354132 -0.48667407 -1.7558005 0.30219233 2.1003964 0.6807243 -0.4871167 0.19864504 0.108296044 -0.20076904 3.7824469 -2.7556558 -0.9786177 -0.9229916 2.431578 0.33285698 1.3564813 -3.9361446 1.5033177 2.3202045 2.4859798 1.6583014 -0.9540625 -1.5561147 3.6618493 2.150361 1.4310036 -1.6201149 0.17227553 1.4795396 0.62190807 -3.3240826 2.116096
off -2.0664153 1.5394535 -0.5090903 0.55107665 -1.8430738 -2.2411604 -1.491716 -0.23065886 -0.23113616 1.3972262 2.9884167 -3.2549942 2.679294 0.114919454 -0.51316655 2.5235908 -1.5665442 0.56417006 0.4628723 1.687334 3.2706578 0.1345345 -0.516269 1.7639213 -2.1991744 1.5271779 -0.2314301 -2.6177826 0.7270631 -1.9828634 0.76403034 -0.17801094 1.5767603 -2.2106407 0.52005327 -0.5115087 -0.716719 -1.8869295 0.53405374 2.6980066 0.61201924 1.3640162 0.62317014 0.6621321 2.2010021 -1.236745 1.962058 -1.2775699 -1.5474102 0.2899602 0.2979558 -0.041979194 0.8317522 -0.18072346 -0.7711017 -1.5418086 -0.7472363 -2.3218253 1.2760224 0.77818227 -0.7502614 -0.8312363 -0.61218905 0.1620555 1.5460893 1.1251078 -0.61076856 0.38877097 2.1527095 2.1771603 -1.5788523 2.6115868 0.22822067 1.4277358 1.2917658 -0.17549038 0.09527549 2.4626694 -1.8497342 -1.0570931 1.2816519 -1.4431076 -0.20677777 0.36377913 1.3957909 3.022542 0.56937474 0.23309213 -0.34340316 -1.259121 1.8875325 -0.81796706 2.6686034 1.8298744 0.062955804 1.4466461 -1.0584205 1.4287007 1.2097535 0.9315297
said -0.42507917 1.0475975 -0.008742003 0.45037583 -0.9462049 0.8277481 -1.1492658 0.6289053 -1.2112236 -0.38640958 -0.8505313 1.9683324 0.79720706 1.8059847 0.66523355 -1.6983308 1.8521363 -1.7201849 0.22284824 1.2851712 0.21799596 -1.3513795 -0.036825486 -1.7435124 -0.27958846 0.84965014 -3.995258 1.1462114 0.88807845 -0.38276613 3.382609 -0.101152845 1.0981332 -2.2413318 2.099274 0.55322635 -2.1507504 0.06220462 0.13367216 0.67429096 -1.6057575 -1.9539006 -0.8279876 0.45676634 0.255322 -2.4843988 2.07195 -1.3084794 -0.03510932 -0.742943 -0.7949673 -0.22663239 1.0712407 -0.2240163 -1.9637338 -0.6865013 -0.88221055 -3.2664828 1.2537558 1.6925864 -0.7897225 -2.6186476 -0.9248091 0.109908395 -0.0871369 -0.50778335 1.6987361 1.3157358 0.34886298 1.1584014 -0.9922434 0.64303684 -0.7048112 2.0216107 -0.43936658 -3.3285992 0.044263206 -0.2606551 3.0384912 -2.4033213 0.80563575 -0.895466 0.8238767 -1.2744509 -1.3265585 1.347699 1.3167399 1.630565 -2.0406497 -1.4427701 1.6069283 0.3665804 -2.548132 -0.09160561 -0.20651166 -0.7276662 0.26446998 -0.71697646 0.088889755 -0.90458906
by -0.58493936 1.22648 0.8929824 -1.4288064 1.1035378 -0.06482138 -2.9842064 -0.93029153 0.15235165 0.5878288 1.354197 -0.21168067 2.3846307 -1.7796911 -2.1554356 -1.1362596 -0.61102295 0.7932902 1.2633057 1.1610057 1.0394831 1.5730693 2.9048808 -0.5083773 1.3228512 -0.7348272 0.56336564 1.4045552 -0.088347375 -1.323534 -4.3328547 0.11222546 -1.4271724 2.1194515 0.28604028 4.3631253 1.4684998 -2.8105867 -0.9041429 -1.0053116 -0.65936834 1.5780157 2.2215471 0.7400127 1.0925465 -2.6921823 3.0685663 -1.7998333 1.2346079 0.038478956 -0.76146597 0.69492054 0.7074705 -1.363389 1.3518612 -0.75344414 0.2601555 1.8389612 1.6874593 0.99019074 0.40242934 2.737895 2.1611989 -2.922133 3.380365 0.17291865 -0.33267036 0.062287997 1.1468298 -2.0955048 0.81170154 -2.6160436 0.16709174 -0.0028944844 -0.118277274 3.5178719 -1.0086269 2.002902 0.6674659 -1.6337113 -3.0926583 -1.7444766 1.7223899 -1.5618006 0.24591886 -1.0874954 -0.1985291 0.093144916 -2.9386384 -1.8718238 -0.7791148 0.026957475 1.5534203 -0.9330519 1.9038988 1.3482225 -0.4209284 -0.5318856 -1.2440617 0.67366254
get -0.59193355 -1.9061242 1.3823318 0.09939894 -2.791173 1.8851371 -1.9456844 0.7340222 0.19247669 -1.2122746 2.1691868 -0.1301753 2.5486035 -4.163286 -2.3938353 0.6962985 -1.6863279 -0.5538789 -2.511221 -0.560712 -1.0431923 0.6182907 0.58678883 -1.6183646 -2.693217 1.052884 -1.1333374 -3.4893117 -2.4279099 0.7352295 2.6119282 -0.62638164 -0.68981576 -2.2545733 -0.4906149 1.2243936 -0.16100726 -0.8858018 0.6653442 2.3462362 0.7120468 2.1382642 0.84837466 3.3871531 1.0092242 0.20671107 -0.4197456 -2.1820145 -0.35616246 -0.49904925 -1.1010553 0.53270507 2.0162048 -0.62086123 -0.85239416 0.3705715 1.3976845 0.6987572 -0.3430045 1.6514128 1.556622 -2.0708697 -0.64858127 2.054085 0.3655601 2.5408888 0.26098934 1.2001532 0.5496935 -2.2149541 -0.4095921 -1.994466 -2.612914 0.6916707 0.06485576 -0.11283892 -0.24075109 -0.7486627 3.0106266 0.7072426 -0.45129898 -0.37933534 -3.1173735 -0.26720574 -0.45837048 -3.3756778 1.4576701 1.4199237 1.8611672 -2.9406664 -2.741722 -2.264161 0.67097217 0.8400137 -1.9044237 1.604502 0.15672617 -0.6017279 0.7690321 -1.0495983
do -3.174982 -1.6953287 -0.48850143 1.576038 -0.6223232 1.0325204 0.9631474 -0.76200545 0.6735124 1.3974317 3.045095 1.091635 2.1778595 1.0540267 0.39304346 -0.15116997 1.5654519 -0.64125186 -1.5035574 -0.33997497 0.030610146 0.6486005 1.0224271 0.34169227 -1.7867441 0.38875043 -4.26655 -0.53395426 0.8543195 0.03319236 0.5700506 -0.47694045 0.6249125 -0.34606814 -0.39255512 -1.6383171 1.2821797 1.3378747 -0.33267418 0.053479083 -1.3658373 -2.3826394 0.83961326 2.109009 -1.0830376 -1.2815729 0.44096252 0.72938883 6.55019 -2.8041894 0.9255644 -0.10945688 0.92042816 0.5254687 -0.9112855 1.7038807 0.79175156 0.007898272 2.4673195 -1.3836118 1.4184754 1.2851946 -2.1112578 1.4494996 -2.0249224 -0.6252282 -1.8573655 1.7497253 -1.7540975 -1.5506083 1.3722056 0.7619862 2.401326 0.85449827 1.2985091 -1.4382827 -1.2602673 0.0723743 1.5319451 -0.8630333 1.8346213 0.21084246 -0.7463869 0.24151945 -0.53996545 -0.66993785 -0.19572322 -1.8561249 0.66943276 -1.2287469 0.6930698 0.76139724 -1.1961951 0.43442386 -0.09393673 -0.87248987 1.0354062 -0.0774781 -1.8039647 1.0333015
would 1.8802632 -1.4708933 -0.47926757 2.0045457 0.052017845 -1.9577708 -2.1086125 -1.7674065 0.7705566 -3.0092618 1.4035709 1.3522656 0.6721054 -0.9738256 -1.2218908 -1.6807011 0.86686945 1.9247618 1.3342619 -1.4565611 0.9542845 -0.48657832 2.1434052 -1.1668063 -1.1924782 0.27863875 -0.7749563 2.6576366 -1.1715786 0.26145005 -1.081846 -0.42282146 2.3500173 -1.2637924 0.1018471 0.64489955 0.16044846 0.24342905 0.2507186 0.27930063 -1.6442623 -3.0625823 -1.7316567 -0.25991753 -0.22226062 1.6219848 -1.6890719 0.43573213 -3.192005 0.5432477 -0.98711497 1.0849682 1.1371987 -0.8255104 0.34947252 -0.9489216 1.9296045 -1.3490473 1.4008815 1.2788067 0.9886641 -2.627115 2.997557 -2.420329 3.5387146 -1.304866 1.0495855 1.0244825 0.2737594 -1.6317149 0.045921113 -2.2136393 -1.6106775 -0.9623573 -3.4295473 -0.4705659 1.0151116 -2.0184004 1.1648927 1.2536796 0.4428201 0.69165456 -0.7877523 1.0031261 -0.22368707 -0.8923944 0.015953422 -1.6471905 0.9330474 -3.9000072 -0.28865123 0.41383922 -1.3269655 0.025358174 -1.269641 -1.567218 -4.8643885 1.6416835 0.89291716 0.7268526
much -2.6863844 -1.3046154 0.37485823 0.85126984 -0.40712547 -0.22723117 0.24058531 -0.8261047 0.6897604 -0.50585854 1.5357884 -2.358323 -1.5463134 1.4107202 0.5649798 0.6826237 0.11047355 -2.0757196 -0.013158715 0.25157723 -1.5186002 1.2046623 0.6016547 1.0156418 -1.0321317 -2.5096881 2.6247377 -1.0438261 -2.474304 -0.8917165 2.096197 2.3519764 1.5566045 1.0323822 0.78000575 -0.13940203 1.8764822 3.6626048 -0.23073064 1.1623073 -0.5417687 0.24032265 2.0803962 -1.1025602 -3.1123466 -2.5682006 -1.0201383 -2.2373464 -0.19130522 -0.0002988388 1.5543106 -0.87821347 2.1324441 -0.31414872 1.8323139 1.1409101 -0.7563514 1.713266 -0.922485 1.5525514 -2.486865 -0.12035416 0.24126923 -0.7168737 0.5217799 2.0694208 2.08919 2.12753 -0.7377019 -2.501137 1.4172049 0.5786944 1.8643996 2.0321693 2.1956897 -1.5018216 0.13408151 1.3171179 0.672091 1.1942586 0.8058417 1.5320977 -2.6229193 1.6473522 0.46047482 -2.2364376 -1.9871107 -0.008906779 1.1306738 -1.0740552 -1.6280768 -0.015892887 1.2738181 1.2388985 -0.8553063 -0.09597547 2.1741908 -1.2546531 -0.09527431 -2.8623254
feet -1.9006397 2.7045028 3.3571136 0.1822271 -2.039315 1.4280044 -0.99833256 0.8382324 -1.0284165 -1.9269483 0.21241575 -0.47891685 -0.24870028 -0.14315684 -0.41694272 -1.1328104 -2.332162 0.98950803 -1.4617268 0.6842594 -0.21198018 0.28938133 -1.5034052 -0.11465285 -2.1553044 1.0681278 0.5797059 1.5612636 -0.9297166 0.118803695 -0.38328895 -0.21594492 -0.94514924 1.6308365 1.6416042 2.1539736 -0.19326824 -2.3065808 -0.39364403 2.6827855 -0.17608266 -0.6176407 1.4449517 2.0448563 1.0399234 -1.5165211 1.0644221 1.587197 -0.59236217 -2.000817 -0.0061298986 0.04168527 -0.6943855 -0.5678622 1.2414209 -1.8623543 -1.6189535 -2.145307 2.727891 -0.8158691 -0.08857873 -2.0480745 -1.5539342 1.02517 0.034758985 2.0606382 -2.017586 -0.4790975 -0.48168713 -0.321772 0.3865332 0.44175592 2.7579846 2.1726394 -0.21481454 -1.8079144 0.18179442 -0.95356286 -0.101383515 -2.2197306 1.2442089 -0.7027826 0.26043874 -2.2401366 -1.2029293 -1.4101385 0.60011256 -0.66150767 -0.17646489 0.528391 1.0146422 0.03166721 0.94557565 0.7738483 0.26411512 -0.6636674 0.1290512 -1.1648127 1.08609 2.2375064
through 0.34952617 -0.15712819 -0.3154185 -1.9537683 1.4073453 -2.0160174 -1.0838932 0.41548532 -2.7692611 0.97432876 -2.242964 0.020403737 0.8478066 -2.4630759 0.595208 0.94725347 0.21418174 -0.3690402 0.5479728 -0.7095759 2.251974 1.0733514 0.5205885 2.7369401 -0.5739274 -1.0728028 -0.62145627 0.1513579 0.6464741 0.54232955 0.16386421 -0.84645194 -0.67659056 0.642947 -0.7009505 1.7922924 -0.26499623 -1.2819364 -0.89271533 0.74571574 0.40288037 2.0085368 -0.57292587 0.62109774 2.3437517 -1.0253378 -1.5482781 -1.9053594 1.5783421 -0.41376936 -0.051612165 1.144234 0.6287217 -1.207905 -0.99741906 -0.5196491 2.2314494 2.1858616 -0.82067335 2.0321114 0.6282399 0.18093592 2.416259 -0.98805064 -0.14664134 0.3582504 0.68432826 0.95806783 1.6185044 -2.2250817 -2.5037875 -1.2682669 -0.14780544 -1.2976626 1.6278867 -1.2844003 2.0513654 0.81055343 -1.0794791 0.7268265 -1.6858578 0.8741146 -2.0504286 1.281387 -3.9248643 1.9316151 -1.3749466 0.46498176 -0.8804489 0.85687333 0.14151484 -0.76208633 -2.899942 -0.8744837 -1.1918987 -3.803943 -0.3495302 0.77162063 1.447674 -1.0828724
door -0.73368007 -2.34763 -2.3374856 -0.21034123 -0.07746631 1.0506283 2.6573436 -0.028691608 0.6495829 1.588871 2.4636047 0.047495116 0.74377006 -0.7970975 0.19206479 1.0433786 -1.0320234 -3.2603717 0.7710648 0.89409256 -0.6935185 1.2776173 -0.31964156 -1.349339 -0.6276595 -1.6342995 -2.1161754 -0.51142573 -0.4724921 -0.79436463 -2.5640628 0.332468 0.6097688 1.3874942 -0.584545 -1.405386 -2.0355017 1.0765616 -0.25002083 2.411203 -0.26972216 0.10184435 -1.6366313 1.965431 -1.4053743 -0.4979432 -0.48011234 1.9051464 2.3029904 0.6568865 0.9387716 -1.4475394 -1.1968793 -0.6874583 1.3231453 0.23525386 -0.5974695 -0.4450876 -1.4636973 1.5557573 -0.23582673 -0.99750286 -0.45837277 -1.4347734 -1.3720444 -0.23083259 -1.2085754 2.0295167 -2.7370365 -0.67400914 -0.21995403 1.59499 1.4987105 1.530338 1.7258122 1.0827209 -1.3070672 -0.4039865 2.3916423 -2.2448206 -0.017138392 -0.09123819 -1.77978 1.2075571 -2.392787 -0.67796135 -0.20499301 1.2379017 -0.62939525 -1.509792 2.9657555 -3.857802 0.34044963 -1.833629 1.0295619 -0.62500346 0.76533335 -0.39197668 2.1357107 0.7656868
alice’s 0.42108724 -1.2910548 2.43768 -2.0939138 0.3305468 -0.4063023 1.5055068 2.287185 0.38261297 1.1362867 -3.0629013 -1.4051174 -2.414687 -0.31425753 -0.39432344 0.15138955 0.90081143 1.3934575 2.6098685 1.3123338 -0.20784089 -1.4175895 0.7272813 0.60660607 0.08706832 0.3994138 -0.5082665 0.7365784 0.5443834 -0.74908954 2.820317 -0.20099513 -1.5351921 1.0162386 -0.31357348 0.8856274 0.03419881 -0.56076056 -1.0745277 -2.3617048 -0.978588 0.14841805 -0.40201172 -0.5219003 0.5807465 -0.5361175 -0.048583016 0.15201616 -1.9702944 1.2871516 1.5992774 0.3634783 0.10069682 1.9382341 1.0591221 0.6933631 1.3141648 -1.9588044 -0.4436725 -2.4797435 0.91236335 2.403162 -1.4049608 -0.22443114 -1.0966778 0.98187715 -1.7624978 0.896767 0.38587427 0.7625352 -0.7484342 0.05499312 -0.9308094 0.45633885 -1.1012844 -3.1893833 0.4959241 -0.7858332 -0.8303433 -0.21153258 1.7299339 -2.8458242 -0.44280466 -1.4347526 0.7073568 1.1187752 0.67339426 0.22075483 -0.8166726 2.2295613 -0.03259778 0.4073831 0.57934356 -2.528834 -0.29572397 0.3192582 0.36766163 1.7841704 -1.2024795 -1.0159819
is -2.3831973 2.4260437 -1.3916895 3.1610458 -0.55230683 0.32244077 1.609789 0.67032135 -0.56981593 -0.23714516 1.3864658 -2.0884955 1.1960335 -0.69038683 0.44052777 1.9683721 0.66633546 -0.024263 -0.67274624 1.062638 1.2200693 0.02816218 1.4638469 2.3599072 0.82448685 -0.5696619 -0.66580683 0.4976565 1.7862211 -0.37491405 0.42692256 -1.5232819 -0.64818335 -2.5091672 1.21852 0.90379393 -2.2560544 -1.0076985 -1.3624558 -0.08820327 -1.923515 -0.29180956 0.29566434 0.21993189 0.5070831 -0.62581146 1.1062623 -0.7344252 -1.5458751 -1.3589154 1.3193793 -1.1720053 -0.07107041 0.35869363 0.79595095 1.3465064 -1.0001923 -3.5231504 0.5995904 0.82932395 -3.1632183 -1.6214198 -1.3577627 2.1871855 1.4620632 1.8319054 -0.7314834 0.48944426 -0.8552502 -2.0527177 -2.2527792 0.514893 -0.86299175 0.6837339 0.12022572 -0.9904385 2.6510723 0.4360498 1.6128703 1.0241983 -0.16955753 -0.3504865 2.1808522 -0.5266483 0.3028028 0.8086481 -0.28167018 -0.22452393 -1.7168603 -2.032332 -1.6642046 1.8430088 -1.1410464 -0.409354 1.9907671 1.4800013 -0.4040959 0.787561 1.4294711 0.08402208
use -0.57975376 -0.6894084 -0.29223177 -1.7715269 0.16256022 0.029582022 -1.077602 -1.4200878 0.23247524 1.4587975 -0.03416959 1.3433825 1.1065104 0.78480583 0.16572459 -2.3951724 -1.2360251 -0.27273834 1.388398 1.1170726 1.2908686 -0.79314995 -0.48317587 1.3700995 -0.17340527 -0.5160122 -0.52712816 0.71025074 -0.28831005 -0.9465344 -0.3136118 0.39392832 -0.015707076 0.3761982 1.2044841 1.9200412 0.23218292 0.27723935 0.74272776 1.1696359 -1.297096 -0.6609056 -0.29310158 2.3610728 0.042402565 -1.2769645 1.8904004 2.608825 -0.2534147 -1.5789413 -1.687421 -1.2477757 0.12863354 0.44524178 2.255526 -1.2746226 1.260188 1.6169995 0.023578785 1.9428179 1.4505411 -0.11609511 2.292113 0.43735984 1.4876539 2.1845229 1.2432982 0.6317089 0.100056574 -2.986153 2.6292799 -2.1142366 0.8842586 -1.1858131 0.6506072 -0.718167 0.79989046 -3.804197 2.6743896 -0.24957593 2.302406 1.7927788 1.8656267 0.1714918 0.81752557 -0.60668194 -1.6441437 1.3206358 0.93944263 0.5268273 2.305103 -2.0411353 -0.1681478 -0.6679602 1.3487796 -0.38792896 -1.5198834 2.0065727 -1.8160088 0.51495165
nothing 1.5468458 0.18031725 1.1228478 -1.7134452 3.3925316 1.5054543 1.3858507 -2.8015132 -0.45111775 1.2106702 0.79908067 1.0990604 1.1014075 0.1276766 1.335097 1.0781931 0.21906383 -0.19326745 1.0317851 -1.2854745 -1.6946602 1.788435 2.6064467 0.05565338 -0.7215504 -2.1009774 -2.4345222 -1.641818 2.678308 1.0262669 2.3104212 0.19997816 -0.073096685 -0.5455824 -0.41512433 0.8115369 3.6299183 1.7078995 0.18624006 -0.686745 -0.85316 -0.18276402 -0.19021215 0.30883908 -0.9714687 1.2698741 -3.5888088 1.4675776 1.3105874 -0.0040557184 -2.3693376 -0.026673239 0.032435317 -0.28615898 0.59324837 -1.9195063 0.46739438 2.1021962 0.4739427 -1.761706 1.4114782 0.89273196 -0.24603266 0.40271616 -0.06120352 -1.2056079 1.196931 1.4073747 0.7655397 -3.216417 -2.0073383 -0.012011442 1.4602278 -0.6845151 -0.53297406 0.26274034 1.4533807 1.8378531 -1.6957593 0.121064834 3.8958986 0.21303993 0.8692241 -2.936676 1.3623456 -3.7028034 -0.4275175 2.7232928 2.7722285 -0.25718677 -0.8038983 -1.5784507 -1.6809319 -0.93591833 -0.10518434 -0.03538602 -2.9540522 -1.8810096 -1.788678 -0.67558664
say -0.23500451 -1.2786005 0.3493392 -0.74093014 1.2555281 0.18818331 0.32079428 -0.45188034 -1.8474965 0.45974597 2.5289502 0.6003288 -1.7414466 -0.21482788 1.4514567 -1.8408338 0.25091827 -0.568623 -0.874682 1.8699745 0.251405 -0.51292735 0.63137317 -1.7478619 0.62782395 0.4985845 0.8313677 0.50445855 0.31046662 1.6865835 -0.011540467 -1.1816397 1.2873143 1.1484195 -0.4691335 -2.8791091 -0.8550015 -1.4652243 -0.5633902 -0.80529404 2.7940524 -1.0186522 0.85216045 0.22738004 1.423788 1.0304335 1.7404485 -0.6148897 -1.0938612 -1.4786155 1.3401239 0.28672278 1.1472056 -0.034143403 -0.44469273 -1.905557 -0.40845802 -0.543503 1.371081 1.5036213 -0.37989646 -2.8593638 -0.8521599 -1.7286243 -3.1185658 1.915629 -0.31181914 -1.891391 -0.9005302 0.8580797 -0.50843096 0.011779217 -0.47060025 -1.3637878 1.2974712 -1.5842481 -0.9742829 -0.36574912 -0.24304578 2.241225 0.27546135 -0.12936991 -1.9282782 1.2420431 -1.3931257 -1.8577088 1.8438668 -0.9303224 0.31537828 -1.2269076 1.0405287 -0.020160772 1.5960989 0.1392963 1.2843188 -1.0802137 2.4697995 -0.42517996 -2.6773677 -1.3636256
found -3.2017438 -0.7916239 -0.810478 -0.33304265 0.33122957 0.47295925 0.46152025 0.6121765 1.1126931 -0.9940708 1.7393978 2.3030167 -0.06814832 3.623609 -0.28888184 -0.1011369 2.491671 -1.9332775 3.949419 1.3809917 0.65205115 -1.1057723 -1.1460903 -2.447389 1.0075079 -1.4672142 -0.3643343 1.5769507 -0.06761188 1.5383092 0.4972825 -1.8178988 0.80695856 1.7047598 -0.33673328 3.5872066 -0.4600982 -0.5847848 0.6737355 2.091022 -0.7699426 -0.95993125 -0.78496766 0.37012473 0.92733693 -1.492865 -0.07271537 -1.6575798 2.281778 0.25418386 0.0005669793 1.3435583 -2.6440823 -0.25233144 -1.3570119 -1.1145563 -1.4406115 -2.7337883 1.8149735 1.8162223 1.8746645 -2.6619494 0.35865378 -0.83201116 1.0103214 0.8558714 -0.98120385 0.16664542 -0.8066287 -1.031645 -1.4858606 -0.58983815 1.2093257 1.2428306 -0.79033595 -1.7840834 2.357362 -2.424303 -1.1836748 -2.6967256 -2.1738918 -2.4536514 -0.51513606 0.18513596 1.7035097 -1.4163674 1.1806396 -2.5445766 0.8165267 -0.06741862 2.1903012 -0.6910979 -0.71436334 -2.1484442 0.626429 -2.0010166 -0.076173455 -1.3170846 0.8430392 1.1892327
wonder -0.31349206 2.4316106 0.87183374 0.8505495 -1.0195017 0.51524293 -1.2043622 2.4542842 0.66788423 -1.296271 1.247122 -0.40677342 -0.8206569 1.2674346 0.2462498 -1.2478917 -0.65849894 -0.41449842 -1.942039 1.3093433 0.8676339 -0.24713488 0.49816853 0.69235456 0.78611314 -1.575224 -0.76248163 -1.8429315 -0.5410019 -3.8938498 1.9112505 -3.040853 -1.3262587 -1.6835089 1.8530747 -2.5243194 -0.6902268 0.6458236 1.5602502 -0.47991592 0.6528089 0.19130696 0.16145213 1.529736 -1.793841 0.46731713 1.3435977 -0.16663012 -0.4787288 -0.56668955 -0.7126993 -1.3412141 -0.22449297 1.576229 0.7107692 -1.7959142 -1.9614049 -1.5110322 1.427674 -0.97106284 1.6290884 -0.31780726 -1.2424575 -0.56585735 -0.57434165 1.058729 -0.98261416 0.25551727 -2.388394 0.4613244 -1.5615642 -0.19242018 -1.534826 -0.6147172 2.0072582 -2.3059616 1.8684356 -0.45996186 -0.5948975 -0.79705 1.057682 0.34475878 0.049459986 -1.1581537 0.2230803 2.617716 0.50386024 1.0561186 0.5493518 0.72548985 -1.4154407 -1.3385284 -0.14307493 -1.77498 -1.8681461 -0.22920805 -1.3448198 -2.1742706 -0.32601085 1.0869229
they 1.3259641 -1.7325873 -1.0321212 -1.0076923 0.28304955 0.3675389 -0.17532234 2.4931955 0.7420954 -1.6866165 0.40748796 -0.18388681 0.8576091 -0.3491114 -0.2881636 -0.33730853 1.3590045 -1.0913951 1.5316433 -2.5305693 0.35800183 1.1050264 3.0549798 0.23936822 -2.6455443 -0.20958447 1.6470038 1.1235704 -0.35855415 0.013331761 2.9600928 -0.20585726 -3.1898959 0.69307995 0.3583987 -0.14335138 -0.2131042 0.8318456 -0.06886309 -0.8394109 1.6657813 -0.75566953 -3.4794173 0.6520783 -0.85895395 0.7129357 0.61693764 -1.5566865 1.260893 1.658292 -0.13176833 1.1350764 1.2811875 0.9363351 -0.44013318 -0.9746617 1.8400661 2.6312242 0.1225883 -0.4668536 1.0791253 0.68518245 -3.356238 -0.31588402 -1.1933678 -3.2831883 0.051293835 0.22398114 0.6227474 0.013654578 -0.61553395 -0.87883884 -2.7206554 -0.5837789 0.8625577 -0.85568804 0.45150113 1.2875558 -0.80780315 -0.97411245 -0.22088481 1.4990377 1.0051088 0.98366815 -1.9964737 0.062353566 -0.38703752 -1.9009811 3.3188412 -0.45879057 -0.0051849587 -0.43096697 3.0539415 2.9657109 -0.10503068 -0.19787267 1.1023698 1.0379767 -0.061409377 1.7374858
which -0.6732478 1.5705732 -1.8031949 -2.5350833 0.3405245 -0.19772404 -0.22049966 0.013437954 0.5948698 2.2846465 -4.263365 -0.6892439 0.654757 -0.36991534 -0.93816257 -1.6289872 0.24557999 0.3611738 -1.2245291 -1.2559918 1.5738537 0.76448834 0.13097657 -0.60396653 -1.2732575 -0.54991645 1.7233512 -1.1443383 0.43670565 -0.70573956 2.019769 0.86211985 0.15778635 -1.5588123 -0.49780566 0.92435515 -1.0605685 0.74267685 -1.7583399 -2.898693 2.4284675 0.6545299 -2.743787 1.595018 0.5799291 0.042707518 -0.68852705 -3.1124387 -1.3515867 1.1847656 -0.07200589 0.004892407 -0.35539594 0.6151545 -0.84955525 -1.2532928 1.5308357 -0.0123277735 -0.33771315 -0.043814547 -3.890524 -0.29485747 0.9643126 0.10921472 -2.824741 -0.26972052 2.4674325 -0.37678346 -0.4338219 1.2041986 -2.7283792 1.3781619 0.073874526 0.5878599 1.1052651 -3.1516907 1.203162 1.1039374 -1.7710364 1.8235612 1.3262495 2.0539782 0.21296525 -1.1943059 0.35489115 1.2608668 -2.5153205 1.8270196 -0.3590812 -0.99764144 0.92976683 1.3059785 -0.9616737 0.2973456 -1.2155182 -1.4668903 0.60434324 0.03035985 -2.0974874 -3.1478455
key 0.1506163 -1.6330873 -0.8531986 -1.0764468 1.163843 0.56170195 -0.8270715 -1.0381995 1.7468553 1.2745614 0.07653579 3.1500847 2.3322675 0.2894263 1.1828903 -0.8261105 1.0226407 -2.1023843 0.030897815 0.49340424 2.36026 2.7526362 0.5256845 2.7966714 0.053384792 0.218385 0.34678623 -0.4879568 0.81974655 -1.5507244 -0.102659754 0.31445813 0.3030421 -1.5551649 -1.2788752 0.5464468 -1.6473874 -0.6443057 1.9958501 1.5304484 -1.3359189 2.6667514 -0.05967111 -0.87730914 1.7190835 1.8550134 1.5874741 -1.6147474 0.8046959 -0.6261023 -1.3460122 -0.8293421 -2.3326375 -1.8892854 -2.693212 1.5252535 -0.10323394 -0.35159943 2.8327703 -1.6191069 1.1805761 -1.5059947 0.63535947 -1.2150984 2.886941 0.11570991 -0.9821641 0.054388896 -0.5391174 2.1262598 2.9975762 -2.5376596 0.0023856875 0.45204744 1.8714963 1.221429 0.1834858 -0.85103214 -0.72314465 -0.2438974 -0.08378185 -0.5425598 0.75085825 1.7716427 -0.433478 2.5208523 0.13394998 -0.45685342 0.6163115 1.9450718 -0.79366195 0.090139434 -2.2381103 1.000062 -2.3003938 -1.2167767 2.0966053 1.9768162 0.88776124 -0.034710843
‘and 3.055126 0.093766466 -0.4902905 -0.40440392 -1.1858904 -1.0596942 -1.2595165 1.2006246 0.2627586 0.70968354 0.20780511 -0.45099634 -1.9013039 -0.56181616 -0.24233922 -0.95198244 1.5907878 0.24424255 2.203759 -1.8929706 1.2379984 0.24914105 1.5485213 -0.6897637 1.1999645 -2.1308599 -0.69773746 1.0581915 0.8234703 -0.7164466 -0.18251055 -1.9981446 -0.7923733 -0.4210126 0.4552771 0.16730963 -1.1099819 2.290888 1.677555 -0.32230175 1.5597873 0.86543566 -0.3270828 0.09072233 -1.5756961 1.5763534 -1.8330766 -0.6323308 -0.4500605 0.06681369 -0.78307575 -1.3366767 0.68507403 -1.2402478 -0.8017876 -0.63065 -0.2653465 -3.4122791 0.75223863 -1.2884506 0.96913576 -2.0787506 -0.80661404 0.35996968 0.47126237 0.06951353 -1.8273478 0.41006634 0.13752653 -0.22629802 1.3526179 -2.340155 0.6629312 -1.5935525 -0.50808364 -1.446345 -0.4515122 -1.3867549 0.90182 0.6322754 -0.762737 2.2024038 1.1442008 1.7642406 0.5907518 -2.000509 2.5192926 -0.45570856 2.5695693 -0.17628042 0.32740474 0.33570066 -0.35507607 -1.2394298 -0.3929644 -0.98798186 0.2849326 -0.37659392 0.97703767 -0.5664529
shall 0.563488 2.323502 0.16027156 0.050835863 1.5205687 -0.9671158 -1.0559756 0.12030612 1.2599828 -1.4476659 2.029509 -1.1207134 0.27594835 1.0070542 0.93703014 -0.034844574 1.7404413 -1.1744231 0.3365794 0.99469465 1.142294 -0.3132041 2.6959188 1.1354831 -0.8809235 0.65718997 -1.6213201 -1.0849689 0.6611382 -0.10190088 1.2077669 -0.21889834 -0.96507037 0.5408568 0.24233927 -0.34476277 1.134287 -0.21467967 0.30427083 -0.11876631 0.7491308 -0.8273015 0.13406597 -1.0303866 1.3647103 1.4536632 0.13521263 -0.020741476 -0.9788657 -1.149014 0.5286793 -0.14639726 2.0226057 -0.6018701 1.8583171 -1.4368219 0.6498014 -0.23323599 -1.8126419 -0.93934095 0.51396203 -1.3110961 -0.6081997 -0.22299123 0.78912085 -0.8688622 0.21246357 -1.1061633 -0.23879085 -1.0531377 -0.28260016 0.7787573 -2.2399545 -1.549127 -1.2601591 0.68384194 2.2320237 -0.90974003 1.0106196 -1.3115455 -0.43231517 0.7994392 1.0800564 1.6583579 -0.036821157 0.561077 -0.89663404 -2.4453394 0.95612276 0.89781576 -0.31189427 -0.13291454 1.3057829 1.4601125 -0.7940627 -0.31486169 -0.8594692 -0.17118423 -0.1358522 0.8763799
then 0.47775283 2.2085114 1.1874315 -0.9600911 0.12030475 -0.5601318 -2.4230983 0.50728023 -0.73934805 0.5416296 -0.3275855 1.9063495 -0.64871037 0.0447514 1.6663952 -2.258929 0.29566818 0.16904706 0.9046917 1.1080868 0.4803187 1.2655551 1.1097717 -0.0053955843 -1.9743801 2.6028218 0.90383685 -0.7244588 0.15068527 -0.5701232 2.5767128 0.7811578 0.07372487 -1.1319373 0.37394607 -3.108652 -0.75836754 0.96212554 -1.0214106 -1.4248253 -0.7484807 2.1762865 1.2666285 -0.6481159 1.6240088 1.6034223 0.12283827 -1.8185819 0.2924381 1.450493 -0.9100931 0.80330634 0.9972189 0.031776134 -1.7798334 -1.4589928 1.2198719 -1.4998785 -0.3843994 -0.78376055 -0.7893022 -2.3335373 -0.013044431 1.0809106 1.3833146 -0.9751176 -0.7813511 0.7729299 -1.5537801 -1.3530138 0.16107363 1.9437864 0.3098721 -2.7687073 -2.4713995 -0.48668942 1.7865058 -1.9067122 -0.04464537 -0.7034051 -1.7439007 -2.0123622 0.64512295 -3.0975342 1.6009527 0.08090488 1.089968 0.4990173 0.11877484 0.4083568 -0.55825883 -0.44043913 0.46128306 1.760325 -0.21642008 -2.9814844 -0.68228346 0.8775038 0.7052644 -0.13827454
either 0.42357704 -2.8478649 -0.054513518 -0.91390336 2.333035 0.60967124 1.5203813 -0.007177151 -0.13444577 0.58222866 -1.586859 1.3049002 0.3536152 -0.5457378 0.3297862 1.4811512 1.5914792 0.6405296 -1.4444363 0.15776506 -0.9901861 -0.4108657 -0.7310179 1.028237 0.28824782 1.5749067 0.5917323 -3.0781555 1.0211782 1.8788629 -1.4008726 -2.4839942 -1.4625181 2.4117625 -2.1375735 0.97069144 1.5585608 -0.65444297 -0.43836188 -0.27177674 1.3951187 1.600939 1.5291346 0.46553367 1.8608602 0.96817654 -1.7189066 -1.1201767 1.5086299 -4.9070206 -1.6980895 1.2143419 0.05298013 -0.9179927 0.42215842 0.74480695 -1.007498 0.4447885 -1.695999 0.59616756 -0.59569985 0.17047976 -0.991988 1.1881479 -2.8724272 -1.0441794 0.647328 2.678931 0.13938053 -2.3708584 -0.07314765 0.5113498 1.8500098 -1.2443687 -3.093841 -0.31779864 -2.220144 0.8909888 -2.5526865 -2.5716224 -2.0367029 0.14919393 -1.4039409 -0.35715756 -0.036736194 1.4090375 -0.5048819 -1.7868057 0.31514448 0.83296853 -0.19120578 -0.18833612 3.4594922 0.44518927 -1.0500369 0.5009106 3.0901053 0.648662 -2.1956327 -1.5837307
moment 0.14260542 -0.40807605 -0.68104297 -0.092996374 0.05818278 1.559029 3.0336225 -1.4917877 2.4767609 -0.16910422 1.8486997 -0.24139126 -0.4594787 1.3784148 -0.033470195 -1.426858 -2.2989764 -0.86431694 0.329926 -0.036178935 1.1617367 -0.43509996 0.22436905 0.086272866 -0.39735603 0.9461447 -0.38121182 -2.0506823 0.96365494 0.80822694 0.5464391 0.22599041 2.0292408 -1.4423288 1.543403 -1.2023486 -0.5472997 1.0803304 1.4444442 -0.16522773 0.01456263 -0.48750517 -1.3019929 -1.0204237 2.42768 0.38300717 -0.21211468 1.0941699 0.32107922 -2.9627025 -1.4335989 1.6025511 -0.15463361 -1.3169247 -1.1122123 -0.9570909 -0.14145085 0.62115026 1.2160423 -0.46957633 -0.22750466 0.0704914 2.0700908 0.89999676 -2.0570853 -0.2018835 -1.4850378 0.033912253 -2.3143191 1.3409302 0.2188925 0.0036338896 1.0094452 1.2403687 2.5337842 2.0619586 0.8781088 -1.6378179 -0.02331163 -1.5477893 0.5062701 -0.11534735 0.9356424 0.7955669 -0.39348513 -1.6474576 -1.3567865 -0.49091876 2.6456485 -0.8782037 -1.1850979 -1.1340512 2.9077775 -0.28075495 0.657812 -0.43061638 -1.3133162 1.6692715 1.1525925 3.9998837
going 0.08323153 -3.5669265 0.2714651 1.2012126 -1.3842696 -0.45676315 0.64278936 -1.5925745 0.71278924 0.66757995 -1.0310794 0.3183521 -0.25593895 1.8451936 -2.191451 -0.5825285 -1.2738494 0.93075 -1.0885941 -1.6489419 -0.124177925 -0.47742522 0.7136557 1.3549402 -2.360769 -0.81586987 -0.69780976 0.59677315 -0.5495986 -0.4423205 -0.11802998 0.37461847 0.6718191 -0.35680658 0.75486773 1.2020928 -1.5042688 0.64882195 0.039942745 -0.94194746 -0.1333497 -0.21771617 -1.5814757 1.6312522 -1.9987732 0.740254 -0.6849915 1.243644 -0.96656275 0.054118052 -0.35302892 2.4248784 1.1719077 1.286872 -0.15536733 -2.06726 -1.8400948 1.8641812 -2.3774593 0.9535793 -0.61094636 -0.038947888 1.003459 1.1056082 -0.2982598 1.5523264 0.37130308 0.39830014 -0.12830254 0.5541334 -0.009029366 -1.0598865 -2.014381 0.04809489 0.0053736046 -3.213915 1.895 0.14378205 -1.2932512 1.9475508 1.7136217 -1.5061907 1.1727663 -2.0669825 1.0090333 -0.4135621 -1.5218943 1.4246932 1.7889885 0.13967285 -1.2900879 -0.9305719 0.3817197 -0.30567908 0.065692954 -1.2678753 -1.8884774 0.1748359 1.6256645 1.0083036
too 0.2006033 1.4032468 -0.5016141 -4.090219 -0.5801449 0.27996433 0.6850192 -0.23838568 -0.16818516 -0.65302795 0.46265432 -0.12444663 2.351576 0.21296062 0.22546352 -1.7157829 -0.2925597 -0.4326213 3.5220726 -1.2255315 1.1153574 0.034970224 -0.46895275 0.11235106 -0.2793815 1.0347732 0.023190198 -0.6983896 1.3957582 -1.4152974 -0.07332936 -0.057964314 -0.47692072 0.26216868 2.9302864 0.8627991 1.7559216 -1.8773441 0.7981917 -2.2238863 0.8079533 2.3047593 -1.899563 -0.6593232 0.8257653 -1.3253781 0.39365008 0.27714473 -1.4598081 -2.3125162 2.0664399 3.2601893 -0.94173485 0.17686695 -2.6515863 3.271561 0.045454536 -0.54072213 -1.1418123 0.9202932 1.4430965 0.30444673 0.94426626 1.1751733 1.0305259 -1.4121494 4.3268437 -0.45517686 -1.1575768 2.1834364 -0.8485447 -0.29499668 0.76050323 3.5124571 3.0706816 0.74722135 0.6272284 0.88070536 -2.1147583 1.1280113 2.889886 -0.04148385 -1.301715 1.2454599 -0.9210354 -0.35275295 1.6045842 -1.2701883 1.8559637 2.0203784 0.7363554 0.22528599 -1.0926709 2.3090403 -0.45408577 0.16341688 2.0542066 -0.64454556 1.1389364 -1.5781896
‘i 3.4676533 -0.40879953 -0.9183244 -0.4227094 -0.35993868 -0.52849114 -3.0511253 1.6621373 -1.2772099 -1.596404 -0.7322058 0.008170938 -0.5665961 -2.3949587 -2.2326543 0.58597815 -1.1809789 1.3124797 -1.560936 0.41818586 0.15197663 0.69015974 2.776101 -1.7923882 -0.18195857 -1.2913054 0.4539393 -2.4621081 0.6647038 0.61644846 -0.8205062 -0.16148442 -0.17322068 0.6676675 -1.7135267 1.1501647 0.9938109 0.56983376 -1.1740685 1.3390841 0.843558 0.16170254 1.953936 0.3892022 -1.4248677 1.6262016 1.7066348 0.18178883 -1.6639661 1.9174824 -2.1999202 0.27984113 -0.67573774 0.07259118 -2.6657827 -0.28892475 3.8604581 -3.0256755 0.6415899 -1.737879 -0.40819055 -1.3942387 1.3698852 -0.14616106 -1.1748662 -0.89082575 -0.29182526 1.2676524 2.053254 -0.08496605 1.4969575 -1.64827 1.886672 0.11403045 -0.9305484 0.7756901 -2.0982535 0.64370793 2.9925642 -0.7611729 -0.11376236 3.1342304 -0.6069396 2.0368679 -0.5620238 -1.4043506 1.2674322 2.0682695 0.4905018 -2.086263 -1.9027412 0.6913009 -1.7804469 0.29828435 -1.9673566 -1.3218603 0.50435734 0.7801747 2.276624 1.0081685
my 1.232032 0.99392766 1.3391578 -1.7660003 3.2225566 -1.9101924 -0.6745513 -1.7434675 0.545938 -1.2612244 0.15682352 -0.11379488 -0.9683758 1.36834 -1.3740476 2.6431458 1.0125997 -1.0369107 1.0339658 -0.2210041 0.8655921 0.88390064 2.31113 1.499976 -1.0815861 2.2541692 -1.1695995 0.12970562 -1.1887591 -1.1567281 0.14805126 0.5275054 -0.26880148 -0.8046271 -1.1675614 -0.592619 -2.1214228 -2.0747876 0.44438374 -0.7809131 0.10892691 -0.12377687 0.8182352 -0.27143297 -0.033998627 0.733681 0.8090916 -1.7845125 1.6436902 -1.4231664 -0.3689992 -0.7195707 0.36913496 2.0761526 1.0203718 0.81663275 1.6384848 -0.27294058 -0.023462864 2.101464 -0.026160251 1.0337232 -0.81437206 1.0950296 -0.40046194 0.49091777 -2.4829357 -0.9565151 -0.024921186 -2.6820176 -1.3731338 0.056571405 -2.393161 -0.06442616 0.59131294 1.22484 0.70389724 -1.3645077 1.510958 -0.90813696 -3.0900905 0.48720106 -1.3947108 1.8676323 1.0554332 -0.76123714 -1.1228377 2.0231543 -1.372431 2.0926688 -1.5208623 0.697225 0.6224102 -2.314338 0.07506114 -0.37368643 -0.43178773 0.66258097 1.5387125 -1.3988054
eat -1.0958881 2.8299553 -0.09199905 0.3924231 3.2465382 1.7042716 -2.5935676 0.4431095 0.1354207 -1.5585353 0.70667475 -0.87475806 0.7351485 0.75575 0.823698 -1.66993 -0.80903906 0.43237033 -3.261048 0.9212879 -0.1871595 -2.3512778 0.16598375 1.4023889 -0.28361985 -2.1922812 1.4646859 -2.4503145 -1.9188211 -0.8470305 0.12971023 -1.1966705 -1.374494 0.30206954 0.3710245 -0.112390235 1.983319 -0.4385108 -0.98088557 -0.59367746 -2.0897872 -0.6479762 -1.5388573 1.8312604 1.8023313 -1.0471404 -1.2757026 -0.49978802 -1.7886074 -2.0386808 1.4259592 -0.5289741 0.38086072 -1.3137939 -1.5913434 -0.38658583 0.34747294 -0.58341765 1.4447329 0.13081181 0.37613812 -0.47538894 -0.18869872 0.5658072 -0.065240525 -1.2565851 -0.11526959 -1.195299 -0.1552901 -0.35131997 -1.0622478 1.7281809 0.20669489 0.46397948 -3.1050518 -0.07309586 0.6458477 0.91941035 0.21729147 -0.04235954 0.3402327 0.11227924 2.3677652 1.1906135 1.0304945 -0.68850696 0.7913955 0.383167 1.9799255 1.6883914 0.8112502 1.2664858 0.049548462 1.3330011 0.3758135 -2.5173063 0.22459763 -1.3324648 -2.0459797 -1.4077367
ever -2.768848 -0.19006923 0.3166847 -0.026150355 -0.8286216 1.2749809 -0.068192415 2.4912763 0.3928995 -1.8206404 -0.21475908 -0.29444796 1.0395527 -0.023365658 -4.1850657 1.046462 0.7482651 -0.59249693 -1.294563 0.5047921 -1.5217845 -0.43670416 0.7796505 0.73793477 -2.7044764 -2.5967026 -1.3545958 -0.9258329 0.36384913 1.7654554 1.1950073 0.50890636 0.10534376 0.5979269 -0.2767317 2.2281923 2.1823034 0.6355947 -0.142757 2.636521 0.6634559 -2.8307014 0.17952023 -0.37863937 -2.5075872 1.23926 -0.64845157 -0.72116536 1.2097347 -0.10315959 -1.4814541 0.27165592 -0.91312736 0.9121173 -1.2582303 1.2345954 -0.019594515 0.65780884 -0.67246586 -2.2556188 -1.5613331 -0.77861935 -1.1087688 0.78049815 -1.735914 -0.18083866 0.23761664 -0.71725893 -0.902304 -0.8211296 -1.8849177 2.2187507 -0.13382973 2.1420808 1.4280779 -1.2794853 0.6912917 0.87101316 -0.8873256 1.4791018 2.8730526 0.3939024 0.15869594 -1.3040596 0.37429032 -1.6004555 -0.5375154 0.44064486 2.830923 0.6299473 -0.63851315 -1.6878341 -2.3274596 -0.5438409 -0.054689486 0.45372397 0.5047773 -1.4251821 0.67050284 0.49612385
came -1.1279873 -0.6988864 -2.7018325 0.62860554 0.22669314 2.0055695 0.5085454 -0.19227475 0.7119726 0.926617 0.41859716 -1.9447333 -1.1447263 -0.514815 0.9502882 -0.34299168 1.9351946 2.8591015 0.7898916 -1.0683298 -2.1671968 -0.050494332 -0.90041006 0.8372961 -0.28494653 -0.7830808 1.8940207 0.38381863 0.15881693 -0.68971497 -2.256737 0.40123963 1.0027376 1.0029161 0.9650924 2.4789143 0.23484692 2.1129508 0.050781935 -1.3688209 0.70433456 1.216549 -0.96661794 0.077362336 -0.09445418 -0.7113892 -2.1883655 -0.791667 0.63656414 -0.046104454 0.8276694 0.080751084 -0.8298147 -0.5807281 0.8097391 -0.6049215 -1.4363825 -2.043586 -1.5312822 0.6246712 -2.1876707 -1.3186567 1.68595 -0.47778645 -3.0502183 -1.4733624 -0.5489495 0.7693934 -2.7175956 1.7538176 -1.1347961 -0.5399998 -0.42355564 1.003979 -0.33336434 -0.1623285 -0.23316884 -2.6807146 -0.1306077 -0.17541574 -0.85150594 -0.9279703 -0.46479014 1.1215949 -0.2900646 -1.5401353 1.9136227 -0.19885232 1.4770982 2.6934688 -3.0573473 -0.7600782 1.1461384 1.0885816 0.21641749 1.3353429 0.094366305 1.8747697 -0.14645436 0.90512997
hall 0.2554437 -0.31885475 -0.56718165 1.1493784 -1.426675 0.31487107 -0.16967084 -0.9837996 0.2773559 -0.35870564 1.0422356 1.2362368 0.9692533 -0.058384325 1.5497698 0.49247262 0.5776375 1.3540179 1.8016655 -1.2013099 -1.9888643 0.8774505 0.5795851 -2.353704 0.1636622 1.333048 -0.56144065 -0.59801817 1.1079537 -0.3019453 -1.867672 0.26217198 1.7058533 0.07794792 1.0746905 0.57477397 -0.73606867 1.1913009 -0.10474998 -0.3434176 -1.6397972 0.9801953 0.16727982 2.4156153 -1.3426034 -0.13476467 -1.1934842 0.49534047 1.8312589 -0.4902299 -0.74990684 1.4035972 0.24626549 -1.0027037 -0.99546844 -2.0820665 -1.1993462 1.3531661 0.17346397 -1.6575239 -0.27755806 0.22656338 1.2941457 -1.7951245 1.4061298 -0.078494705 2.488242 1.1925436 0.25404045 -0.10587389 -0.9476127 -0.49909857 1.2387837 -0.030293616 -0.36362663 -0.5428594 -0.18682086 -1.6605717 -0.23167455 -0.08508229 0.62528324 0.880015 -0.96372783 -1.1650587 -0.15030748 1.6998369 0.24090636 -2.43194 0.20223832 0.13244502 -0.75101566 -1.9849073 -1.1306094 3.426573 -0.53665584 0.90284866 1.0353845 -0.5766662 0.3893444 2.0819983
garden -1.4472425 -0.6916898 1.8561412 2.5201452 1.1580786 0.731154 -0.08712204 0.7939312 1.041547 0.10003535 2.6146019 -0.36719373 -0.08639602 0.54895544 1.8791592 -0.50962204 -0.45063072 -1.2035624 -1.4252081 1.8667349 -0.15139763 -1.2077665 -0.827999 -1.1278129 0.47639513 0.32010737 -0.036996517 -0.72390604 -0.50443417 -1.0975038 0.71608007 0.21603121 0.056261368 -0.48963946 -0.958422 -0.5975306 -1.3451766 0.2619328 0.0119651295 2.0144784 -0.7331933 -0.49599504 -0.08983857 -0.14132921 0.5237237 -1.1160048 -0.50975865 0.88205886 1.5906353 -0.7124477 -0.4251076 2.8724215 -0.8255684 -0.111409925 0.00015829514 2.5563762 0.3339175 -0.9839065 0.3630256 0.83170867 -0.52759194 0.14603588 0.58637506 -2.0966463 1.5932456 0.39679325 0.57085466 0.65558237 -0.22517578 -1.6332763 -1.303233 2.4403574 1.3788252 1.5580133 -1.355785 -0.4264772 -0.1938512 0.8605358 -0.74141365 -0.9803766 -2.002531 -1.4481074 1.5136521 0.509405 -1.6521807 0.73290646 0.7156548 -0.5951205 -0.10728872 0.09375054 0.39388472 0.76637924 0.51681364 -1.3611006 -0.101532616 -1.2404215 2.0056932 0.760792 0.3885901 1.3508291
go -1.8782941 -1.7796602 2.2062867 -0.7822682 1.396437 -0.37610656 0.46688622 0.72060454 0.08173966 0.5709277 -1.5498142 0.8777793 0.7189655 -1.1322029 -0.5208967 -0.3425266 1.5257897 -0.5136906 -0.2516184 -0.43611923 -0.95492923 -1.9857635 -0.6214674 0.2648759 -0.7102607 1.3776772 0.5489929 -1.2873559 0.70841336 -0.06273878 0.7716366 1.1190227 -0.8387648 -1.7333678 0.22650102 -2.26809 -0.53383756 -0.262501 -0.96884245 -0.5755888 0.9417225 1.9820216 1.0731332 0.17431659 1.4725512 -0.61301917 -0.6633212 -0.65112525 0.4441957 1.1387612 -3.2346954 0.22771451 -0.035508297 0.6358366 -1.7671139 -0.63568985 0.84540147 2.652124 0.1050662 0.7616138 0.10785624 -1.0972629 0.29168275 2.444397 -1.5331337 0.20312566 1.12688 0.5662106 -0.58489746 0.71003604 0.9024729 0.0036528143 -2.1547122 -0.7644192 1.6241878 -0.73974985 1.0725527 -0.006059915 0.12651615 0.6881048 0.5536487 0.47316635 0.13900562 -0.07204152 1.0614595 -0.8412508 -1.020464 1.0829087 0.6117672 2.5351596 -1.5692366 -0.48337448 0.2649155 -0.021174867 0.039576434 0.011396811 -0.5778245 0.412902 -0.36755612 -1.5719339
poor 2.5750377 0.9527196 -0.6287808 0.3943807 1.9694347 -0.18883285 -2.7526731 -1.7813864 -0.45552284 2.8889174 -1.5138737 1.1641206 2.9002967 -1.0308822 -0.4820501 -2.3162067 0.055135917 -0.25452477 -0.15779524 -2.6838593 0.14731833 -0.90558267 -0.5627883 2.0799086 1.0792191 -1.1822612 -0.4650432 0.5925738 -1.9229022 -0.17184937 1.2962228 -0.13839655 2.055451 2.0412953 0.3120915 2.0188947 -2.5987372 -0.50296634 0.76438165 -0.06693024 -1.6288625 0.54254794 0.69408196 0.37090558 -1.4529902 -0.37365732 -0.07464016 -1.221839 2.0031085 -3.3148675 -1.2213355 -0.99804515 -0.31333932 1.3203502 -1.1171975 0.6735007 1.7374963 -2.5117795 1.1892371 -1.0569965 0.4947176 0.4573897 0.40494928 -1.2555621 1.3881454 -1.534416 -0.5224244 0.7143955 1.425143 -0.11452789 1.7213331 -1.8214743 -1.5086489 -1.7569932 -2.319713 -0.27035245 -0.20063882 -0.14950281 1.0801067 -0.861591 -0.7096429 0.6414611 2.1598594 -0.24432378 -1.3306671 -0.31133974 -2.1748524 -2.475813 -0.2929799 -2.1428468 0.098919354 0.6922667 0.6882809 -1.9209366 -0.5805564 -0.06676367 1.5142561 2.3101451 -0.23369259 -0.43411988
once 2.076588 -0.022723373 -0.80467963 -0.80176014 0.1054717 2.2859719 0.10600237 1.294692 0.1646841 -0.513336 0.42533863 1.8826898 -1.1394714 2.3972876 -0.26892844 -1.3020611 0.25149313 -0.48841664 -1.2937115 1.3895216 -0.75941074 -2.890615 0.9145846 1.4234781 0.4939286 -0.7413109 -3.3883145 0.91827273 -0.86171925 0.32150188 0.29476067 -1.1997712 -0.20708649 0.928601 -0.2644267 -1.1525092 1.8747004 -1.2577493 -1.4543284 -0.1236256 -1.667594 0.4307854 -0.53719455 -0.428596 -0.53672165 -0.42514244 -1.411461 -0.5306304 -0.67440933 -0.15837178 0.590406 -0.34405974 -0.48728037 1.1376861 0.13022602 0.06283142 -0.7593268 -1.0197271 1.6557533 -0.52748764 0.64762133 -1.6130782 -1.9790746 -0.3564143 -0.3673966 -2.4418857 -1.2761625 -0.6692315 -0.9532761 0.06251157 0.9128548 -0.9417556 1.0746078 1.8840156 -1.0470128 -2.1041644 -0.41899776 0.7952332 -1.2673742 -0.63467336 -1.7285198 -0.33348018 0.8227802 -1.4987363 0.7771406 2.1288946 0.7769515 0.48143005 0.6032451 1.0950662 1.3505025 -1.8887062 -1.2024027 0.40940595 -0.9775884 0.15076317 -0.23293015 -0.067543626 -0.7133661 1.3010207
well 0.08795829 -0.811668 0.4313264 0.07902308 0.5277828 -0.6889585 2.7087247 3.511032 0.1725955 0.47593072 -0.25416154 1.2717645 -0.1913343 -0.6566431 -0.4250184 -0.037468072 -0.540933 -1.2305242 0.46500584 -1.4140748 -2.0005574 1.5380934 -1.6543173 -1.2585237 0.14602204 -2.582222 1.6779138 2.382944 -0.46019378 1.6031266 -1.3505721 3.363586 -0.48615867 0.036154952 0.72529817 0.5454074 -0.8740434 1.1759378 -0.17048666 1.1052934 0.3038557 -0.5702005 -2.8910987 1.3859335 0.33350512 -0.5729118 -2.642794 -1.2845043 -0.12646975 2.3859904 0.70463943 -0.03526653 0.29122347 1.6265013 0.7113567 0.5265722 -0.027732322 1.0234063 -1.1799232 1.6354711 0.68531567 0.10435779 -0.32819954 -0.58770967 0.85472137 1.8800757 0.17628285 -0.32366794 -1.7362156 -0.6923382 -0.89645827 1.1705328 1.0380118 1.0395892 1.6184473 -0.44212836 -2.557299 -1.9579661 -0.7385084 1.0595336 -0.11360051 1.3676564 -1.9995185 -0.5507587 -0.22908331 0.46912786 -1.8491459 -1.0526998 -0.40750304 1.0318666 -0.29047304 -1.14952 -1.7392741 -2.2692316 0.078170896 -0.53992546 1.3877724 -0.8669339 -0.5314517 0.069200926
suddenly 0.6743045 -0.4239213 -1.034847 1.4631717 1.9815112 2.6251013 -1.796315 -1.5605589 0.09387902 0.46965432 0.76030356 -0.033035465 0.2770251 1.2562641 0.5145664 -1.4447916 2.0380247 0.39352223 -1.1721753 -0.95295405 -0.956743 0.19435357 0.011333949 -0.6777347 -1.2382112 2.759033 -2.944407 0.44562352 -1.1226649 -0.3590318 -0.46121517 -0.49580404 2.1786194 -1.9599082 0.6809345 -2.3753262 -2.4372203 -0.6012592 -0.09654312 -0.75218713 0.5461169 0.39596948 0.5632556 0.77238655 -0.78335387 -1.2304348 0.71653306 -1.7970206 0.6022586 -1.4353256 0.17278036 -3.7295232 -0.15319394 -1.1105692 0.046083733 -0.3336448 1.0460253 -2.1056354 -0.91750807 -0.045043625 0.663374 1.5784296 -1.4724511 -0.94717795 -1.1860479 -0.22175658 1.5242159 1.8083771 0.46016425 -0.11525889 3.7678041 2.468523 -1.0159053 0.511077 1.1527699 -2.1593893 -1.949293 1.2962009 1.7607943 -0.5821322 1.995491 2.1635044 -0.8797696 0.9190032 -1.9559547 0.9873498 -1.3276622 -1.0965747 0.18269326 -2.2287815 0.5070819 -1.2100291 0.5817475 1.3494884 0.7171609 1.0307761 -1.2439476 0.15166593 -0.5694438 -1.6620442
